[
    [
        [
            [
                0.033152528720206055,
                -0.024614225491861173,
                -0.010521020068995843,
                -0.1046915432774872,
                0.02225351099406372,
                0.07797183786362753,
                -0.04607090579493204,
                0.16144615607878243,
                0.1236277325374471,
                0.0725985432980303,
                0.015707869529489875,
                -0.0025667767478250413,
                -0.013933486481513463,
                0.17479460882727468,
                -0.01725561553122034,
                -0.013618839549438823,
                0.006863693631516778,
                -0.03495924533309082,
                0.007411988147027902,
                0.05031290246210385,
                -0.03527145868732917,
                0.03694181825675856,
                0.04360450520006542,
                0.06275592248167748,
                -0.0758523865497149,
                0.008486274822494394,
                -0.03840782711765886,
                -0.010125422661274953,
                -0.10902731003544491,
                0.006511200522868243,
                0.008881143232979895,
                0.018712807405197856,
                -0.05594797191682667,
                0.058903606589986675,
                -0.04639621132217054,
                -0.0025125155848352127,
                0.06451430684920646,
                -0.027484101645757215,
                -0.07605324770716056,
                0.02062818336789096,
                0.05966417995091597,
                0.07012310953419872,
                -0.009094651473843147,
                0.020298873767937937,
                -0.0703210749585583,
                0.030468763347859768,
                -0.02999179227986525,
                -0.09464898747244353,
                -0.07052271380255307,
                0.007481131764307875,
                -0.046136487513015106,
                -0.047155387878574664,
                -0.03556038970275635,
                -0.04357674179859935,
                0.015023157263476906,
                -0.013058323621564165,
                -0.015197062122522203,
                0.03198535843563784,
                0.02837651663744666,
                -0.012678384071653647,
                -0.10307495917459443,
                -0.005492771110768224,
                -0.0017907585329351027,
                -0.030127642401324116,
                0.06964180031746825,
                -0.00901812679491709,
                -0.006642276617420403,
                0.04425083721631392,
                0.10303247068837046,
                -0.06032483534246246,
                0.05888978975079765,
                0.022268045297129814,
                -0.018454166477663465,
                -0.04746696403535825,
                0.012026985297898925,
                -0.008677073077194317,
                -0.04795283738387335,
                -0.08344678712260596,
                -0.027889160006740365,
                -0.087906955542548,
                -0.1260815531438315,
                0.09105633725543835,
                -0.011390353750908147,
                -0.01362395528011367,
                0.017723673480557152,
                0.09463080876121545,
                -0.011822384086095348,
                0.012314478039484086,
                0.039374730276098543,
                0.0026913127890069596,
                -0.024934635575263518,
                -0.057016879975022604,
                0.025393053253494342,
                -0.10837140912892301,
                0.02599307404696675,
                -0.04929171260978506,
                0.01878059365394321,
                -0.021048800209348115,
                0.023559052404525806,
                0.09057211293944491,
                -0.017154954713193896,
                0.05291949453102039,
                -0.027760049239442468,
                0.04994435576957345,
                0.0017278222191585773,
                0.000801347737090526,
                -0.04187350644083096,
                -0.07361529039408392,
                -0.009661249099649128,
                -0.0136232268416044,
                -0.02230172878118787,
                0.06278899362945961,
                -0.07851700476328387,
                -0.11864292465979251,
                -0.011303520663983734,
                -0.05348565076370522,
                0.05476155182473948,
                -0.02259382940036382,
                0.06696982447526346,
                0.05284900399250935,
                0.051467594090615174,
                -0.03610008754410584,
                -0.06528418085947,
                0.06534800354219232,
                0.024922686654879296,
                0.05995631445677109,
                -0.0723812929513371,
                0.08776008156357035,
                -0.012249168852198039,
                -0.04011903833831226,
                -0.01163482141716018,
                -0.023016886377558228,
                -0.04789188373129804,
                0.04697710542240603,
                -0.003112661447532268,
                -0.05784786395537131,
                0.03298594156062006,
                0.04822607089722737,
                -0.10960526736505254,
                0.006402622709499672,
                0.07096889784882589,
                -0.014861988346463647,
                -0.02302685824734939,
                -0.02391366012369586,
                -0.08793849768963419,
                -0.09132146646846648,
                0.01964981697355969,
                0.020503291624075826,
                0.02393621858099335,
                0.02510258999791334,
                0.030061317874140393,
                0.03202483993439017,
                0.1604241174851649,
                -0.010300216421046272,
                -0.02233026466408807,
                -0.04981080513069467,
                0.17028873118120652,
                0.04455370916046615,
                0.09737726141953393,
                0.06845491860784336,
                -0.04689098606284383,
                -0.006929130988012087,
                -0.05488005400638112,
                0.04318829194349148,
                -0.03083167347669314,
                0.037016334674228234,
                0.0017139328449180915,
                -0.044375834316675494,
                -0.011359289034342626,
                0.02496925237341589,
                0.03616579062949782,
                0.020193511047973605,
                0.03596455665018783,
                0.09219751622274844,
                0.03178664312079316,
                -0.08117572686011024,
                0.01881503054680481,
                0.034632353689512625,
                -0.026613896497109647,
                -0.016060983653800032,
                0.09724880190975319,
                0.054290779358967534,
                -0.005008829694113259,
                0.09004925437783427,
                0.07032114432667794,
                -0.04217491383115387,
                0.024046423248576185,
                0.009562934127933938,
                -0.033280171689258724,
                -0.07541567703985602,
                -0.002657253498623141,
                -0.0906193252169869,
                -0.046965124522825294,
                0.015213423386236762,
                -0.00821589587179549,
                0.025810570514730923,
                -0.005601446159105312,
                0.005123646477803986,
                -0.03897145842123227,
                -0.051363438852842606,
                -0.005807738280836071,
                -0.04662764433378176,
                0.019535490730373035,
                0.046209488662078545,
                -0.08359077708493272,
                0.014693776763011451,
                0.048115380231943936,
                -0.03801598125310156,
                -0.003356140351061721,
                0.014489243323139328,
                0.050128930898684906,
                -0.0006235026627526069,
                -0.10398578859004533,
                0.01628131572012228,
                -0.024443792409160607,
                0.04947428267046295,
                -0.004720853390146015,
                0.062086922436118054,
                -0.01905967526031826,
                0.019994806014294715,
                -0.0760035164514914,
                0.002012421599206189,
                0.023802591889755982,
                -0.05370707423298027,
                -0.05961955190730835,
                -0.013643021032728814,
                -0.0027497501612027257,
                -0.1647852566214684,
                -0.044887968524697966,
                0.04363994832830286,
                0.0508828288757789,
                -0.043535068262508185,
                0.04538135509953384,
                0.019276571431920332,
                -0.013149068450318739,
                0.029068330762890067,
                -0.06656634899545377,
                0.10086937769984124,
                0.015706687413239034,
                0.0011826680765065275,
                0.009675974622324744,
                0.06012462289076825,
                0.060089944034588214,
                -0.043707523901051766,
                0.02401767780718251,
                -0.06953952963596562,
                0.04591171614532832,
                0.05740748553056252,
                0.054507162110300926,
                0.062270187680661004,
                0.024258703963828888,
                -0.03676165062294947,
                0.058885035295873085,
                -0.011463153387547236,
                -0.021640994202201735,
                -0.02703528674763525,
                0.016685581125642588,
                0.00408943907407234,
                0.0015261387921736728,
                0.12100419951403155,
                -0.007401112890269587,
                0.06986893798309073,
                0.016449521695699836,
                -0.024086955658785856,
                0.007097846215175857,
                -0.015965551482859698,
                -0.016988738219943067,
                -0.04166137182608549,
                -0.039085397034368335,
                -0.04190813776779442,
                0.03957746284728665,
                -0.027298938542819243,
                0.061532326280713735,
                0.07487440980976043,
                0.009048020404208353,
                0.07308067630987357,
                0.00506324238247921,
                -0.03321704711859369,
                -0.01250455780820221,
                -0.016480137139725706,
                -0.045737318237164586,
                0.022675488232275845,
                0.05998239816372827,
                -0.03799040454461982,
                0.009261805545746724,
                -0.008258315466326317,
                -0.0229098408435825,
                -0.01211596543649717,
                0.01390780994859492,
                -0.038779490844218514,
                0.02938748462554878,
                0.07172620264576109,
                0.1493031196839741,
                0.03989974316398431,
                -0.0048584143704634986,
                -0.034144496552139664,
                0.018972300002889457,
                -0.05079024060207999,
                -0.05507982768637441,
                0.024164099844971913,
                -0.031576546829183566,
                0.030019240447136084,
                0.07435379640110494,
                0.055749396386891185,
                -0.09256836707627783,
                0.022705771886144678,
                -0.0346310102952886,
                -0.07563545223175115,
                0.03488267732275831,
                0.010175013344558899,
                0.00661743654278863,
                0.06079988349654095,
                -0.014686851300445143,
                0.058372201670733544,
                -0.007407435515394704,
                -0.061089886765588096,
                -0.009012362692214169,
                0.013468694174576237,
                0.0015721235997237263,
                -0.0681996543666862,
                0.0680559105826452,
                0.02087928894849102,
                -0.008474009408112035,
                -0.03199670141391425,
                0.012875681534343136,
                0.0481079260232189,
                -0.05316970364213077,
                -0.0499104710949418,
                0.05821702003946617,
                0.012303307762106993,
                0.020240775630842166,
                0.010822094725981364,
                -0.039158005443780536,
                -0.011466329936395694,
                -0.08768386581785055,
                0.04180334734509802,
                -0.0455707134083873,
                -0.08507241628251426,
                -0.013407382414268311,
                0.06692712086454124,
                0.02495346487362199,
                -0.01676417275525006,
                -0.11076524414776254,
                0.05441325768882882,
                -0.04985207322584143,
                0.030107729741940325,
                0.01985856951525278,
                -0.019481899719266192,
                0.04761474356550913,
                -0.04956764591881044,
                0.032167514199635615,
                0.08835858384934597,
                0.10935240452374148,
                -0.032515336751708646,
                0.024253291151726537,
                0.03704116290062338,
                0.01885047453818633,
                -0.018956051360725888,
                0.1009292228140283,
                -0.01196936012523839,
                0.005932692335989041,
                -0.002156531495361608,
                0.04330377103989629,
                -0.06563548177182876,
                -0.09650536520098935,
                0.0008901434592587307,
                0.07113358613744754,
                -0.027615050372306996,
                -0.051344194432701974,
                -0.005200926171428093,
                -0.08087525955124704,
                -0.03755771504579546,
                0.04325351440965404,
                -0.01817198030994911,
                0.0141630555530293,
                -0.08181104549106567,
                0.0030668624550220978,
                -0.0005657043730267315,
                0.0711429878282977,
                -0.024796029787397453,
                -0.055715346894244074,
                -0.05460978303114595,
                -0.0602203708545253,
                -0.011641566784715026,
                -0.024365550492961397,
                0.010760390466841865,
                0.0029862655707417417,
                -0.027620563699879464,
                0.04766987425682714,
                0.03429816243730131,
                0.017495569908402255,
                0.05125360354654492,
                -0.057757259386901696,
                -0.028885013261163897,
                0.03423860295753914,
                -0.07508006371125128,
                0.16204751047330074,
                0.06008221447113824,
                0.02641240780354498,
                0.07001555999819334,
                -0.06374758320156232,
                -0.02708204345715012,
                0.01767561706526189,
                -0.082070555683819,
                0.035854242378651396,
                -0.0629692180180252,
                -0.10298922879301846,
                0.06162726851233186,
                -0.11122256323991721,
                0.027174871838043534,
                -0.07921240675532963,
                0.04045442121637138,
                0.036748972019633584,
                -0.022410606237474165,
                0.022688505288070173,
                -0.005226049876421718,
                -0.01737779053446795,
                -0.0505583805906053,
                -0.043108926867334856,
                0.052345025622795555,
                -0.05698756988788577,
                -0.011354993750173412,
                0.0398096783298994,
                0.0655096064827124,
                -0.029602016688388723,
                -0.008472823021416432,
                -0.07633471630956232,
                -0.025717137431351903,
                -0.020511019537991892,
                -0.00293348247881706,
                0.037302007109167756,
                0.005034879742743939,
                -0.027397751478658496,
                -0.046330210809257776,
                -0.0913312133095787,
                -0.03930072129214564,
                0.026684004897053713,
                0.01298381473067064,
                0.01469060632663049,
                -0.061489636371229686,
                -0.0974594903769806,
                -0.09551175123633843,
                -0.013768231079499602,
                0.046259574068035145,
                0.0683900094085215,
                -0.06897996190664026,
                0.05822417461348313,
                0.03415102652130166,
                0.006506829208496755,
                0.0589945594200964,
                0.023939578544171745,
                -0.021819502414265304,
                0.032442919619083035,
                -0.00843379852523133,
                -0.07282317114320533,
                -0.06412957972495639,
                -0.05693647860018898,
                -0.05874320251200649,
                -0.05439980384659287,
                0.01691486774938737,
                -0.05975763132779896,
                0.13843348306854533,
                -0.04981749990394043,
                -0.078948898156335,
                0.051599926052942176,
                0.004266908118432115,
                0.018424345196164732,
                0.060091035772031835,
                0.011482442612262403,
                0.055699887203324965,
                -0.022457412050811264,
                0.04556996008009944,
                0.028980079443504017,
                0.09130605945700317,
                -0.09390301621148969,
                0.031227906136787133,
                -0.07706646347517691,
                -0.013823003755832255,
                0.06633352186968423,
                0.0472846751454402,
                -0.03293844825585001,
                -0.030633373675551072,
                0.11381377625347694,
                0.01049218158054966,
                0.11063369417137335,
                0.0135732244610076,
                -0.03667501534380725,
                0.009597070572208892,
                0.049998349237018125,
                -0.025011777384687708,
                0.0036588534689530453,
                -0.034213079152935144,
                -0.061262656791444055,
                -0.04135192903862519,
                0.015236257486364748,
                0.060258531503371654,
                -0.09303386365608493,
                0.06249180249333935,
                0.020872001610668683,
                -0.01922430042017699,
                0.04596494061006103,
                0.07028427715694613,
                -0.046489494793853975,
                0.009686179766826184,
                -0.005756218886696123,
                0.005163270610477799,
                0.0014860749775647102,
                -0.03798261688860541,
                0.04705352150482723,
                0.003238847222474447,
                0.030178469819245428,
                -0.051705256870912174,
                0.0020143949889435465,
                0.12064402871435505,
                -0.04920577012913278,
                -0.04425044351762007,
                -0.048392332186371546,
                -0.10041824903250413,
                0.04698243503242035,
                -0.018026490051821983,
                -0.10304002916275655,
                0.027713914562353538,
                -0.09312542351263561,
                -0.0353574939692349,
                -0.0028633296817474107,
                -0.007091886967902333,
                -0.03704401357234775,
                0.03530028040663625,
                0.07052647094152188,
                0.011897234191514363,
                -0.11430558977093305,
                0.03303402170949504,
                -0.0421610233639177,
                0.06154160606218599,
                -0.03132310806155104,
                -0.07561281919807177,
                -0.07415347720966022,
                -0.0032039640180796126,
                -0.09989583529615807,
                0.030944683921097074,
                -0.027559640592144937,
                0.11096484223282456,
                0.00691839611258725,
                0.036552162229287054,
                0.061661342800991455,
                -0.004946069193128691,
                -0.038206044044135384,
                0.022691224380463948,
                0.029448873329189898,
                0.06613164072574551,
                0.036807433234367554,
                -0.06407483049688718,
                0.12151877333041902,
                -0.03748829782806957,
                -0.042801267065168354,
                -0.002241980552186669,
                -0.004114588333766622,
                0.05086535813224817,
                -0.02503830146499581,
                0.07384008555847192,
                0.043677978229271074,
                0.03491703804619691,
                0.013737415947369663,
                0.019078694439303896,
                -0.06814015875033969,
                0.12320028477143896,
                -0.021877720745479994,
                0.12199038234496716,
                0.007881062646754774,
                -0.050752725545513785,
                -0.025688763576538605,
                -0.08655536083636635,
                0.1369085193165201,
                0.08618554545146397,
                -0.046171933740561735,
                -0.048483283173972,
                0.02473964262537803,
                0.06756590551941917,
                0.047289951991279465,
                0.04298161888008018,
                -0.0030002126255808327,
                0.058931545595144644,
                -0.024932049780373517,
                0.05772481069269204,
                -0.0002321054658196134,
                0.021048864679917206,
                0.02343659759150929,
                0.005006440438746044,
                -0.027620657923778956,
                -0.05196198656514426,
                0.01901180238131491,
                -0.07612582059626047,
                -0.0010375681913765273,
                0.09171365326065686,
                0.043288053540628306,
                0.007835199720080375,
                -0.005201165397410516,
                -0.06387846357236016,
                0.021265592266967948,
                0.05063403884488393,
                0.07441555199106845,
                -0.04330610475789295,
                0.021892599849948333,
                -0.01007529711075228,
                -0.011508132574280827,
                0.13051054813544902,
                -0.06496871361184302,
                0.013925496467721801,
                0.020326133857079712,
                0.03849757265466517,
                0.056904760944491956,
                -0.0429831037529732,
                -0.029964899825969154,
                0.03821235658146505,
                -0.11456234878722474,
                0.02421610400516425,
                -0.057832020258688006,
                0.020886330195125195,
                0.014889200466312673,
                0.025418862557201327,
                0.02011135461334678,
                -0.004074346230909731,
                0.019928783608405203,
                0.10167630947403597,
                0.084735961511671,
                0.18327395867166238,
                0.01463362377164653,
                0.02579998011356518,
                0.054432474293614946,
                0.0620651933880268,
                0.03526455168896707,
                0.04410216548382642,
                -0.026772914045176593,
                0.03368419389500875,
                0.011266224995330408,
                -0.043499529018271504,
                -0.015196950037281883,
                -0.06868532283042526,
                0.013096793573023615,
                -0.020908225520861533,
                -0.027991296569034586,
                0.05096720472404761,
                0.04645732626977798,
                -0.01175588100886369,
                0.022368392479216615,
                0.08558953876224121,
                -0.008499726920181387,
                0.12282783110561413,
                -0.051850765548624916,
                -0.04071290997647664,
                -0.008460860143558015,
                0.07987959701354463,
                0.02275267337136289,
                -0.024919013686298494,
                -0.012230549791392847,
                -0.0009991201072951786,
                0.011990613169095169,
                0.10288556719563516,
                0.03718283613627293,
                0.01637399406506915,
                0.12307139965826815,
                0.07252408984110933,
                -0.009807713298442187,
                -0.04753599717521188,
                -0.010313731215576294,
                -0.0033487727828259593,
                -0.0692017794353436,
                -0.06718527356549958,
                0.0656321870369813,
                -0.09426421469388294,
                0.03580981022107564,
                -0.016286770546976706,
                -0.02805116506256129,
                0.025147981658175875,
                -0.04132272909834109,
                0.0577666473522153,
                0.06471067707042914,
                -0.0326685810578274,
                0.016037676368776572,
                0.05759701899947229,
                0.023957569139004646,
                0.004252623222356527,
                0.05925669664427076,
                0.02701432161050317,
                -0.02389452519447685,
                0.05352208152886327,
                0.03165063188074166,
                0.0858300124108579,
                0.037710639543225566,
                -0.03035314550423336,
                0.019248534039434915,
                0.07896468319249521,
                0.0639807188933418,
                0.01955156656708301,
                0.05228472117335223,
                0.0907689089473295,
                0.016206974751354825,
                -0.046421476884130584,
                0.020663887403707143,
                0.050801792981977685,
                0.04226733758002242,
                -0.027308529024652403,
                0.032244823475254675,
                0.0016218805353361305,
                -0.00775490001360504,
                0.07837988457905169,
                0.09486442768835131,
                -0.013039999585179679,
                -0.061637546802938946,
                -0.0076132168671694325,
                0.006739591300492362,
                0.0024741487601779785,
                0.08394707691702151,
                0.03332404105020625,
                0.002581553015733229,
                0.030567577340321603,
                -0.05064681316375736,
                -0.08382982465441663,
                -0.032789329738179385,
                0.07867899926810612,
                -0.05922550913502622,
                -0.007904040716994536,
                -0.009401776171278046,
                0.034051425901730784,
                -0.014230448071769132,
                -0.07849988824191924,
                -0.04644865662997442,
                -0.016227414850647562,
                -0.025113135091910318,
                0.05439414301902766,
                0.039572624457482164,
                0.05544371164859033,
                0.03061926068677294,
                0.045609396715387496,
                -0.04092653542445174,
                -0.013940581926759418,
                0.01285306364966322,
                -0.016723349884432467,
                0.044061625481970776,
                0.05169389297797885,
                0.048067674885059995,
                0.024289975446303853,
                0.03280799002957627,
                -0.0057494748574602236,
                0.016348908047760655,
                0.016851497643692485,
                0.06448975949009912,
                0.035098077078244104,
                0.05865615849459021,
                -0.029136586094369334,
                0.0459993863354756,
                -0.017922575936545778,
                0.0028241404836073245,
                -0.004638809341654001,
                -0.0268022559788407,
                -0.04996278649585576,
                0.1029927786702181,
                -0.014207244041355198,
                0.05768154245863711,
                0.061657625485466994,
                0.05085349183236526,
                0.03073072210053099,
                -0.015791451197540433,
                0.004555912560858275,
                0.009635262464224286,
                0.07479663126555994,
                -0.0165729628901059,
                0.018601852807344027,
                -0.03257872480849986,
                -0.09075448399155472,
                -0.04176136075984404,
                -0.01967884259167111,
                0.011423887090716053,
                0.012581120928809343,
                0.09814869528077305,
                0.11220366482412104,
                0.05998310039400522,
                -0.036081488322139206,
                -0.06455718390289371,
                0.06369963874528392,
                -0.028481969841053,
                -0.0032458858944374508,
                -0.01337604328461437,
                -0.0380017682291197
            ],
            [
                -0.06233675051660155,
                -0.04063756720488275,
                0.060387928278052276,
                0.02137193224127195,
                -0.016990250260542954,
                0.07534263989437068,
                -0.02697586869817138,
                -0.035174860343773644,
                -0.005809874661374528,
                -0.018200678846424734,
                0.047297330762211216,
                0.04176270497457841,
                0.0411275795495043,
                0.005127271830504032,
                -0.0016809978592392586,
                -0.14522563884029988,
                -0.0638389966221058,
                -0.05587088706453654,
                0.00379960705254234,
                0.02984666010351882,
                0.02287757088145332,
                -0.003113258175082315,
                -0.017079840482540104,
                -0.018952341972498617,
                0.07594290646589695,
                -0.0017942323131840906,
                0.026739727378140635,
                0.01112304556921704,
                -0.028515709736173827,
                -0.07716717060906751,
                -0.07495666696055524,
                0.06684882974881587,
                -0.031058146701229944,
                -0.003382493519328896,
                0.08104896220282916,
                -0.0846662177022922,
                -0.021302536346103695,
                -0.0835669187218831,
                -0.07959165809718706,
                -0.006520833235973128,
                0.06294822413868052,
                0.11391490200792935,
                0.013425686950942758,
                -0.06403014722906766,
                -0.0195902961558305,
                0.06658025696284466,
                0.06420862715929264,
                0.04718358715171054,
                0.09811963732431583,
                -0.03862237830146848,
                -0.011382541392775497,
                -0.05471409972212382,
                0.016559500355015563,
                0.024183181758501763,
                0.016644510500170618,
                0.07744954311777007,
                -0.0277275806613278,
                0.07606157754514002,
                0.006305739456369112,
                0.007013680964617857,
                -0.028364657345207912,
                0.06812965508216963,
                -0.04405717265849247,
                0.0010318879222873123,
                -0.037766082303643776,
                -0.15414734224055143,
                0.04346032926453609,
                -0.055318138923403065,
                -0.0637402219432636,
                0.0026589818313648575,
                0.010475349004531526,
                -0.02453009982589309,
                0.016976182045666442,
                -0.025430597689594086,
                -0.03859718785273932,
                -0.07739528876194274,
                -0.0685947876025873,
                -0.0107711083225952,
                -0.003448372982697454,
                0.02661091732271179,
                0.015907967468545114,
                -0.13093279293832977,
                0.08464244407354983,
                0.011777938839545398,
                -0.02927455448685347,
                0.07017135714555202,
                0.04549364056719527,
                0.023881896895355966,
                0.05431784518140289,
                0.0033312891664434535,
                0.018311376272183343,
                -0.00962812637962753,
                0.045186344060467884,
                -0.03860363500800988,
                -0.02603985470136116,
                -0.03908497233489786,
                0.0014660609114580364,
                0.07822159872500702,
                -0.06057676735482856,
                0.04367124938113121,
                -0.05653944267141001,
                -0.03456845006643136,
                0.032516938254484005,
                -0.004437720250461026,
                0.012768116665788793,
                0.04321681484337708,
                -0.029101060070231822,
                0.04006299456207232,
                -0.008070340647104074,
                0.012898098836865261,
                -0.01604035881782316,
                -0.003661710578668656,
                0.021229457472700816,
                0.01639947370552488,
                0.015936135057018994,
                0.020639037349229138,
                0.017724480947018242,
                -0.0009781281416723312,
                -0.06006780506711431,
                0.0699374917876891,
                -0.01147827226903831,
                0.043671564850020876,
                -0.03101444832539,
                0.012769796634296851,
                -0.030326084743794664,
                -0.0209352240406808,
                -0.03894881159995917,
                0.11323541696637437,
                0.09924772956487611,
                0.027194141476866433,
                0.04018787069803014,
                -0.006882847010474258,
                0.06288243147080937,
                -0.026114768368044338,
                -0.029273530942706755,
                -0.06056559195337143,
                -0.01842022251738716,
                -0.015804104158014975,
                -0.0750755702824667,
                -0.0281443509654756,
                0.07642388834564008,
                -0.04870456708021521,
                0.06834705046632476,
                -0.0147647664033185,
                -0.04578036002106229,
                -0.028193456117747626,
                0.055570943380793665,
                0.1384556846088174,
                -0.01872051247628973,
                0.013155409230194814,
                0.00708435547299882,
                -0.005047981273823666,
                0.04823226935483163,
                0.06425914533783643,
                0.03732537939163311,
                0.04082292251714614,
                0.06271666844324936,
                -0.007959078607738338,
                0.04649899563343453,
                0.004668863734797828,
                -0.06919065807954121,
                0.009092452257977201,
                0.04184179229575372,
                -0.01665209792662188,
                -0.0696233607396308,
                0.03374637277235611,
                0.01740169763945703,
                0.028487854743733058,
                -0.013917397900665133,
                -0.02949945969058422,
                -0.05083216073834983,
                -0.028131218263489424,
                -0.01907253699138166,
                0.08126957333471978,
                0.004713316542015687,
                -0.14897830706202572,
                0.025050610477714057,
                0.04146150947263298,
                0.008146293634153957,
                0.08632475090100208,
                0.03745282768011739,
                0.10475204315248215,
                0.003509068688369274,
                0.07653068564796986,
                0.039064822076427516,
                0.1583943400614603,
                0.08847563294506129,
                -0.01475752636048486,
                0.039386909333717524,
                0.058804133150380015,
                -0.07119906173967923,
                -0.050919374351974835,
                0.10318564931341992,
                0.10898303738953748,
                -0.021124964532948202,
                0.033178576592307205,
                -0.08226924826068456,
                -0.06383289888020355,
                -0.03227913257074558,
                0.03176890140716122,
                -0.021682315861048525,
                -0.021190057101980526,
                0.014650468396945573,
                -0.03145384765662893,
                0.01387718525093872,
                -0.017860516800474353,
                -0.06783256833432076,
                0.0611581362757081,
                -0.0020336908090866006,
                0.10955135170572546,
                0.10911364531281859,
                0.10164460810669255,
                0.12336497459823918,
                0.15566185792966072,
                -0.0022940602413444406,
                0.0014544146244751621,
                -0.05732711982091296,
                0.032091583330747644,
                0.05294083098203023,
                -0.038126919703058454,
                -0.02458885044766403,
                0.05654578670291966,
                0.009494859000500788,
                0.01770915971529563,
                -0.015607063824557987,
                0.009639341269955583,
                -0.014075364684091462,
                -0.02549308257067453,
                -0.06993276201123996,
                -0.029971631363227853,
                -0.07008855385038985,
                0.013124200720678849,
                -0.05703185086946356,
                -0.07950444342560142,
                0.021496312516305127,
                0.06357800928085128,
                1.8964027788075192e-05,
                -0.022809214563816915,
                0.022014052508035675,
                0.07629046988107825,
                0.0374334725057669,
                0.05274919293247035,
                0.05484492762853053,
                -0.044209779984026566,
                0.010317797221234699,
                -0.022331785003814476,
                0.019919964038811504,
                0.023395499051022815,
                0.01271374536811644,
                0.007922393438471075,
                0.04463056099821932,
                -0.044781026180039624,
                -0.08351870560315693,
                -0.022041491448173602,
                0.05573261546993451,
                0.016422193502676707,
                -0.034721691164294965,
                0.06142795890422721,
                -0.04181394203732749,
                0.11552864480401169,
                0.07902526690988575,
                -0.016563730544368598,
                0.016815413736269803,
                0.01348294312619049,
                0.04590045069649306,
                0.06049196772489651,
                0.0006539876177805036,
                -0.005603834087302087,
                -0.047892181327830755,
                0.026241026379781592,
                0.037293387733114726,
                0.12302773826824,
                -0.07722015029350687,
                0.032913185970176506,
                0.04484787543522181,
                -0.02407501947957799,
                -0.006034648224231929,
                0.011391417995263185,
                0.03503024505082847,
                -0.048942979777921364,
                -0.04270579203034708,
                -0.03163690196916717,
                -0.020413549450382623,
                0.04182198629172273,
                -0.003688938814709091,
                0.0238048496354724,
                0.026176118706766748,
                -0.05714553149531475,
                0.017918553925273976,
                -0.02337947429885914,
                0.07278821592949401,
                0.07805002488201648,
                -0.025928263221050903,
                -0.0004551496686775401,
                -0.025358804409531272,
                -0.025027836149716348,
                0.015871458363894173,
                -0.06062753854243883,
                -0.061166705476474986,
                -0.03709706167564352,
                0.05451752015556351,
                -0.03036365631846699,
                -0.025511281990486856,
                -0.024190459232199785,
                -0.01502369881027151,
                -0.028722368651751578,
                0.017046701390378297,
                0.019708714432195826,
                0.0286258135627027,
                0.061711796963133767,
                -0.04450043479962915,
                -0.04316421078374263,
                0.09862534083242157,
                -0.02757827379804023,
                -0.08467525289393697,
                0.09287292610234453,
                0.03821198347284732,
                0.0672600344363016,
                -0.003504025375242838,
                0.05527080446389202,
                0.06963478446839963,
                0.007253562030379389,
                -0.09126602057562097,
                -0.07406839970667073,
                -0.04584588774390103,
                -0.05865957829634142,
                -0.00623664519364756,
                0.004471425168208394,
                -0.02809853966423819,
                -0.03820207765328889,
                0.05943737187144869,
                -0.06781552828869385,
                0.020668528288144517,
                0.04198641352972455,
                -0.026820081991413617,
                -0.06159995868100615,
                0.023102383029824196,
                -0.03290224489440096,
                0.027533436032258246,
                0.043390969490577545,
                -0.027512736550384748,
                0.07265861180522293,
                0.005311326871231342,
                -0.0061172311029957845,
                0.015531379360433872,
                0.08902944923540822,
                -0.0005579912122493562,
                -0.025617488701917022,
                0.04703037084015605,
                0.03780031356687543,
                -0.10861581196206258,
                -0.01567852424237582,
                0.028184052768389263,
                0.036648471106684705,
                0.011586749723096866,
                -0.017378489462699643,
                -0.008569449594320882,
                0.07510146003049442,
                0.020486678553725095,
                -0.015960090634157226,
                -0.026153232709903728,
                -0.0022819904601767593,
                0.10375471834033416,
                0.019759234811124692,
                0.02052817792461767,
                -0.13521675725721824,
                0.03595894725509866,
                0.0793923830020118,
                0.02484640563982827,
                -0.07157532615779492,
                0.011434947469035384,
                0.01467653832282979,
                0.053335307569785884,
                -0.05768579205213507,
                0.02307109187265209,
                -0.024225905235207994,
                0.07469632032201033,
                0.033529736211520576,
                -0.026790401032857854,
                0.0163172814492391,
                -0.0466005911434371,
                -0.023991948307726694,
                -0.004614399915375746,
                0.060791450576336475,
                -0.003065757560734148,
                0.005808457809280095,
                -0.029252597649093784,
                0.030335700593955604,
                -0.0318502118705157,
                0.04114599000755291,
                0.031317777937185265,
                -0.05918109060183458,
                -0.0475155665626058,
                -0.03542806959980311,
                0.03537919958941624,
                0.04777589143191997,
                0.07679665353300456,
                0.1030166646474034,
                0.02159076893444685,
                -0.010717222213731935,
                0.060017085136887444,
                -0.024923312274361863,
                0.09264048031706792,
                0.08746520043231826,
                0.10913680948174964,
                -0.030007896949731872,
                0.03480618574627419,
                0.027488068844753136,
                -0.1454813654061805,
                -0.0588320212367343,
                -0.08403296802773584,
                -0.05514971781200444,
                -0.012162202838020511,
                -0.03539501987613543,
                -0.11618917682718108,
                0.05759823838056671,
                0.05004624490797635,
                -0.016536074362915404,
                0.009229066495768459,
                0.06100019730357323,
                0.032346550158663404,
                -0.0970741389646716,
                -0.0009523797395020452,
                -0.010290113902903379,
                -0.0775152619498428,
                -0.018983845249672976,
                0.06815559804034638,
                0.02584173022693346,
                0.03407799471643237,
                0.09035804814460349,
                0.03604327626877738,
                0.06583019350020354,
                -0.04632869464507295,
                0.057068240422558675,
                0.027469167331183156,
                -0.033769191443386484,
                -0.042101204722972733,
                -0.053102183043219474,
                0.0560055892816778,
                -0.04578799937598057,
                -0.05022113388603899,
                -0.05509366038975679,
                0.07463085768418083,
                0.020850872289162384,
                0.050491284836810355,
                0.05793712269497775,
                -0.04964575160356797,
                -0.03158077784135878,
                -0.021097204168123943,
                -0.020257174190329783,
                -0.04881963528240497,
                -0.01800900268166029,
                0.12117536739934394,
                -0.03058755598411193,
                0.039676258254000375,
                0.0008675550540037112,
                -0.016408733345141858,
                0.06501530252260083,
                0.04394864183058995,
                0.013289237439493513,
                0.00948302236424607,
                -0.07807482498910077,
                -0.05818590820651497,
                0.14616653511617417,
                0.01963960663419958,
                -0.13663267820803784,
                -0.003485923317760092,
                -0.054092428699463596,
                -0.0159991603320602,
                0.05711772736940861,
                0.011226750906405045,
                0.05710292582477717,
                -0.07237874507130597,
                0.04333981830016795,
                0.04915398570562413,
                0.04580135150716133,
                -0.17041462280047268,
                -0.04961636687621437,
                0.014059711055739011,
                0.05720427939137828,
                -0.003670883527184383,
                0.012840855355960697,
                0.0503005391785316,
                -0.030549550931020113,
                0.024825311074606126,
                -0.013404401670702594,
                0.04898856705726723,
                -0.1055554792975801,
                -0.09061301602747579,
                -0.06788805795677363,
                0.12540408638464884,
                -0.049349222797524725,
                0.03080495902762146,
                0.027750732594742457,
                0.06039823547969278,
                -0.04735908117009901,
                0.0734828682306721,
                0.05000688240670581,
                0.04124160326906252,
                0.0794676393390507,
                0.03194886723016405,
                0.02213710582275518,
                -0.052525227109215165,
                0.057220768414087554,
                -0.07700958843962735,
                0.07446417907855889,
                0.009076902145699678,
                0.012344807298626342,
                0.09561795936964929,
                0.03384359516542725,
                -0.012315331136279339,
                -0.06162946218298258,
                0.14296380171740203,
                0.051383361791536616,
                0.05115442265072546,
                0.0193195586091655,
                -0.07053339325026586,
                -0.053790767580398816,
                -0.008133498753833469,
                0.0008504049867970348,
                -0.06573251418034709,
                -0.01632785841960928,
                0.03960945843560771,
                0.00660268608612313,
                0.013681091802503865,
                0.03529414742071355,
                0.03345363799435862,
                0.007256755534167648,
                0.036567708758889345,
                0.08848854927521431,
                -0.050508512769036534,
                0.00422668127520075,
                0.07442717465006023,
                -0.014035550198978425,
                -0.006266573686603257,
                -0.034237068464576595,
                0.05835506304290426,
                -0.08097475088370339,
                0.0002467988202016748,
                0.05252517558592593,
                0.04197515384321875,
                0.09298515150972303,
                0.022135222683724927,
                -0.003281745229723914,
                -0.05200257031302786,
                0.047572966824146135,
                0.020947746968331443,
                -0.027098366199704935,
                0.05245837626089994,
                -0.015975565262433537,
                -0.02922293936277835,
                -0.05960920352703897,
                -0.005272983319441129,
                0.024376635457111332,
                0.006461740905336318,
                -0.02728040842371483,
                -0.11195866668639419,
                -0.010790793126902992,
                -0.0370791341721192,
                -0.017477646560644555,
                0.05364929547970261,
                0.00970858252714938,
                -0.031699984949273605,
                -0.040101704532269467,
                0.05469144175015812,
                -0.0010370909785970223,
                0.12687986351947692,
                0.1140024016341489,
                0.014925538072367515,
                -0.05569662841832465,
                0.04385210302734793,
                0.03179280120092589,
                0.030271197936880493,
                -0.11133856946268536,
                -0.0432806057387517,
                0.019567329512011462,
                -0.03783689239983815,
                0.02385610289557962,
                0.002102386873942616,
                0.0055100484402697625,
                0.016537352061513397,
                -0.014961440364008614,
                -0.0035148296816680897,
                -0.006630399175447213,
                -0.04404870953957652,
                0.07467566337771782,
                0.03159507701708765,
                -0.03215279568307218,
                0.017792020834975556,
                -0.0481661848924577,
                0.03211750423763551,
                0.007467769835685817,
                -0.05507501097250633,
                0.018200813112012246,
                0.08967947759238293,
                0.08973445978869374,
                0.037868004052396195,
                -0.014938603230285204,
                0.025200106864257606,
                0.08986773997644618,
                0.012547588576442175,
                0.041075557598153824,
                -0.058236973208087565,
                0.010653698913117553,
                -0.000653401496083123,
                0.030585808990551862,
                -0.0036927656755058004,
                -0.06361356946587025,
                0.014971719096321612,
                0.057304423635131475,
                -0.04420628105568192,
                0.08969981640690888,
                -0.029196961889740088,
                -0.030674459164542422,
                0.054884257609693905,
                -0.02593260367340977,
                -0.038640614687643494,
                -0.031448299623677595,
                -0.04219278883576725,
                -0.009106745377785549,
                0.08234283167049423,
                -0.02823124744782875,
                -0.04412181389565067,
                0.0651262811015783,
                0.041099335356033134,
                0.012824731584931193,
                0.05603438728694957,
                0.04417044657736356,
                0.013720048290094222,
                -0.015288296515056681,
                0.07407813280336509,
                0.03587670392748927,
                -0.0867322213699778,
                -0.04363226742961258,
                0.00548451719440673,
                -0.01854207449265322,
                -0.04469809065082081,
                0.06796282154303905,
                0.0027094382739837517,
                -0.03914834070864333,
                0.05084176524276034,
                -0.016930184754010303,
                -0.07210169962770545,
                -0.05128946572490465,
                0.05255099060010802,
                -0.0568045785165504,
                -0.1274972566840213,
                0.07317980165875317,
                -0.04163563625991542,
                0.04060610518207036,
                -0.010454573062816972,
                -0.05732462645330612,
                -0.012794331609440341,
                0.06174424066902894,
                -0.03897586944722106,
                -0.06282885332004734,
                0.021393266985778467,
                -0.03053373460991031,
                0.039309748557438455,
                0.05034861158800314,
                -0.0905758767819273,
                0.04919124761507837,
                -0.01961987973102916,
                0.02534965033789639,
                0.034926637615472975,
                -0.003028054564477658,
                -0.0688174171019261,
                -0.041847461214616945,
                0.019654078453056185,
                -0.02220028392759548,
                -0.00010716473882876116,
                -0.008317209684941457,
                -0.05885706257616478,
                -0.005752887716091839,
                -0.006334280839682898,
                -0.010974710222400813,
                -0.014167720859683337,
                0.04442602084623458,
                -0.02678246789086917,
                -0.0610544507857091,
                -0.0024930790943398663,
                0.019806833144937537,
                -0.06927044704536997,
                -0.08796132872511962,
                0.03421633795034568,
                0.061504027597958914,
                -0.0927264688021612,
                -0.04000183849861015,
                -9.509565871889758e-05,
                0.02795779983891479,
                -0.014941201560043194,
                0.10741124628165935,
                0.09505549469282096,
                0.04523619591029742,
                -0.017357142583259155,
                -0.04949272023111707,
                0.032910542951678175,
                0.05003970530184277,
                0.06576768433437385,
                0.012037995375066016,
                -0.011161457255410573,
                -0.10018454270294866,
                0.03600660169786369,
                -0.027134054916229434,
                -0.033919716731620475,
                0.0969086452402517,
                0.08709739227747963,
                0.06264096879770002,
                0.13928696818287956,
                0.0042462420875596625,
                0.01888887354347129,
                0.0412214321270532,
                0.01852320722758008,
                0.02835078052410334,
                0.06234405994082657,
                0.04841745453921795,
                0.006725591267667082,
                0.09159005679340135,
                0.08930670552360122,
                -0.07304953646439999,
                -0.02157576511562637,
                0.01076833323104812,
                -0.0104583739226961,
                -0.036016498045130275,
                -0.0709820604258747,
                0.021086383390125713,
                0.047630033972439215,
                0.0645890382494171,
                -0.015085696572762932,
                0.02012370057194282,
                0.025230962478744644,
                0.012303855158048613,
                -0.02730661071870852,
                0.06486175893265576,
                0.047740764696618226,
                0.005312109880972013,
                -0.029888777444926923,
                0.09206067237852768,
                -0.029355242972600133,
                -0.08680941002344345,
                0.020281779079746945,
                -0.05262940608955348,
                -0.003978996428906192,
                0.004505105891299337,
                0.009403805437001981,
                -0.018777884855050584,
                -0.028796039076149426,
                -0.10640916599741523,
                -0.035554370775082125,
                -0.015498046762812242,
                -0.013648646269110444,
                0.019863000727229005,
                -0.0022985587406626077,
                -0.0028944359216863612,
                0.09185450507949965,
                0.061054617015489455,
                -0.04598806290112503,
                0.011711541491596637,
                0.009773884766491641,
                -0.09103967552153273,
                0.025324065069884313,
                -0.08215286992856109,
                0.027303934664513044,
                0.05597823284788451,
                0.042595510439591505,
                0.08882915724056063,
                0.01982071990208539,
                -0.006829938665469475,
                -0.042524627776261974,
                -0.010355116991988999,
                -0.004210019911495129,
                -0.02915788125109466,
                -0.03487246178384114,
                0.06360060110349174,
                0.005821515504274493,
                0.04466974871902074,
                -0.01941902725973734,
                0.015316530527478313,
                -0.04694778943343561,
                0.045806242142936895,
                0.0023536400321793297,
                -0.04061644103779013,
                -0.030247102905628303,
                0.08149085860419349
            ],
            [
                0.004869366069085245,
                0.052791966402762534,
                -0.0234188737013118,
                -0.004566936584129647,
                0.04046959553398977,
                0.017172260383409285,
                -0.07235448955259866,
                -0.0010468139425189266,
                -0.000360615963515844,
                0.03501623861317872,
                0.07101495869238629,
                0.03309277068575422,
                -0.036641528037873086,
                0.020761852759060607,
                0.05349089476238618,
                0.08045703749493965,
                -0.07270198855890538,
                0.024755342705555457,
                -0.018910436244696842,
                -0.009619901509442261,
                0.014632639386566849,
                0.004055247540002571,
                0.04423549350637528,
                0.034519107058488985,
                0.028748709540860774,
                0.017931961362153043,
                -0.07013461339484282,
                -0.022752483814587627,
                -0.10997395363971808,
                -0.09865281426608524,
                0.02294669285145707,
                0.013969053788924999,
                -0.018360612056810985,
                0.009342600437272504,
                0.003611575490687345,
                -0.06856800998501507,
                -0.029947465022462063,
                -0.06331056787735208,
                0.02335890021099055,
                0.018782601169392413,
                0.034732429359150586,
                0.10830655302388253,
                -0.021189719106625038,
                -0.11189640834872844,
                0.11060819718815616,
                0.024408051784708045,
                -0.026030479033690514,
                0.012889061159583638,
                0.01887661001012271,
                0.03579615483057425,
                -0.025794185776454346,
                -0.03199454992492395,
                0.04378038615248375,
                0.04662210550104058,
                0.054321237422753715,
                0.021598728685608023,
                -0.05031267469097315,
                -0.03561137124521532,
                -0.03662100507112048,
                -0.049510710848550986,
                -0.044712974455485374,
                0.03472027218772917,
                0.012716691801094625,
                0.05931709666784135,
                0.028344401533612527,
                -0.0024409318004622632,
                -0.02344383888600962,
                0.00244873015292824,
                0.0060131006006239685,
                0.06127141478127314,
                0.022903052382342647,
                -0.13322118943741618,
                -0.04803494253502925,
                0.045735317693318255,
                -0.022418828004525344,
                -0.01281060434928976,
                0.022773548327512622,
                -0.029463378820658807,
                0.05683492731943587,
                0.02346880108312175,
                -0.03530143365447285,
                0.013871245605540592,
                -0.06940481082261181,
                0.05051846631662774,
                0.030250982929421622,
                0.013847102289573435,
                -0.03635070797268472,
                -0.05107111636697683,
                0.04560908622300711,
                -0.03080918859735613,
                0.050986169277191344,
                -0.08440931396934039,
                0.007187821943528062,
                0.002412943019795166,
                -0.03776097772631626,
                -0.015103755596375425,
                0.0030959468599924943,
                0.006091523940288428,
                -0.03392177918706888,
                0.03742061998861509,
                0.011686789400524596,
                0.030682110691296036,
                0.030073606324029476,
                0.012304318328349117,
                0.06282150456745907,
                -0.03293429588630249,
                0.04250277347883095,
                -0.07381351709925928,
                -0.0063704576445736205,
                -0.00593256374429999,
                -0.03370125550615102,
                0.06650357695572565,
                0.026167813509562658,
                -0.07399452390665283,
                -0.0782879085157472,
                0.05832867728336833,
                0.06364736334320649,
                0.0030149662353395894,
                0.01696201016932411,
                0.10452968168984557,
                0.03522842624955992,
                -0.013557162054699527,
                -0.12314032623308722,
                0.04253950404300665,
                0.07623760873754468,
                0.10462150533528224,
                0.02456254163087857,
                0.03072809514095293,
                0.03050569004383939,
                0.12229097424138446,
                0.033494580556899585,
                -0.0427433773675838,
                0.005203767854884701,
                -0.08920850719807448,
                -0.050632056438053956,
                -0.028523469672197273,
                -0.007634291644979168,
                -0.042322114527262256,
                -0.11547723104937853,
                -0.06721429481568154,
                -0.022124919572732306,
                0.027959266196092954,
                -0.014405158211222936,
                0.002260918721968355,
                -0.024236632431187292,
                -0.026830043114012263,
                0.15596776723482986,
                0.01369920211025885,
                -0.007544127251116841,
                0.03959060106795894,
                0.1197607732345336,
                0.05040966880261499,
                0.021733471948606108,
                0.0042620300709444005,
                0.05304770681889838,
                -0.035431182756237516,
                -0.007491002535173987,
                0.061580338483231536,
                -0.05209465649678743,
                0.01892623762692648,
                0.0538614438206845,
                -0.005036633321137022,
                -0.05762624197588151,
                -0.05982018608354879,
                0.06504147934151108,
                -0.024819194942020003,
                0.0771786190306827,
                0.14503228896492398,
                0.047274496213557414,
                -0.04704481763970503,
                -0.031114247182728667,
                0.05338633292863647,
                0.04596181084041111,
                0.05086765150397494,
                -0.08272145052377165,
                0.016655124817212506,
                -0.005970471857608016,
                -0.00767976415488781,
                0.03246866793772841,
                0.029073388405216873,
                -0.013012116969189429,
                0.0575695216580084,
                0.00905668291200241,
                -0.022340871827445312,
                0.02270835431912132,
                -0.014578584254844559,
                -0.07309895060604293,
                -0.034803622373057806,
                -0.0015960859120381081,
                -0.047393483193209074,
                0.01762950692712403,
                -0.008477471392561674,
                0.05577159620550249,
                -0.0613907195697148,
                0.014791838748588,
                -0.06088907590278515,
                0.08202974006698571,
                0.03217823756972502,
                -0.05508387099165331,
                -0.051806425915001744,
                -0.03483280275578965,
                0.004081923175612495,
                -0.07224617680961504,
                0.02913724553747753,
                0.07788434657940342,
                0.08364626203638897,
                -0.03939519784563614,
                0.07987843302969092,
                0.13034500006684058,
                0.05012330488422741,
                0.011582373312399622,
                0.05396958368295015,
                0.0036123214017562705,
                0.03142072299278709,
                0.01814828371646636,
                -0.013793261434876181,
                -0.07693827735974647,
                0.036745887850526626,
                -0.02209920757247806,
                -0.06194048601605392,
                -0.003107557864086036,
                0.01882711244248013,
                -0.07680757146082233,
                0.012789359523316654,
                0.0036072363052424097,
                0.02899282055279643,
                -0.015505459030091158,
                -0.05880059914814627,
                -0.04388537656658528,
                -0.026668215438113808,
                0.00827172623128654,
                -0.04702369741261529,
                -0.09711882009514318,
                0.04865951919744184,
                0.04221814587182021,
                -0.0005929124991940679,
                0.0835581770758169,
                -0.009867845183208261,
                0.013943413118794644,
                0.0590883224636975,
                -0.002512521764075989,
                -0.007420104699751489,
                -0.008242392413900313,
                0.028326538308792257,
                -0.045148957498021336,
                0.01894532601482455,
                0.021154429427129594,
                0.026099792170766602,
                -0.02762514946235442,
                -0.045704296278747045,
                0.08008815866769929,
                0.030355820999545778,
                -0.027432462004915507,
                0.002431778267145913,
                -0.010592631075529569,
                0.013958649326413898,
                0.010826339416382526,
                0.012722581733144188,
                -0.020291308922923433,
                0.07162141124554988,
                0.03195181694430827,
                -0.0767355979126165,
                -0.012818148297301542,
                -0.08626315505093149,
                -0.01732334914679313,
                -0.047026033891115905,
                -0.033507426351151476,
                -0.03607538205921278,
                0.03159353707048712,
                -0.03968622775118315,
                0.033220383461087875,
                -0.034380294146464895,
                0.02635810498228373,
                0.018806107086832006,
                0.03398272629072436,
                0.06818133018015023,
                0.007992600582139192,
                0.009062697635708088,
                0.05827477136397581,
                0.017341135083271206,
                -0.07682694124844618,
                0.05362781776799218,
                0.05801173392920898,
                0.00496025370893831,
                -0.04519196647124682,
                -0.033079281178844525,
                -0.08270414854647375,
                -0.03137979791104847,
                0.05266069367634546,
                0.019801643559420108,
                -0.09166432059017256,
                -0.05361446318643289,
                0.04655587479092726,
                -0.019303642817322424,
                0.053256680748801515,
                -0.04767324575429786,
                0.012521494343236362,
                0.025284412920360134,
                -0.03740788931644884,
                0.0645214412084055,
                -0.03318058813587242,
                -0.031666882225407096,
                0.017666097422294365,
                0.05957849305996349,
                -0.027183659844500233,
                0.06099508556388448,
                -0.007821128941924079,
                -0.023054498020259866,
                0.015218857934620732,
                -0.030098852013023532,
                0.0008365487045254732,
                -0.08178489353274968,
                0.015538659973542396,
                -0.0029762739281090893,
                0.05252073330572941,
                -0.07665912114834288,
                0.08795104420140311,
                -0.06086402553509135,
                0.008201762425812052,
                -0.0705051032902182,
                -0.014346555081576928,
                -0.02280086813315162,
                0.08408085350296583,
                -0.05093511977215869,
                0.05264914002394198,
                -0.021128439718188938,
                -0.05890929042613403,
                0.014186744671832632,
                0.0039476251967254595,
                0.06869473514848891,
                -0.010083524829586828,
                0.06784042023014952,
                0.054061327443843836,
                -0.009347244649286927,
                -0.026466551865794295,
                -0.013587265096871777,
                -0.02444780445026269,
                0.023623496103654742,
                0.008574718733748782,
                0.028102961454556666,
                0.06128222476597626,
                0.09768489484493789,
                -0.05013256806171354,
                0.0031087994162468896,
                0.04810081004429769,
                0.03706655620402592,
                0.06258838858316641,
                0.07036744626612766,
                0.05643153199393089,
                0.06947363593178227,
                0.007445625667369523,
                0.08349633568364243,
                -0.09881866607879972,
                0.04168128626671585,
                0.05254678946011152,
                -0.023944949955517686,
                0.019723222941464627,
                -0.1076598110946089,
                -0.026453103406125854,
                -0.009284145131270708,
                -0.05572345995760657,
                0.003665989079886827,
                -0.012307004031399187,
                0.03564321247953839,
                0.00047305381022350545,
                -0.0208059944357084,
                0.022409464735242007,
                -0.08129869359474,
                0.03081274304829665,
                -0.008112837847386577,
                -0.10758057510021367,
                -0.0019710958126392007,
                -0.04986793256087699,
                0.039346728985402986,
                -0.07592376672088763,
                -0.038967588334141066,
                0.025354631459154585,
                -0.047000813570608285,
                -0.025317543105121434,
                -0.08056101839793788,
                -0.059019957901494724,
                0.09301750602322871,
                -0.018196851811275137,
                -0.04915979730525104,
                -0.03918592740684544,
                0.007320889260046027,
                0.035648297754959625,
                0.03234463641688405,
                0.03290086995793314,
                -0.09404060393902076,
                -0.01137437116389488,
                0.04261960336814412,
                -0.01571251377745477,
                -0.02312881306434959,
                0.07473444404291166,
                -0.0282617368285027,
                0.001224145192336812,
                -0.029274149644997794,
                0.0361438860620049,
                0.024141844139714503,
                -0.06748055400279591,
                -0.015577616596201443,
                0.06461324707493833,
                0.07094467307958097,
                0.04435556638218318,
                -0.0612387875318802,
                -0.026358956375613182,
                0.09184809693806728,
                0.012706933064772212,
                -0.030118789918322626,
                -0.042854700023253374,
                -0.04613305656240668,
                -0.04007384950868222,
                0.0556574414551918,
                -0.10201040961657946,
                -0.00922107020110699,
                -0.026253672429110798,
                0.050056721430037095,
                -0.13702627939197973,
                -0.05663788018998186,
                0.07042942593931062,
                -0.020278581341900505,
                -0.017159773584062794,
                0.014304355843469254,
                0.02943129447191453,
                -0.017732016721662122,
                -0.09570823589031965,
                0.049045375858224105,
                -0.1284954591620238,
                0.03833713459580813,
                -0.07736817833485218,
                0.0314940641553425,
                -0.01948492097385604,
                0.06122960558764457,
                -0.15185512800427417,
                0.00509398494458564,
                -0.028597669420286246,
                -0.06296128998556612,
                -0.04274660977004493,
                0.03185988122281984,
                0.022554584777642363,
                -0.047906673711948324,
                -0.0015286843732661341,
                0.009162918696440396,
                -0.08211101479605482,
                0.024725105162172776,
                0.0029339469643452896,
                -0.02896426041214413,
                0.021517866443930982,
                0.03870524703122326,
                0.02064141554991434,
                0.006468391091554175,
                0.07790485199316552,
                0.04764835347251729,
                -0.056156954160326705,
                0.012766418314190897,
                -0.02306474260064891,
                -0.00741945530867109,
                -0.013095107689935005,
                -0.02070934926271946,
                0.057768533147477714,
                0.03649716904098909,
                -0.032847804189062586,
                0.011264776022745487,
                0.026595448781108148,
                0.0329351194170806,
                0.04013204319319914,
                -0.01648084424662375,
                0.03278943686020933,
                -0.061551633676879186,
                0.10171010782910057,
                0.022351973951334977,
                -0.05735566707366153,
                -0.06914457428752645,
                -0.004893613466521551,
                0.005182103819069287,
                0.04187984852811234,
                0.07920274773429785,
                0.013678509698744928,
                -0.08698926585944033,
                0.044822590999161235,
                -0.07050067017379202,
                -0.030568202221271032,
                0.011796202833747382,
                -0.0794536767622263,
                0.007270213450336731,
                -0.02481849349217423,
                -0.05543844878535256,
                -0.018619199956980383,
                -0.04565954222366924,
                -0.02854057381976497,
                -0.07348454157739032,
                0.029470311279266706,
                -0.006406255928332894,
                0.04615887452648387,
                0.12316027552900896,
                0.011195038216614304,
                -0.005952958272591807,
                -0.02012748388115555,
                0.0625308620377686,
                -0.004962873019191906,
                0.027256088264208764,
                0.0022227992182847324,
                -0.008538639182712327,
                -0.0006902374174322906,
                -0.09824922258507243,
                -0.08914800354495134,
                -0.011101626883948003,
                0.08234249766921166,
                -0.03967841092742861,
                0.12423620258649805,
                -0.034846850800579136,
                -0.04592550593946636,
                -0.031887597734593584,
                -0.03551990358069498,
                0.0292262948592308,
                0.010583545305818018,
                0.0334149840571461,
                -0.014356780064003238,
                -0.03872444814923948,
                0.024005061209204384,
                0.13846582589048867,
                0.07735719132475036,
                0.08501201898232112,
                0.07061723545983319,
                -0.0323034358050991,
                0.060513067056536446,
                0.02011468924183525,
                0.025630559816239268,
                -0.00476003839824631,
                0.00500730001000045,
                -0.04291970601305617,
                -0.051032822451656086,
                -0.07688864969951954,
                -0.05628987036330375,
                0.0010919100849079504,
                0.008975491548503127,
                0.05359665344513457,
                0.045996646388827785,
                0.08763588842793205,
                0.0455122414887689,
                -0.05843724305318797,
                0.031520629389584894,
                -0.05252247379936302,
                0.01517538504922206,
                -0.03730214952318576,
                -0.01757012632568011,
                0.027142806121758675,
                0.04494629168453175,
                0.09083262031240957,
                0.15212720860499285,
                -0.02880193033412179,
                0.02078571125205096,
                0.009009697518412196,
                -0.09692843633723451,
                0.057475685347589185,
                0.06424344599320252,
                -0.06773058182026252,
                -0.05318939448280594,
                -0.08040281665542326,
                -0.011860452810576072,
                0.003826129148355291,
                -0.0016665791296055184,
                -0.050286971010024266,
                0.07935715714324341,
                0.011796712465971883,
                -0.021540107626995063,
                0.09071449357799971,
                0.0635378071698377,
                -0.015483994133331205,
                0.02024187842280463,
                0.09280462414137872,
                0.12846680759553603,
                -0.07613417092616376,
                0.039287056409102725,
                0.011286745978814443,
                0.05281980288739081,
                0.11187181652908539,
                0.015176851176176964,
                0.022008038471780546,
                0.02399175022947141,
                0.032883497072471485,
                0.024232229495972566,
                -0.04742940099964536,
                0.09975882677044286,
                0.0004947773506280989,
                0.02081859699337038,
                0.04112982221738589,
                0.03023867166253736,
                -0.024089269192925533,
                0.09674346232209736,
                0.01773881898099982,
                0.022113517419524737,
                -0.0037598275122148685,
                0.02463926349720255,
                0.13000231498714268,
                0.09782895720834275,
                0.16269100138396803,
                0.07046469105836596,
                0.13374772962305162,
                0.03309892446904508,
                0.12205607187030441,
                0.025322768696217902,
                -0.03937250505752845,
                0.01546857367266187,
                0.05208139010816168,
                0.08866020080477591,
                0.002315674948231907,
                0.0007951015383186302,
                0.0627218998396733,
                0.02615924904177952,
                0.07106145568959983,
                0.07943635455758195,
                -0.003842593726599827,
                0.004278132903689855,
                -0.02017463985949522,
                -0.06999732098657968,
                0.08140643414776724,
                -0.001716613200566753,
                -0.02080966742072754,
                -0.025888479615670913,
                -0.02742542867282538,
                -0.030885478355975576,
                0.06960251084482068,
                -0.043145975616456694,
                0.08053336724659285,
                0.06897363063837926,
                0.02693522638772319,
                0.03816055801186517,
                0.011774373812156872,
                0.05116018724628732,
                0.01999037906361245,
                0.033794928190849075,
                -0.06241101756245968,
                0.04739061698816896,
                0.04079807204191297,
                0.03273438435369572,
                0.02216026944620616,
                -0.009115562534042368,
                0.0031049424473489897,
                0.0059379380279426085,
                -0.025913791731898367,
                0.12408946942956514,
                -0.04008059689793342,
                -0.0773170380024492,
                0.006710365148604582,
                0.08574876400310354,
                -0.06310561233190512,
                -0.017052919776220286,
                -0.03063091072658887,
                0.03111508328380278,
                -0.014000183714186593,
                -0.02819704687546789,
                0.03632218976987285,
                -0.022564677446215185,
                0.04743797507632819,
                0.043375312235477234,
                -0.07130102857432143,
                0.03495878446258784,
                -0.07681886562927091,
                -0.027660507251470567,
                -0.057674411830530195,
                -0.005358514672194168,
                0.06749655314113029,
                -0.02246614455156263,
                0.047773438827548254,
                0.022690910537431275,
                0.051611243887540514,
                -0.08156742412783026,
                0.0005619130791861739,
                -0.05425656403394622,
                0.04900886311217802,
                -0.028880537064717746,
                0.04339320013312047,
                -0.003070372894188281,
                0.021741166638516093,
                -0.04043855256348251,
                -0.04050869279108656,
                0.010105232281001374,
                -0.030893618755960327,
                0.03529943536887377,
                -0.016076152799583514,
                -0.07106258515695314,
                -0.0890876928384632,
                -0.062048763348595846,
                -0.045174630620249276,
                0.02126902473178864,
                0.008338500280391898,
                0.01456002503272695,
                0.08330597650224401,
                0.04378555418202805,
                -0.03398396546215458,
                0.038756112860172,
                0.040235382769388164,
                0.016838309580900674,
                0.09671876227566849,
                0.05028291782487966,
                0.05245945629072022,
                -0.05538315660987871,
                0.06923636196548498,
                0.020698980589181654,
                0.021778165806029988,
                0.03770441815813238,
                -0.009743231862480191,
                -0.049268847275163785,
                -0.022911158283066533,
                0.0057645265974551555,
                -0.031925849895378076,
                -0.11266654495056,
                -0.009414696467793741,
                -0.03490128123031726,
                -0.048961267351965,
                0.04561248512653833,
                0.11709726342055836,
                0.037191423789579695,
                -0.06106940974134426,
                1.2303030893052789e-05,
                -0.0030009473437421124,
                -0.070371796773544,
                -0.007302254400790657,
                -0.0375539405929454,
                -0.02868063398284786,
                0.06955781773279761,
                0.05798860115342139,
                0.0013839860306071505,
                0.06178259083830409,
                -0.06405632007937229,
                0.07820732908064687,
                0.031683204421058944,
                0.022043805738172214,
                -0.0826266448466932,
                -0.042555557949164304,
                -0.030029861923068803,
                -0.013525813284657982,
                -0.07639520379223422,
                -0.057657450718097754,
                0.031299847170938234,
                -0.018956872844253934,
                -0.05191866500712067,
                0.05014091547491793,
                -0.08051260984982724,
                -0.020958412310922044,
                -0.03549957615393146,
                0.03759748331156951,
                0.05334083941539399,
                0.011633826502298187,
                0.012203419247612559,
                -0.0050933251909986025,
                -0.07285515492691962,
                0.08883594021288517,
                0.05577125394419115,
                -0.023080876299929876,
                -0.003353408193399445,
                0.06846424398176466,
                0.023848542992274457,
                -0.04518566524517438,
                -0.01537522829236078,
                -0.07491625296233508,
                0.07356367097445135,
                0.0606341359924112,
                -0.04145191172443277,
                -0.014316416528794102,
                -0.021872462389844076,
                -0.036645885634588045,
                0.06565757530030637,
                -0.06263994156047402,
                0.11465568513554758,
                -0.012416818957344639,
                0.0924970995377599,
                -0.006231616811972301,
                -0.013172357973491363,
                -0.024817231900180696,
                -0.02303251526779726,
                0.03996352429315405,
                0.0344774946783106,
                -0.04540805453729791,
                0.00859347322996117,
                0.007101666159392529,
                0.006503925195066325,
                -0.07323888014935057,
                0.032093919405108626,
                0.007494702067353106,
                -0.020907023373861022,
                -0.013363803156310918
            ],
            [
                -0.0348195431451208,
                -0.036232601943341214,
                -0.04864063875163266,
                0.027479433117161646,
                -0.0009053421899393529,
                0.046770036544938665,
                0.05615033904459153,
                0.009142917566557409,
                -0.07491688294904036,
                0.027099466760580723,
                0.017080711261068145,
                -0.054197104601157294,
                -0.00910016916212157,
                -0.035808604726211724,
                -0.01796313386497533,
                -0.10682024420350662,
                -0.0530367334783139,
                -0.06383224363649727,
                0.0265811925977298,
                -0.09761396380880846,
                0.06531104862323023,
                -0.04063647654984723,
                -0.011807096836687066,
                0.04360266827279023,
                0.021252977350798036,
                0.00604479477403887,
                -0.005359820610087077,
                0.012385533510866813,
                -0.015549892637272838,
                0.0016006692240391075,
                0.11086985955368168,
                -0.049332955615871504,
                -0.02377570925599663,
                -0.05923402053745563,
                0.043014496549443455,
                -0.018120870308310732,
                -0.026701031254696993,
                0.0002871169184254114,
                -0.061198219495896114,
                -0.07184864660457181,
                -0.042576571519760936,
                -0.011514867350014822,
                0.0012319581656309348,
                0.014455122812370593,
                -0.03967778952817378,
                -0.03490151130760896,
                -0.009912101761929377,
                -0.09731171632595176,
                0.04130143566046351,
                0.041102455616072946,
                0.06529830408159316,
                -0.04609027175844246,
                0.07072433467675583,
                -0.023540286243934595,
                -0.026520216937211155,
                0.06227242978174559,
                -0.0737488228698394,
                0.01904950221355922,
                -0.022490726677679033,
                -0.013290038647112186,
                -0.012710397694674714,
                -0.04075019256083683,
                -0.012581210397757555,
                -0.021755994088441366,
                -0.02909222556321912,
                -0.02017836823024078,
                -0.03798675974423473,
                0.014406707832199061,
                0.033377228080465504,
                -0.05050265496129123,
                -0.0019831511737877752,
                0.043489251018839825,
                0.01765206166627516,
                -0.002744983596964307,
                0.005839758160017889,
                0.001247163251943991,
                0.01851464242849399,
                0.04122041142503837,
                0.1120291396875638,
                -0.04970396635867464,
                0.011855708783699489,
                0.07364398570882064,
                0.03844824922734178,
                0.0873227153259037,
                0.10548118301214655,
                -0.019446190550861355,
                -0.010267510408081361,
                0.04247288805193394,
                0.07260029342071517,
                0.0040656439417256504,
                0.028825201192791108,
                0.009653837952913762,
                -0.048676275797681114,
                -0.0749258325787257,
                -0.04436123681647554,
                -0.0468045399508286,
                0.01948933355632328,
                0.046475803057820904,
                -0.006165349423868523,
                0.039162569344640005,
                -0.022900768228280008,
                0.03060299102602018,
                -0.03868187973357387,
                0.03526793483594425,
                0.06904084699660538,
                0.07682362048753176,
                -0.04077188195865637,
                -0.01482122189906035,
                -0.10430459505537537,
                0.0932617785964616,
                -0.07853981336550848,
                -0.061471708654752606,
                -0.06814723805658245,
                -0.013299963348593541,
                0.05379192912857101,
                0.010674748576502392,
                -0.03219080457500059,
                0.08237944170788533,
                0.012833121991737572,
                0.03081641894030008,
                -0.09119343662890399,
                0.0013700671990851722,
                -0.03292395800366323,
                0.0036334346588925877,
                -0.06604137521489174,
                -0.0007647494042363871,
                -0.09835409785268177,
                -0.11792155639399626,
                0.05861772285093068,
                0.04017395458730542,
                0.04284967799998694,
                0.027618807911086393,
                0.02012944040819226,
                -0.03431620094498351,
                0.07153573204653142,
                0.0742673026569706,
                0.009933941473565302,
                -0.03371646422863013,
                0.03741765243387099,
                0.006309842943886678,
                0.003554696095395252,
                0.04272159907742094,
                -0.04993851272560304,
                -0.0037102980122582663,
                -0.01857701090219594,
                -0.006819624030782423,
                0.05977182094953362,
                0.08226255671631186,
                0.03194415701969574,
                0.04326599292216966,
                -0.0007191841802808462,
                0.00491860634784772,
                0.0933830097312812,
                0.0014489935743002083,
                0.0009592584695517105,
                0.08702811716264938,
                -0.00779008647072393,
                -0.08918161384139316,
                0.0049319676930404946,
                -0.030500571460773066,
                -0.0900688097371648,
                -0.0461766746090962,
                0.0030692830117239607,
                -0.039970042511979595,
                -0.015574673349460881,
                0.06936096806122007,
                0.029562443025390184,
                -0.09311096280138706,
                0.07188165871961631,
                -0.06919933318375157,
                -0.0090237976772548,
                0.028509634584275096,
                0.02875661310962834,
                -0.0605494595479283,
                -0.06953988907390542,
                -0.025908626126922324,
                -0.02515279249545105,
                0.023027311984082595,
                -0.028185147763137033,
                0.03991331579613816,
                0.02843562072288257,
                0.06318198756622033,
                0.0799672212584855,
                0.001298743219589771,
                -0.039334651940157866,
                0.08726360944336414,
                0.03083632190201039,
                0.0018364327974332586,
                -0.07731627544202942,
                0.08732646865009296,
                -0.07711160785395892,
                0.07172982220455774,
                -0.09448137810402872,
                -0.13276364216413086,
                0.030356576421077645,
                -0.09596262687153184,
                0.006620402218922361,
                -0.046231359472996114,
                0.0323575731923232,
                -0.009453612584127967,
                -0.04178785927542951,
                0.02101441245307455,
                0.03695847922005285,
                0.004989505345869318,
                -0.0031966606319886576,
                0.007505734443216193,
                0.04775860088687091,
                0.09475204974473567,
                0.10993974701801837,
                -0.10452856425758925,
                0.13674514442376448,
                0.010906304205786333,
                -0.030179819027162234,
                0.052182349085419175,
                0.0827981878177477,
                -0.05801664990875058,
                -0.0033782919491601652,
                0.08793628262068764,
                0.04914239843471946,
                -0.05539816202164301,
                -0.026316968791918312,
                -0.012872852654399532,
                -0.07082398380489141,
                -0.08117427027969978,
                0.004133780413714696,
                0.022939455874501843,
                0.04880058973510876,
                -0.021899121813615717,
                0.03817310783020904,
                0.031152426861391885,
                0.12440543541303055,
                0.016404167826805063,
                -0.0022831375559603613,
                -0.04685787780043434,
                0.08726653317212568,
                -0.03785348574323112,
                -0.0012918786385309603,
                -0.045457898504331656,
                0.007561306116614945,
                0.03778652107193763,
                0.02815936385353104,
                0.028391782490304718,
                0.004713868746590476,
                0.09137745268415408,
                -0.029437345294020867,
                -0.035141525694301665,
                0.06076813354716825,
                -0.006950703061059759,
                0.0062921881490427085,
                0.04854919737779371,
                0.047504607676899756,
                -0.03268369278051161,
                -0.01830916682062554,
                0.11283451855212787,
                -0.08431753564457621,
                -0.027601047144491287,
                0.0422929662899264,
                0.047893270804765485,
                0.014281766691255637,
                -0.01924707809643963,
                -0.026267501871652225,
                -0.11668975940237719,
                -0.06443001459503463,
                0.0146983128734046,
                0.008676996825067125,
                -0.06975433511255366,
                0.07703574444469351,
                -0.05603168135038539,
                0.047269221618175934,
                -0.005140127821677207,
                -0.00665174207651375,
                0.038809757555207915,
                0.022758353742244344,
                -0.02694090480287971,
                -0.01547519213239316,
                0.016307474999195822,
                -0.0007919863235877208,
                0.007568145821007399,
                -0.03799363548563838,
                0.07014419126436124,
                0.0019837921137260046,
                -0.06962196460820695,
                0.0012406767578752391,
                -0.04332354473841827,
