[
    [
        [
            [
                0.033152528720206055,
                -0.024614225491861173,
                -0.010521020068995843,
                -0.1046915432774872,
                0.02225351099406372,
                0.07797183786362753,
                -0.04607090579493204,
                0.16144615607878243,
                0.1236277325374471,
                0.0725985432980303,
                0.015707869529489875,
                -0.0025667767478250413,
                -0.013933486481513463,
                0.17479460882727468,
                -0.01725561553122034,
                -0.013618839549438823,
                0.006863693631516778,
                -0.03495924533309082,
                0.007411988147027902,
                0.05031290246210385,
                -0.03527145868732917,
                0.03694181825675856,
                0.04360450520006542,
                0.06275592248167748,
                -0.0758523865497149,
                0.008486274822494394,
                -0.03840782711765886,
                -0.010125422661274953,
                -0.10902731003544491,
                0.006511200522868243,
                0.008881143232979895,
                0.018712807405197856,
                -0.05594797191682667,
                0.058903606589986675,
                -0.04639621132217054,
                -0.002511465424561073,
                0.06453110792446998,
                -0.027464123984289966,
                -0.07602704824686116,
                0.020650216827559423,
                0.0596952584262907,
                0.07015230037653508,
                -0.00906824458225066,
                0.02032969939676416,
                -0.07028772114205387,
                0.030512690600967885,
                -0.02995871973444742,
                -0.09463743958967437,
                -0.07052113126559251,
                0.007487656170993655,
                -0.04613361807532641,
                -0.047155387878574664,
                -0.03556038970275635,
                -0.04357674179859935,
                0.015023157263476906,
                -0.013058323621564165,
                -0.015197062122522203,
                0.03198535843563784,
                0.028376644921323916,
                -0.012679337666670742,
                -0.10307279900448924,
                -0.005490089088086882,
                -0.001761565281613349,
                -0.030057109435027318,
                0.06974320591430686,
                -0.008870079861834053,
                -0.006370853045598706,
                0.04459522356215419,
                0.10363181281478967,
                -0.05954270956989298,
                0.05969403215057131,
                0.02294514592506574,
                -0.017790705352125954,
                -0.046765680311399584,
                0.012642821540132255,
                -0.008223450677952713,
                -0.0477131558108919,
                -0.08337414029466332,
                -0.027879258682978164,
                -0.08790934690436739,
                -0.1260873288767424,
                0.09105250029951649,
                -0.011390353750908147,
                -0.01362395528011367,
                0.017723673480557152,
                0.09463080876121545,
                -0.011821844305176358,
                0.01231151971674608,
                0.03938132595780054,
                0.0027105872008098904,
                -0.024858175445502763,
                -0.056890624656723135,
                0.025573867380514776,
                -0.1081129273245974,
                0.02635932772647969,
                -0.0484363883876402,
                0.02021782435107733,
                -0.019288758671664186,
                0.025515998683585128,
                0.09235312429575625,
                -0.015126924317928338,
                0.055591464059022676,
                -0.025155721930091187,
                0.0523235589898648,
                0.003367018980700944,
                0.0015535540428381418,
                -0.04166959470375618,
                -0.07362243109811413,
                -0.009718649268182857,
                -0.013653863326753208,
                -0.022305354647587875,
                0.06278899362945961,
                -0.07851700476328387,
                -0.11864292465979251,
                -0.011299655859736014,
                -0.053484098376157606,
                0.0547899359736144,
                -0.022522311936730512,
                0.0671378720214513,
                0.05308669473500406,
                0.05182794085825429,
                -0.03592340731399089,
                -0.06508486303659167,
                0.06565055617463682,
                0.02505670943503731,
                0.05940636234135863,
                -0.07397796105389196,
                0.08620695294609385,
                -0.013319017445085813,
                -0.040020145656945665,
                -0.010339515389134574,
                -0.020958894144387567,
                -0.04643888109261489,
                0.047593080392984474,
                -0.0030963951534824542,
                -0.058060401547418095,
                0.03274902240766436,
                0.0481096351589482,
                -0.10962259094220615,
                0.006402622709499672,
                0.07096889784882589,
                -0.014861988346463647,
                -0.023023507628943497,
                -0.023885580636962587,
                -0.08783933143190091,
                -0.09110836965774526,
                0.020036117315508598,
                0.02096035742539767,
                0.024308766941864204,
                0.024854573019621663,
                0.029409193728558186,
                0.03002695966728932,
                0.1561397365562602,
                -0.016818430292427446,
                -0.029835021083256422,
                -0.05689505021092112,
                0.16346045866737072,
                0.03858485627044972,
                0.09267124170799329,
                0.06504887885470313,
                -0.04971293889212786,
                -0.00978848979080068,
                -0.057613602051563795,
                0.040849256810854516,
                -0.03215259081353801,
                0.03647000332329988,
                0.0015886545982025065,
                -0.0443786986471908,
                -0.011359289034342626,
                0.024969205523832624,
                0.03617573640346995,
                0.020302659462799962,
                0.0361966952684693,
                0.09262465861047686,
                0.03226741604920398,
                -0.08079342977606493,
                0.018525160159676125,
                0.033273217178639056,
                -0.02863181103973126,
                -0.01901256684845806,
                0.09317505384459585,
                0.05037947802360188,
                -0.007089716977213039,
                0.0905476430005737,
                0.07193957395538467,
                -0.04153306733586849,
                0.022412333558964506,
                0.0048275185205347215,
                -0.039025420286988306,
                -0.08192545962636374,
                -0.009252928266718393,
                -0.09620930793746736,
                -0.0504364751916519,
                0.013700593209919872,
                -0.008583686931005065,
                0.025774166599576244,
                -0.005601511930202795,
                0.0051213169511018656,
                -0.03894103280990036,
                -0.05118896010181713,
                -0.005487644458156007,
                -0.046246888783369126,
                0.019527300378569604,
                0.045446123424226145,
                -0.08558572700870301,
                0.011997903931781824,
                0.04482221320372481,
                -0.04185191266454888,
                -0.006616918304641532,
                0.013828966864606601,
                0.05413034205704266,
                0.00539955122836673,
                -0.09732471574028445,
                0.020530887987464122,
                -0.02487177423096566,
                0.04597679418434272,
                -0.010840816778606382,
                0.054207940177973396,
                -0.0276010245779802,
                0.012195917578492033,
                -0.08130041214661639,
                -0.0003778495542164718,
                0.023310098731373192,
                -0.053755779624813566,
                -0.05961981918985344,
                -0.013643278217625624,
                -0.002663534842605287,
                -0.1646045080779975,
                -0.04466618889126531,
                0.043495551331730394,
                0.04957375903750416,
                -0.045888201727339706,
                0.04211518175451873,
                0.014652135383380449,
                -0.01849110561349939,
                0.023108770108724756,
                -0.07154899612669618,
                0.10014091816082246,
                0.019046744689645564,
                0.0054192384987711475,
                0.013191911406980986,
                0.06211974112605417,
                0.05828645725291403,
                -0.048579174934892944,
                0.01874563861333974,
                -0.0765583512731048,
                0.037456501926821775,
                0.04918710684089281,
                0.048557442981991474,
                0.05959414401624448,
                0.023612315509118374,
                -0.03683295093516289,
                0.05888448631778911,
                -0.011466056845579829,
                -0.02153959588549906,
                -0.026869038638376093,
                0.016562597988307476,
                0.0033163052846080982,
                -0.0007741572108242595,
                0.11768335118047292,
                -0.012178694087198795,
                0.06385698705581609,
                0.010438200609109834,
                -0.02942736776098746,
                0.004719272187663415,
                -0.016139547561756257,
                -0.014731519545880582,
                -0.03837227248398714,
                -0.03650475096884965,
                -0.04174011243723558,
                0.03683962845154042,
                -0.032204608617870716,
                0.05788690393589425,
                0.07014874935041487,
                0.002554806076579859,
                0.06642732419340432,
                0.0003126039533272528,
                -0.03541987605592495,
                -0.013014291241897378,
                -0.01652493317685271,
                -0.04573853298355753,
                0.02267110874368239,
                0.06004645760111075,
                -0.037807310126370675,
                0.008966234757692459,
                -0.009268655864716186,
                -0.02503890674594272,
                -0.015242577709015806,
                0.009878002599058177,
                -0.043866839831324576,
                0.025453493514161988,
                0.06899796389221056,
                0.14716866101781576,
                0.037395021538288775,
                -0.005621284707477168,
                -0.03192767560746186,
                0.022612485942816597,
                -0.04905623568365573,
                -0.056463657486988485,
                0.02195372286691517,
                -0.03198050674407804,
                0.029517057037430794,
                0.07202757892325222,
                0.05204689601613643,
                -0.09534295666825199,
                0.02146398018221848,
                -0.03489678260303135,
                -0.0756584749571428,
                0.03488013829604694,
                0.010200342169965314,
                0.0067464875612923735,
                0.06104883900618019,
                -0.014537870342907096,
                0.0580478239599077,
                -0.008519394543561626,
                -0.0628079645704493,
                -0.010741348812555982,
                0.011715541724864359,
                0.0009622827333393782,
                -0.07041191537145228,
                0.06286782268938204,
                0.014469230891138326,
                -0.011818389627777271,
                -0.02958797792040666,
                0.01834208495652373,
                0.052559562994632665,
                -0.05164326071608422,
                -0.04766480055507947,
                0.06225917579832653,
                0.015218629445290063,
                0.021310303767253305,
                0.010060146942186272,
                -0.040328789583025944,
                -0.011952415411808687,
                -0.08784598982070706,
                0.04180595191890076,
                -0.04557419835669243,
                -0.08505791381148387,
                -0.013283571961098008,
                0.0672388762464381,
                0.02560590087777574,
                -0.015961564518123816,
                -0.10963084959516387,
                0.05579229148286865,
                -0.047586135888153205,
                0.032239275789190495,
                0.020652306170041667,
                -0.023086863877943762,
                0.04017732804952795,
                -0.057310068241201224,
                0.02941383023267782,
                0.09172636409326095,
                0.11557797230945602,
                -0.027878605673979772,
                0.027569221267768385,
                0.04161338334641262,
                0.023980826375853977,
                -0.015484730398213974,
                0.10340678157874073,
                -0.010759395267248447,
                0.005927597763494155,
                -0.0022014936250484137,
                0.043225911728247766,
                -0.0656320093223223,
                -0.09650545395601379,
                0.000890776272295322,
                0.07119711079100992,
                -0.02735549858186104,
                -0.0502862294864013,
                -0.0031672594386732483,
                -0.07747773147079552,
                -0.03317598898062435,
                0.04946004872599126,
                -0.013587271027318779,
                0.015559269137089382,
                -0.08581282621043826,
                -0.00404000560883633,
                -0.00664273177451297,
                0.06978691493228176,
                -0.021898807452012906,
                -0.05088038005908683,
                -0.049623412075430084,
                -0.05615635440884002,
                -0.006474889565182002,
                -0.019936767418968757,
                0.014162199668499872,
                0.006019868976164979,
                -0.025503155977567984,
                0.0484584515428108,
                0.03442525039297345,
                0.017451381311983975,
                0.051252914729540563,
                -0.057757259386901696,
                -0.028884118736094797,
                0.03427295755989827,
                -0.07477087892806841,
                0.16326145395010486,
                0.06285130365252425,
                0.030882711849141525,
                0.07645653047377632,
                -0.05623706687350929,
                -0.021849101277232167,
                0.019497796966895967,
                -0.08467338836506186,
                0.031073456716685644,
                -0.06777090564953009,
                -0.10601104262781602,
                0.0624605695945588,
                -0.10694944530873099,
                0.03355930671935463,
                -0.07338620045815879,
                0.04662646929164557,
                0.04118486323743549,
                -0.01917230901807553,
                0.025811258126005574,
                -0.0031940591731271506,
                -0.016528031796704493,
                -0.050442778547359464,
                -0.043164631498392794,
                0.05234451393016375,
                -0.05698756988788577,
                -0.011354993750173412,
                0.039822963079364664,
                0.06574356245474908,
                -0.028675450263844864,
                -0.005596765023224505,
                -0.0712622733976257,
                -0.018858360614544527,
                -0.014091938772871572,
                0.0004165314032711795,
                0.03833028978687033,
                0.0033934398930604947,
                -0.03231093571070352,
                -0.05292685247640806,
                -0.09554264820809841,
                -0.03950923431811733,
                0.030417560099730984,
                0.01932284870871669,
                0.019846329001669456,
                -0.055994660748276144,
                -0.09285028405742136,
                -0.0921035895134755,
                -0.01137116201195055,
                0.04791563053323281,
                0.06901975875462084,
                -0.06898390305706913,
                0.05816721971066891,
                0.034148588089355676,
                0.006506829208496755,
                0.058993238056802955,
                0.02395729955638376,
                -0.021673725084118595,
                0.033096828147293325,
                -0.0062312823836172425,
                -0.06891829749628813,
                -0.059102035854596495,
                -0.05316891675370851,
                -0.057644395237915105,
                -0.054271470876846195,
                0.01528201353252576,
                -0.06551484492187885,
                0.13204323569961254,
                -0.05361203771143492,
                -0.07950932417092159,
                0.053267103090324855,
                0.007378014779775994,
                0.02102303656920884,
                0.06298829272953031,
                0.014297756955594139,
                0.05829872856522445,
                -0.020708563734911718,
                0.04625166256817986,
                0.02911423377593998,
                0.09120972705740205,
                -0.0939896472453465,
                0.031219556986437774,
                -0.07706646347517691,
                -0.013823260212021777,
                0.06634549003302054,
                0.04738800156068445,
                -0.03282743194286173,
                -0.0303427581661987,
                0.11429575952039199,
                0.011523732920722334,
                0.11125345826331343,
                0.012630514609687199,
                -0.037607604549412234,
                0.00620315479459555,
                0.043135083385130925,
                -0.03048923551513429,
                0.0023554948014242443,
                -0.03350246222306,
                -0.06125973910773808,
                -0.04042222348756902,
                0.015643420812602848,
                0.06122418095844485,
                -0.09149260068617797,
                0.06418532251612065,
                0.021598554470698663,
                -0.019422272848123874,
                0.04553324830587432,
                0.070241051117703,
                -0.04653581887887673,
                0.009684163022788312,
                -0.0057561768354886175,
                0.0051635088279167575,
                0.0015205429369326675,
                -0.037794547976245714,
                0.046833302821068866,
                0.001903095528511939,
                0.027519284421384196,
                -0.05475370061994874,
                -0.0009576701353369706,
                0.11724597796962918,
                -0.05334319705937606,
                -0.050122485074226154,
                -0.05455156866742673,
                -0.10287096358384785,
                0.04826240151632179,
                -0.017719946261313034,
                -0.10407139759659799,
                0.027012777320978884,
                -0.0939356415997201,
                -0.034682470039456605,
                -0.001711552523281249,
                -0.00630569393906905,
                -0.037267775967066256,
                0.034555154635496,
                0.06984913994634462,
                0.011858475472695432,
                -0.1143032258222795,
                0.0330250560472007,
                -0.042160813107880175,
                0.06154533927788064,
                -0.03126556074661009,
                -0.07538912844284161,
                -0.07452710587341885,
                -0.005475584969628134,
                -0.10412829065503008,
                0.025445882386942554,
                -0.033468872817798694,
                0.10438589601883187,
                0.00035529266719371884,
                0.03106632250266402,
                0.05783382240209382,
                -0.004317258346213319,
                -0.036196306159407866,
                0.022915464558784973,
                0.028711031027492725,
                0.06539604174199548,
                0.03626325578642206,
                -0.06333927628701644,
                0.12231234771256232,
                -0.037717094920253505,
                -0.0440704768423593,
                -0.0037880700317723223,
                -0.0048339206724858095,
                0.050809310968656395,
                -0.025035577770425334,
                0.07383203820809171,
                0.043677978229271074,
                0.034918079763652396,
                0.013780129980553212,
                0.0193248728537438,
                -0.0683362686919909,
                0.12092064075487546,
                -0.026697843810957196,
                0.11533067654159783,
                0.0009067285304019489,
                -0.05778818109180063,
                -0.032089634600213454,
                -0.09171854227212539,
                0.13526255448540853,
                0.08928971603318152,
                -0.04292936187319044,
                -0.047274508886252085,
                0.025369189027042705,
                0.06728061510572995,
                0.04610296059585255,
                0.042130825567008215,
                -0.0036798136344982652,
                0.05703248941548854,
                -0.02736699892951854,
                0.05608082487968081,
                -0.000715751092688955,
                0.021054512255442925,
                0.023441614877158425,
                0.005007238824266335,
                -0.027620657923778956,
                -0.051961310320781884,
                0.019055918572139147,
                -0.07594067469018773,
                -0.001105645164526462,
                0.089970447107946,
                0.03910062257206481,
                0.0016134043031947496,
                -0.012316262181138673,
                -0.07037745917856068,
                0.015555653148336283,
                0.0457729924228767,
                0.07237285584862882,
                -0.0425802986036205,
                0.02254699359955188,
                -0.010196291951871486,
                -0.01250364260083611,
                0.12839716148826866,
                -0.06845815466905353,
                0.011018187463246927,
                0.0177274015156441,
                0.03571367240607011,
                0.054537600241480605,
                -0.043985297383052596,
                -0.030082053214160995,
                0.03820601582304424,
                -0.11457878741693063,
                0.02421610400516425,
                -0.057832020258688006,
                0.020886331115692665,
                0.014916738458566009,
                0.02557224075866869,
                0.020349543773832662,
                -0.0046835578844398726,
                0.01736724254393546,
                0.09748152321519554,
                0.07966357200759205,
                0.17854162813529986,
                0.009407667413395425,
                0.01927110138170746,
                0.047646681629725136,
                0.05518366806088607,
                0.028882345368140747,
                0.03815722089142733,
                -0.03249604842704777,
                0.028625371159298137,
                0.006202570498814076,
                -0.047397924613600366,
                -0.018127333815730017,
                -0.0708503058867765,
                0.012055700598868813,
                -0.02122710483965374,
                -0.028040709105881613,
                0.05098314333416306,
                0.04646238005749019,
                -0.01175588100886369,
                0.022368392479216615,
                0.08558953876224121,
                -0.008490643851283043,
                0.12293597294680168,
                -0.05146279678392952,
                -0.040030603455858633,
                -0.008298380010920847,
                0.07955902805871147,
                0.0212797817672312,
                -0.027426921300145766,
                -0.01632954735274533,
                -0.00783247868307859,
                0.002693643787486954,
                0.09212579144898614,
                0.027016346640869486,
                0.006578983580303482,
                0.11545966165067902,
                0.0679316098076172,
                -0.012765115347947907,
                -0.049744324756014924,
                -0.011719396655232235,
                -0.00388248608315852,
                -0.06931520145670074,
                -0.06721975400817207,
                0.0656091636980389,
                -0.09424335342408338,
                0.035822728350786,
                -0.016286770546976706,
                -0.02805116506256129,
                0.025147981658175875,
                -0.04132347200636365,
                0.0578053319507487,
                0.06511670008348305,
                -0.03152174493716897,
                0.017839831072440332,
                0.059937833797085074,
                0.02577501417548151,
                0.005513912234514662,
                0.05935412432480891,
                0.025367448757355623,
                -0.026700297698357377,
                0.05013735642149976,
                0.02758294523016396,
                0.08191805117423007,
                0.03571379427593564,
                -0.029649424116140136,
                0.019737346130058137,
                0.07924735785671547,
                0.0643810729059718,
                0.01996460380616147,
                0.05249532657991952,
                0.09087279925817264,
                0.01618608758660394,
                -0.04640813838228583,
                0.020663887403707143,
                0.050801792981977685,
                0.04226733758002242,
                -0.027308529024652403,
                0.0322471313059606,
                0.0016141192118623007,
                -0.007563376780749103,
                0.07920845716965205,
                0.09634140219135753,
                -0.010776662171196317,
                -0.05858702935113001,
                -0.0038229660931602006,
                0.010278568093622877,
                0.005689581928840531,
                0.0875579014178447,
                0.03707129713708167,
                0.005319374148007313,
                0.03311888424010169,
                -0.04757742246945653,
                -0.08054642742016054,
                -0.03041239802368453,
                0.08014730066888862,
                -0.05835028792749855,
                -0.007378209246810362,
                -0.00915142267772144,
                0.034146786954797365,
                -0.01422663247556083,
                -0.07848690563655711,
                -0.04644865662997442,
                -0.016227414850647562,
                -0.025113135091910318,
                0.05439414301902766,
                0.039572624457482164,
                0.05544575957806091,
                0.030775389810916667,
                0.045891875516894894,
                -0.04044652850567834,
                -0.013380616314864481,
                0.01361325797776617,
                -0.015685880639607037,
                0.04495235678778967,
                0.05255581986286319,
                0.04937481488978391,
                0.02575306729906278,
                0.03431068034769531,
                -0.004600901151648544,
                0.017467172032890988,
                0.017839528165259178,
                0.0652990196783061,
                0.03575443856487925,
                0.059087005698856956,
                -0.0289810160360199,
                0.046033925949097415,
                -0.01791106758015281,
                0.0028241404836073245,
                -0.004638782818650613,
                -0.0268022559788407,
                -0.04996278649585576,
                0.1029927786702181,
                -0.014207244041355198,
                0.05768154245863711,
                0.061657625485466994,
                0.05085334969147759,
                0.030729763077817922,
                -0.015781565786773685,
                0.004606959997450575,
                0.009696278217201315,
                0.07485968936345254,
                -0.016509348187265713,
                0.018609538157160616,
                -0.03253561913542747,
                -0.09070816647607191,
                -0.04167561501586175,
                -0.01958780900444726,
                0.011536437121090507,
                0.01265402424596202,
                0.09824396380328286,
                0.11228406062230491,
                0.06002417291810216,
                -0.036063984827148725,
                -0.06452066004435018,
                0.06370605650935225,
                -0.028481969841053,
                -0.0032458858944374508,
                -0.01337604328461437,
                -0.0380017682291197
            ],
            [
                -0.06233675051660155,
                -0.04063756720488275,
                0.060387928278052276,
                0.02137193224127195,
                -0.016990250260542954,
                0.07534263989437068,
                -0.02697586869817138,
                -0.035174860343773644,
                -0.005809874661374528,
                -0.018200678846424734,
                0.047297330762211216,
                0.04176270497457841,
                0.0411275795495043,
                0.005127271830504032,
                -0.0016809978592392586,
                -0.14522563884029988,
                -0.0638389966221058,
                -0.05587088706453654,
                0.00379960705254234,
                0.02984666010351882,
                0.02287757088145332,
                -0.003113258175082315,
                -0.017079840482540104,
                -0.018952341972498617,
                0.07594290646589695,
                -0.0017942323131840906,
                0.026739727378140635,
                0.01112304556921704,
                -0.028515709736173827,
                -0.07716717060906751,
                -0.07495666696055524,
                0.06684882974881587,
                -0.031058250481726012,
                -0.0033827983745360985,
                0.08104896290036066,
                -0.08466611231893491,
                -0.02129162575977565,
                -0.083558584768291,
                -0.079606832140721,
                -0.006569161355456995,
                0.06289491693545199,
                0.11391153543958307,
                0.013490592787760599,
                -0.06399662377740975,
                -0.019648141903686925,
                0.06658779062707393,
                0.06425037438620142,
                0.04720140231847745,
                0.09812083353366063,
                -0.038616411219304786,
                -0.011380044935205353,
                -0.05471496013248082,
                0.016559500355015563,
                0.024183181758501763,
                0.016644510500170618,
                0.07744954311777007,
                -0.0277275806613278,
                0.07606157754514002,
                0.006305771977238716,
                0.007010198864212941,
                -0.028367451185236543,
                0.06813042211194119,
                -0.044051651165931,
                0.001043660548312827,
                -0.03780864796150501,
                -0.1543149789055653,
                0.043225163123807135,
                -0.055567738413440926,
                -0.06383181756292014,
                0.002735143204067117,
                0.010723871114299443,
                -0.024255678597496166,
                0.017453359550522417,
                -0.024880458144007536,
                -0.03802383395060188,
                -0.07668421442014256,
                -0.06801732920881275,
                -0.010436790581205044,
                -0.003288426309577135,
                0.026688895444411942,
                0.015905251116354317,
                -0.13094685624475982,
                0.08464244407354983,
                0.011777938839545398,
                -0.02927455448685347,
                0.07017135714555202,
                0.04549462180873569,
                0.023871639289163967,
                0.054314220968301005,
                0.0033628216167065064,
                0.018326075129505858,
                -0.009679557755656553,
                0.044911236765728446,
                -0.039130562758192745,
                -0.026637572236006206,
                -0.039298416131591546,
                0.001771222600849218,
                0.07892206403859522,
                -0.05921925366620783,
                0.045164040495876134,
                -0.055198289153153335,
                -0.03258082432610568,
                0.0349121762620696,
                -0.0016696704378670094,
                0.014927126823828357,
                0.04454359694483593,
                -0.028439609106602246,
                0.0403992934380921,
                -0.008007071841457205,
                0.012885847991862497,
                -0.016043336279090846,
                -0.003661710578668656,
                0.021229457472700816,
                0.01639947370552488,
                0.015945936467586595,
                0.020657028600794256,
                0.017835743256994305,
                -0.000713706604201751,
                -0.05977299148735713,
                0.07019015253958236,
                -0.011415525761324694,
                0.04299484217677504,
                -0.03170119248279211,
                0.012611259153251848,
                -0.030682826828641874,
                -0.022962207821526002,
                -0.042551474406260795,
                0.1100989484637159,
                0.09670134379968924,
                0.02546730413816338,
                0.04087405398799023,
                -0.0034529119230865455,
                0.06614233785546776,
                -0.023870189696370083,
                -0.027751273705082576,
                -0.05967475085701302,
                -0.01814054494291234,
                -0.015835344073505554,
                -0.07510694396165975,
                -0.0281443509654756,
                0.07642388834564008,
                -0.04870456708021521,
                0.06835200326349468,
                -0.014666340761093372,
                -0.04522745505158401,
                -0.027188986246644304,
                0.05701638460604285,
                0.14027994380119396,
                -0.016917025775068293,
                0.014826482893935547,
                0.008592972157504151,
                -0.004807235129047878,
                0.04570468666780912,
                0.056888612542759856,
                0.027297891144135864,
                0.03213511880373933,
                0.05826705251178828,
                -0.010614147407027213,
                0.04592866419779106,
                0.006931197029207404,
                -0.06626932875421587,
                0.012516063339965114,
                0.04483204216862416,
                -0.014604530932939301,
                -0.06883428191628319,
                0.033624155454043826,
                0.017281495661861684,
                0.028482578946080136,
                -0.013917397900665133,
                -0.029498539495112327,
                -0.05082344322165702,
                -0.027762267625354373,
                -0.017949495394874435,
                0.0832836723041226,
                0.007462340018442635,
                -0.14525885745181397,
                0.029056049099973526,
                0.04566989913098083,
                0.011424377006547375,
                0.08545162570827283,
                0.031442937284329266,
                0.09146845980096302,
                -0.01640263745088995,
                0.057368455102118125,
                0.025844466370234447,
                0.1504147661816034,
                0.08427311800292918,
                -0.016020508800738045,
                0.04116987199177244,
                0.06315818178906707,
                -0.0677045927968327,
                -0.04956461069651361,
                0.10336458110171573,
                0.10850238591812252,
                -0.021361597069154335,
                0.03315023404710349,
                -0.08226924826068456,
                -0.06380323471022395,
                -0.03223265117696011,
                0.03238259847295205,
                -0.019800659705286366,
                -0.01758196513830261,
                0.019195226170560444,
                -0.02616942267029361,
                0.018307892397456123,
                -0.014764394674631445,
                -0.06799503516522408,
                0.05883958271689013,
                -0.007093505740423195,
                0.09772117580140414,
                0.0892096251069474,
                0.08036166952605428,
                0.10820809640205342,
                0.14728379160741428,
                -0.009108149960355433,
                -0.0026913269376041575,
                -0.05757267539570711,
                0.03501299218533238,
                0.054380693822192856,
                -0.03973608337924444,
                -0.027437031197619654,
                0.05477663678989734,
                0.009175795690879403,
                0.01767304539510706,
                -0.01561439212155426,
                0.0096353146362298,
                -0.013903037958341762,
                -0.02433536656444779,
                -0.06694324660406484,
                -0.024928391682959173,
                -0.06467243802489121,
                0.018664677962534536,
                -0.05481458957789085,
                -0.07965083312804172,
                0.020283018963532625,
                0.06368780364363714,
                -0.0036807350776549876,
                -0.030795729155495603,
                0.00960035153797779,
                0.06303291504329096,
                0.028598724839118607,
                0.04744259825459906,
                0.04918427096310688,
                -0.05019761548285053,
                0.008511263938318515,
                -0.02223721931077065,
                0.017337554591178826,
                0.017099963440561364,
                0.007112077485071614,
                0.0048237215039476904,
                0.044004587569328846,
                -0.044840038589285335,
                -0.08351870560315693,
                -0.022035366734482607,
                0.056092633413905316,
                0.017821021223124945,
                -0.031618587616348975,
                0.06608967118923144,
                -0.03776247905568401,
                0.11792719991577987,
                0.0770364380651948,
                -0.020330406994478203,
                0.014535747325685706,
                0.010816051000842535,
                0.041207606010200515,
                0.05500770838601201,
                -0.004263880364795153,
                -0.006067507520148357,
                -0.04485251319669229,
                0.02564299128632116,
                0.032103485958184685,
                0.1178420590402231,
                -0.07933667355506098,
                0.03218278268753262,
                0.039846161536890225,
                -0.03245591970552594,
                -0.012405678899175241,
                0.00857621753384643,
                0.034419864535248396,
                -0.04900769491863775,
                -0.04270579203034708,
                -0.031606324566997884,
                -0.019938480901274928,
                0.04348485607409451,
                -0.0010219635673274054,
                0.02687042309985229,
                0.027112305726633645,
                -0.0590344205399731,
                0.012434847004303619,
                -0.027223745204764196,
                0.06977802362003153,
                0.07281482472519006,
                -0.03101867678892609,
                -0.003169177423669823,
                -0.024814910901341476,
                -0.01827640975146781,
                0.024115200777513383,
                -0.058018229309308285,
                -0.06567631267998696,
                -0.041083429896337356,
                0.053184025663358496,
                -0.03176656852843404,
                -0.030476706829661016,
                -0.031643475340065355,
                -0.019356665292662573,
                -0.030389550616954406,
                0.01666019084056977,
                0.019679353762219964,
                0.028632645313370328,
                0.06177238478850613,
                -0.04402925686526753,
                -0.04178123328706879,
                0.10065927419816584,
                -0.02687023287421004,
                -0.0867584744555871,
                0.08860771943724817,
                0.033925936632409955,
                0.06685333259360464,
                -0.002883907306166027,
                0.054514064064455824,
                0.06813909780658493,
                0.005113396498553668,
                -0.08875332041727842,
                -0.06522746527429978,
                -0.03539745499718787,
                -0.05280139585365256,
                -0.008275160655886432,
                -0.0005838222844517754,
                -0.03171765923116887,
                -0.041910698156281664,
                0.05507308924020325,
                -0.07218558174773021,
                0.018057835068761775,
                0.04119115421104034,
                -0.027051892287331618,
                -0.06159477977504613,
                0.02311600347126265,
                -0.032828178479372874,
                0.02789117890368455,
                0.04440343371001299,
                -0.02659670048550447,
                0.07231961179151482,
                0.0035867330736363574,
                -0.007231941477685656,
                0.016735822645850242,
                0.09239215357325174,
                0.0038395676912988943,
                -0.02418309989611709,
                0.04573756494203898,
                0.035105984389552,
                -0.106938758634731,
                -0.010279671843690176,
                0.037772956329070316,
                0.04225782943288816,
                0.009145656819333943,
                -0.024875266194167963,
                -0.015032414978018691,
                0.07169112120879513,
                0.018379442751952624,
                -0.017480247355198562,
                -0.026904150864734737,
                -0.002385187277402212,
                0.1036618125728624,
                0.019761411395052948,
                0.020528294355912403,
                -0.13519993646927833,
                0.036253203066098486,
                0.0801314099874339,
                0.025261054213184104,
                -0.07157117656339493,
                0.013163338963380435,
                0.018333932325860388,
                0.05863507552257033,
                -0.053672448906941464,
                0.025835982028251086,
                -0.026061407910021067,
                0.06961237518023108,
                0.028397532495583442,
                -0.031044412972543272,
                0.01774014397458693,
                -0.04013579814774539,
                -0.020565521724999154,
                -0.007000165573594439,
                0.054407481657609544,
                -0.00575143227870497,
                0.00663405123974178,
                -0.027626211010088247,
                0.031115079746589825,
                -0.03155988760929838,
                0.04120236240273688,
                0.031167522849885703,
                -0.059229890107404454,
                -0.0475155665626058,
                -0.03541929371339948,
                0.035583645787078295,
                0.04844364813443296,
                0.07752133370303772,
                0.10451198608134978,
                0.02593176672791953,
                -0.004391823320109946,
                0.06508199652284688,
                -0.02487524926509256,
                0.08896011113846138,
                0.07986196849987677,
                0.10055041563234669,
                -0.038481696116842254,
                0.030996794971895416,
                0.0325567328696065,
                -0.13983649184270253,
                -0.054900862032295786,
                -0.08231606057198747,
                -0.052469154113266414,
                -0.006580842805299445,
                -0.028824840165559005,
                -0.11050862365978846,
                0.060295107173174975,
                0.05058039629448884,
                -0.016670240299836294,
                0.008946624098045723,
                0.060992744381993445,
                0.032346550158663404,
                -0.09707412790903251,
                -0.0008199224704514862,
                -0.009600739073975394,
                -0.07666906433485476,
                -0.016761504781420387,
                0.07287552384968209,
                0.029688756864756468,
                0.03460288760792719,
                0.08484596339655617,
                0.02746965135343543,
                0.05906397154531063,
                -0.05290310661116651,
                0.05435449236373585,
                0.03555487093918662,
                -0.021732065269346595,
                -0.03509152177650987,
                -0.046604494995159396,
                0.06179341263480174,
                -0.03711379335261979,
                -0.039379947765452554,
                -0.044205677381144684,
                0.08161432661407417,
                0.024059268912357216,
                0.050679152991850766,
                0.05735086092703098,
                -0.049886944515752256,
                -0.031592726748719185,
                -0.021097204168123943,
                -0.02025361228143677,
                -0.04866658366300776,
                -0.01737544923001155,
                0.1219697725919635,
                -0.028846085159775468,
                0.04163236811537998,
                0.0005754047393082904,
                -0.02219920291077121,
                0.055921074015682436,
                0.035613192810333615,
                0.00873888611637805,
                0.007635789480021552,
                -0.07080222977094357,
                -0.0400187779808969,
                0.16146224608214232,
                0.02503995621393135,
                -0.1326807571301665,
                0.0024125538525216414,
                -0.04588868979739902,
                -0.005576005502913842,
                0.06736496580661866,
                0.0162746508960757,
                0.05837915919753979,
                -0.07282613472808626,
                0.04248700496607398,
                0.048873660207827636,
                0.04576588768453309,
                -0.17041462280047268,
                -0.0496110171716418,
                0.014312654055389219,
                0.0579090362487765,
                -0.0034213210510498806,
                0.011297396415550621,
                0.04640147075820741,
                -0.03699061818002224,
                0.015270929742166345,
                -0.024969993907769505,
                0.04020712573087576,
                -0.11254754685385387,
                -0.09435594612951094,
                -0.0610684096753972,
                0.14036522386659975,
                -0.041769438034975244,
                0.030464756585342263,
                0.02695230438298546,
                0.062257163952710734,
                -0.0433045549032206,
                0.07913738310785791,
                0.0561724575814095,
                0.04322487576133216,
                0.07873715220415345,
                0.030059173029116558,
                0.020997049888010846,
                -0.05276982959406923,
                0.05718853631891196,
                -0.0770039204197405,
                0.07446724961243546,
                0.009458916754085864,
                0.013545341253987958,
                0.09525888729366584,
                0.029481601845770308,
                -0.021664109196752095,
                -0.07347323369173665,
                0.13066874990427363,
                0.03720517582785192,
                0.036128592445639277,
                0.006469086420207707,
                -0.07688669411177544,
                -0.051830284942080314,
                -0.0039601325538069455,
                0.00011471525171158291,
                -0.07041497445027056,
                -0.02118070849402379,
                0.03831823214365922,
                0.007573429145493667,
                0.015774191738588787,
                0.03759976841698988,
                0.032847203271676985,
                0.0041579646612244755,
                0.03355819395422304,
                0.08724157413920484,
                -0.05062982037597563,
                0.004199731813127363,
                0.07442758535179142,
                -0.014037662301700312,
                -0.0057937157233374234,
                -0.032667991414786955,
                0.058261017292140685,
                -0.08615831206232645,
                -0.01053664990856118,
                0.039058182747635374,
                0.02771659687562951,
                0.07705127604660844,
                0.0066847589526107375,
                -0.01345886252213556,
                -0.057306375430995864,
                0.04878980781694828,
                0.02187553433556334,
                -0.029233379622610255,
                0.047915687813130256,
                -0.01860535091056847,
                -0.029781860427187817,
                -0.05946615152163109,
                -0.004268893474040306,
                0.025296026983737112,
                0.003675441305683904,
                -0.03156399102003438,
                -0.11488358780235818,
                -0.01193942714911257,
                -0.03725380365511415,
                -0.017500713119210833,
                0.05364929547970261,
                0.00969762424593599,
                -0.031357291789322735,
                -0.038538126753472346,
                0.05507809375023295,
                -0.004524025558951275,
                0.1182612283277232,
                0.10207059938391881,
                0.001134527180787158,
                -0.07048174183114779,
                0.032598381883876225,
                0.026644362740604333,
                0.029117133148670503,
                -0.10900400413902205,
                -0.041152554235282315,
                0.01939364814489121,
                -0.0372355783167567,
                0.02520187621786897,
                0.002687381294918888,
                0.004504432235030111,
                0.01589265575511235,
                -0.01740365700447014,
                -0.00853451664839663,
                -0.011159465826895119,
                -0.04641255901525702,
                0.07382053833575641,
                0.03146489720313794,
                -0.03215104746969184,
                0.017792020834975556,
                -0.04816407540148564,
                0.032344286279809904,
                0.008488605052018847,
                -0.054489686113965506,
                0.01666223545249639,
                0.08496535612356991,
                0.081787528983891,
                0.027340883906040322,
                -0.026026630656275848,
                0.01867378139380501,
                0.08664493322132502,
                0.01113020505574196,
                0.04069748393989718,
                -0.05878815283990868,
                0.012267627636503431,
                0.003318326993176847,
                0.03361066738264707,
                -0.0035108520422685555,
                -0.06639486916361804,
                0.010928652710362908,
                0.05231574750708341,
                -0.04922440280150087,
                0.08645903317996924,
                -0.03053356932997321,
                -0.03131308185948993,
                0.05477842923906066,
                -0.02593260367340977,
                -0.038640614687643494,
                -0.03144827061290417,
                -0.04200816198475868,
                -0.00834183289815928,
                0.08355852575347757,
                -0.027376974663203376,
                -0.045378181997023814,
                0.06186264936096747,
                0.03621159176035957,
                0.009253292961078524,
                0.05323907204473719,
                0.038751675231327554,
                0.006547021340486432,
                -0.021972930281985662,
                0.06961503830824863,
                0.03798410446479366,
                -0.08223340928274103,
                -0.04184236880503579,
                0.0035213572957069413,
                -0.02322985911636828,
                -0.050045928915632774,
                0.06316294420755396,
                -0.000516687778855397,
                -0.04098311919157237,
                0.05029546473132176,
                -0.017054830991200677,
                -0.07208918491212689,
                -0.05128946572490465,
                0.05255099060010802,
                -0.0568045785165504,
                -0.12744073421280783,
                0.07364248294598986,
                -0.040093844868290596,
                0.04357933335450852,
                -0.007189116244621124,
                -0.05356045971520681,
                -0.009839449668395601,
                0.06499714785850579,
                -0.03882814578658839,
                -0.0669806983885237,
                0.01486977072349361,
                -0.03741918856971237,
                0.03510506195270963,
                0.05172336380207071,
                -0.08939707901893072,
                0.049421163045749804,
                -0.022157004820196734,
                0.020854969649582694,
                0.03094778138505276,
                -0.005743851255343199,
                -0.07048849032522705,
                -0.042857727359758985,
                0.019364364512591718,
                -0.02224240966113607,
                -7.936383735663368e-05,
                -0.008317209684941457,
                -0.05885706257616478,
                -0.005752887716091839,
                -0.006320607106327841,
                -0.010780978653937418,
                -0.013078823122003803,
                0.04697112115442626,
                -0.022637895884523074,
                -0.05469518904617141,
                0.005643263242951436,
                0.027537811405136673,
                -0.06380256710082526,
                -0.08514150611074692,
                0.03491859788367216,
                0.061011257321022964,
                -0.0925215825833785,
                -0.038820245053296384,
                -0.0007307037645584703,
                0.02517865937950662,
                -0.019924675355056418,
                0.10243485446326059,
                0.09156887613814736,
                0.04338423442795608,
                -0.018207082362360683,
                -0.05019299561337791,
                0.03262625196643669,
                0.04996840249154251,
                0.06576768433437385,
                0.012037995375066016,
                -0.011161457255410573,
                -0.10018454270294866,
                0.036001352272922775,
                -0.027127368380243322,
                -0.03364849664771712,
                0.09740990499724766,
                0.08866699148899736,
                0.06618556544704676,
                0.1448260622739218,
                0.009084111578566183,
                0.02151021619322783,
                0.04276761796369481,
                0.018388923850526033,
                0.026279056578291896,
                0.06096245437858489,
                0.04687399096350577,
                0.0033198551659822766,
                0.08610048752140545,
                0.08374762075284686,
                -0.07773762158290136,
                -0.024975504847060803,
                0.008974303112077734,
                -0.011101137697466032,
                -0.03643259975400041,
                -0.07108831858815827,
                0.021062306107905045,
                0.047630033972439215,
                0.0645890382494171,
                -0.015085696572762932,
                0.02012370057194282,
                0.025230962478744644,
                0.012302213726531258,
                -0.027374592157239724,
                0.06477197557095699,
                0.0481391263253209,
                0.006530237445978154,
                -0.028557119317962797,
                0.09281472479112876,
                -0.029087596201854474,
                -0.08686935721577532,
                0.01939029052864804,
                -0.0536851082331543,
                -0.005087574598008636,
                0.004823537382127691,
                0.009787041860645438,
                -0.01895404476537775,
                -0.029453471852453218,
                -0.10785939320627869,
                -0.036952134020291266,
                -0.01586570701786668,
                -0.013599160343248436,
                0.01986844334420616,
                -0.0023064319599927527,
                -0.0028933447187055204,
                0.09185450507949965,
                0.061054617015489455,
                -0.04598806290112503,
                0.011711541491596637,
                0.009773884766491641,
                -0.09103967552153273,
                0.02532441287271362,
                -0.08214861158198954,
                0.02733965103859395,
                0.056080435577343435,
                0.04274539920894653,
                0.08893535580661391,
                0.019772649793599058,
                -0.0067981870046895255,
                -0.04240899118354039,
                -0.010056704195491073,
                -0.003978018218799323,
                -0.02868372748360335,
                -0.034145130884101094,
                0.06439185245844407,
                0.006204377462135426,
                0.044666421131887867,
                -0.01949962517148461,
                0.01534318381694677,
                -0.046880489720947514,
                0.045822377374359284,
                0.0023536400321793297,
                -0.04061644103779013,
                -0.030247102905628303,
                0.08149085860419349
            ],
            [
                0.004869366069085245,
                0.052791966402762534,
                -0.0234188737013118,
                -0.004566936584129647,
                0.04046959553398977,
                0.017172260383409285,
                -0.07235448955259866,
                -0.0010468139425189266,
                -0.000360615963515844,
                0.03501623861317872,
                0.07101495869238629,
                0.03309277068575422,
                -0.036641528037873086,
                0.020761852759060607,
                0.05349089476238618,
                0.08045703749493965,
                -0.07270198855890538,
                0.024755342705555457,
                -0.018910436244696842,
                -0.009619901509442261,
                0.014632639386566849,
                0.004055247540002571,
                0.04423549350637528,
                0.034519107058488985,
                0.028748709540860774,
                0.017931961362153043,
                -0.07013461339484282,
                -0.022752483814587627,
                -0.10997395363971808,
                -0.09865281426608524,
                0.02294669285145707,
                0.013969053788924999,
                -0.018360902628486837,
                0.009341746882974686,
                0.0036115295632082804,
                -0.06857074827311196,
                -0.029973642407246308,
                -0.06334719954204876,
                0.02326387337200481,
                0.01864893081708274,
                0.03461323550576226,
                0.10823278904553361,
                -0.021199030952084797,
                -0.11192654251352187,
                0.11049430966393188,
                0.02434241319584835,
                -0.026057213096088196,
                0.012862603917096224,
                0.018841931112043606,
                0.035782173786291595,
                -0.025798650737002844,
                -0.03199592757426237,
                0.04378038615248375,
                0.04662210550104058,
                0.054321237422753715,
                0.021598728685608023,
                -0.05031267469097315,
                -0.03561137124521532,
                -0.036621120314344134,
                -0.049510710848550986,
                -0.044722637103191396,
                0.034716794224615474,
                0.012701020268523888,
                0.05924552714759976,
                0.02818025721102154,
                -0.0028038557749825526,
                -0.02411199423132417,
                0.001649803724944763,
                0.005081660836311672,
                0.060383924372847966,
                0.0221379192552348,
                -0.13391681898404287,
                -0.04866813382894657,
                0.04520700981826114,
                -0.022861343684008734,
                -0.013051982412350276,
                0.022592554314006794,
                -0.02962903496603621,
                0.05670967345581609,
                0.023436675902082163,
                -0.03535179669197646,
                0.013842652824738979,
                -0.06940481082261181,
                0.05051846631662774,
                0.030250982929421622,
                0.013847102289573435,
                -0.036350098974501276,
                -0.051071218994015635,
                0.04560647412325821,
                -0.0308507150052989,
                0.05087470745716292,
                -0.08474817302542233,
                0.006386956691836162,
                0.0010031794672009195,
                -0.03980327085998545,
                -0.017833526706875467,
                -0.0006780501822111782,
                0.0022156956490283295,
                -0.03780490669569555,
                0.03392120830440731,
                0.0086619394856475,
                0.02802633402600212,
                0.027803700811995943,
                0.01086517032543846,
                0.061985628378247046,
                -0.03346824989918568,
                0.04217383461479831,
                -0.07387719393144224,
                -0.006435043835608575,
                -0.005993730680641458,
                -0.03371242573954582,
                0.06650357695572565,
                0.026167813509562658,
                -0.07399452390665283,
                -0.07828715606915386,
                0.05832374152382098,
                0.06366114474405836,
                0.002893108033166367,
                0.016640089791634793,
                0.103716248778455,
                0.03376054457915065,
                -0.016374403572051457,
                -0.12718752852952767,
                0.038212943568970426,
                0.07256426068825912,
                0.10130818420218424,
                0.02088968291871135,
                0.02702580551867624,
                0.027191705194409076,
                0.11966024416891935,
                0.031229106653430958,
                -0.04270898085646868,
                0.006197574184895437,
                -0.0889302517747453,
                -0.051090978520704704,
                -0.029120493642030402,
                -0.008077725297488746,
                -0.04258325602236158,
                -0.11556282364766504,
                -0.06721429481568154,
                -0.022124919572732306,
                0.027959266196092954,
                -0.014405456722287794,
                0.0022236812777494505,
                -0.024359337049574437,
                -0.027192032708535464,
                0.15519886900279545,
                0.012283580520979283,
                -0.010124969853401253,
                0.03598404905671302,
                0.11515342911150242,
                0.046197976706149335,
                0.019868978072255922,
                0.0034541073163603677,
                0.05180212613564184,
                -0.03742354807813403,
                -0.008147776081441651,
                0.06173798656297989,
                -0.051740048462569854,
                0.0198007226944603,
                0.054204260623720205,
                -0.0049994342179232034,
                -0.058305213501894465,
                -0.06060534459558441,
                0.06424928756127526,
                -0.025643280404336787,
                0.0768354496949305,
                0.14502126973681007,
                0.047274496213557414,
                -0.04704527340871993,
                -0.03113407826235902,
                0.05326593151928203,
                0.04575958977392898,
                0.05033779214534555,
                -0.08436876860933312,
                0.014414319309754451,
                -0.009689295255633487,
                -0.01243306347571651,
                0.025504941666107075,
                0.02131619421236061,
                -0.019922135085000115,
                0.05006004508167709,
                -0.0010587359061103566,
                -0.03155780948209632,
                0.017855639222143206,
                -0.014641408580106215,
                -0.07073809329201908,
                -0.03174325824376283,
                3.740981473375621e-05,
                -0.046845767872643385,
                0.017761274215301912,
                -0.009893056731501634,
                0.053453242967791456,
                -0.06332103678240811,
                0.014089784987254758,
                -0.06097445742726222,
                0.08202979675865045,
                0.03216391988320541,
                -0.0550960244133381,
                -0.051889167602238245,
                -0.03510163059078921,
                0.0031477066289819,
                -0.07411091626326194,
                0.026735377006935387,
                0.07390985883160488,
                0.07760361216621912,
                -0.04963616318567626,
                0.0685133891263717,
                0.12069128914978544,
                0.04063862432627409,
                -0.0006851530241212062,
                0.04345817983475681,
                -0.0018651808209853267,
                0.03277352493319775,
                0.023310693984720684,
                -0.008982015628086383,
                -0.07492981659647542,
                0.037607232526098204,
                -0.022499455148770196,
                -0.06515092682849222,
                -0.008799266038851686,
                0.014795336683355111,
                -0.07776406451081352,
                0.012708119198227851,
                0.003607466690518277,
                0.028992041021905113,
                -0.015425864138227432,
                -0.058824580157418205,
                -0.0442102666046834,
                -0.027659531128415994,
                0.006492596423499835,
                -0.049439768912949995,
                -0.1010984070838278,
                0.04326573372940141,
                0.033655900694368704,
                -0.007711463527226183,
                0.07920495987515475,
                -0.01286612709526391,
                0.009198199609430226,
                0.05357549586327457,
                -0.004480988054069775,
                -0.005383607349299376,
                -0.005693210317860023,
                0.030182222830480228,
                -0.044879318714674,
                0.018259811901137752,
                0.018673280664199206,
                0.019596033019540653,
                -0.036385906616092215,
                -0.051821156047161906,
                0.07878345563389558,
                0.030281801044826355,
                -0.02743157928219077,
                0.002442166406565579,
                -0.010496741315144652,
                0.01396945874157073,
                0.010766122630814457,
                0.012089652825112495,
                -0.022376682037177492,
                0.06992080628869803,
                0.030273884434129702,
                -0.07848283692996803,
                -0.014518448143266758,
                -0.08599061597771647,
                -0.014091540687216127,
                -0.04292156846751215,
                -0.03205973182129192,
                -0.03602149490602341,
                0.03316676713038625,
                -0.038960513604442984,
                0.031744717981443196,
                -0.03628112166258871,
                0.02524995068255049,
                0.018343274753639772,
                0.03240741244594859,
                0.06292008221539258,
                -0.00047567733025286936,
                0.0034114070030058217,
                0.057340961709387135,
                0.017301679729771497,
                -0.07682491025994263,
                0.0536543607552543,
                0.058123592877111545,
                0.004935928826606241,
                -0.045161177527117714,
                -0.03338297938681236,
                -0.08403120637372845,
                -0.030657866456352267,
                0.05469625711704403,
                0.02391603677569214,
                -0.08698531367445875,
                -0.04932352263030901,
                0.05029466542350335,
                -0.016839995453033753,
                0.05437168737723709,
                -0.04605202273853854,
                0.013154916172894205,
                0.024825780682914612,
                -0.03883382048512611,
                0.06496937488288503,
                -0.030356193921977775,
                -0.026868441175027027,
                0.021913905447167627,
                0.05990247125439039,
                -0.03080538187855329,
                0.05792514975878521,
                -0.008499788222719299,
                -0.023050672384189647,
                0.015219461742013676,
                -0.0300328038310442,
                0.0009844504657604168,
                -0.08169091881008579,
                0.01562113708977646,
                -0.0028647480242652997,
                0.05309525141816246,
                -0.07300693537881908,
                0.0949466337519768,
                -0.05247124549924956,
                0.015466346264354041,
                -0.06780897874306574,
                -0.015815453715971477,
                -0.02577739765391657,
                0.08417947014784236,
                -0.050185330720166496,
                0.052774390012164704,
                -0.02034877082909197,
                -0.05694493204686684,
                0.018734624484567145,
                0.011821228944879756,
                0.07809827461427407,
                -0.0015077145367962939,
                0.07272558256229632,
                0.05435206924113991,
                -0.010410842263950643,
                -0.02670302215363851,
                -0.013583156621050873,
                -0.02444589243874304,
                0.023673279530760833,
                0.008722445522127443,
                0.02832504805506027,
                0.06145108896169126,
                0.09853412633191407,
                -0.04729643229009111,
                0.008725814270898934,
                0.056295139696952635,
                0.04483677481555076,
                0.06737875460997154,
                0.06798515409610305,
                0.04941381018718971,
                0.0649833317037597,
                0.008354920485684847,
                0.08523108639665383,
                -0.0976057650835874,
                0.043593830282758594,
                0.05346193899882851,
                -0.02103734234909267,
                0.026607805655974134,
                -0.09804615397427839,
                -0.01751968353835864,
                -0.002887080066601164,
                -0.053590133372766205,
                0.003607285405250267,
                -0.01239226717804749,
                0.03564829772800842,
                0.00047305381022350545,
                -0.02079586334260021,
                0.02250879548499982,
                -0.08106677131767953,
                0.03120799981714028,
                -0.006163848886448183,
                -0.1023266964482831,
                0.0050562190687653595,
                -0.04341968040253643,
                0.043104760967174874,
                -0.07713189280115791,
                -0.04543054448908757,
                0.015699283378614308,
                -0.05044856060541284,
                -0.02325607384915018,
                -0.0767202234567887,
                -0.05705710124637434,
                0.0935311183858493,
                -0.02039209710464951,
                -0.050551693896760425,
                -0.03553463292359192,
                0.014085481942235974,
                0.04291991863392989,
                0.0378735550708223,
                0.03492030208270909,
                -0.09399355173960908,
                -0.011454129011755786,
                0.04261743593292203,
                -0.01571251377745477,
                -0.02313321400402064,
                0.07478858196793575,
                -0.02813548701906922,
                0.0021274864295389925,
                -0.02538043955616357,
                0.043376580873238306,
                0.03145521575315456,
                -0.06415961095141846,
                -0.01880625185935521,
                0.05756402994927259,
                0.06027172757203513,
                0.03395482132623944,
                -0.06292783563626834,
                -0.023504374693585094,
                0.09580378130812868,
                0.013911255814319354,
                -0.02981497747070907,
                -0.04696344561436085,
                -0.04924560782502273,
                -0.03864357918783067,
                0.06013151035456267,
                -0.09676079245637753,
                -0.004988722655088008,
                -0.024700384988863986,
                0.04999049061721407,
                -0.13716822918275096,
                -0.056639490284718264,
                0.07042942593931062,
                -0.020278526340215045,
                -0.017155889533222748,
                0.014155648027879272,
                0.030465764327501674,
                -0.013204987128990979,
                -0.0886983541641313,
                0.05596072863591937,
                -0.12612152388171083,
                0.034831546866505365,
                -0.08381976700542099,
                0.02397823895159187,
                -0.024119018434595893,
                0.06472091278816722,
                -0.14444804481737913,
                0.010185151179999699,
                -0.02775220897694733,
                -0.06294588497551007,
                -0.04557965452335381,
                0.028449047569762766,
                0.021755279538375635,
                -0.04585202521320339,
                0.0013526700743960048,
                0.011721365029669051,
                -0.08150125937282675,
                0.02429085365215528,
                0.0028052724513267487,
                -0.028971675973423115,
                0.021517866443930982,
                0.038702947596811796,
                0.02057074138077745,
                0.005853030553071413,
                0.07790168479775404,
                0.05059247783508227,
                -0.051134486777651915,
                0.018902464738492424,
                -0.01811291870920239,
                -0.004814397805892308,
                -0.011213087539018214,
                -0.018435212834743548,
                0.06235673836470205,
                0.04699368645151578,
                -0.021087976217277874,
                0.017639189460015563,
                0.026707045972030826,
                0.031908315134690314,
                0.03804852767888896,
                -0.01912607425842815,
                0.03138867341221058,
                -0.061891140791708016,
                0.10142511602098211,
                0.022064519940717817,
                -0.05796097199435573,
                -0.06971916969828663,
                -0.005023617154529158,
                0.005161057259960526,
                0.04187984852811234,
                0.0792021435791522,
                0.013562177084057396,
                -0.08837760381638851,
                0.04276290405650396,
                -0.07181976473914814,
                -0.030347505305731944,
                0.014938542261537657,
                -0.07429370871108595,
                0.014985858308051147,
                -0.015227375464853397,
                -0.045978033637398934,
                -0.007164826588842694,
                -0.031368139457193134,
                -0.016613506087163176,
                -0.06886467552364851,
                0.027047124232675045,
                -0.011081016763304188,
                0.04254850499471298,
                0.11953053737724943,
                0.00758130140064234,
                -0.009481673466479006,
                -0.02371303842662789,
                0.05979720710189451,
                -0.006703810936186858,
                0.02658031717203111,
                0.0021028833797423993,
                -0.008546321464801018,
                -0.0006898471430308724,
                -0.0982490162060646,
                -0.08934251194033724,
                -0.013097430251565779,
                0.0780988350166228,
                -0.04485940095339046,
                0.11737708644078315,
                -0.03866226524714209,
                -0.04541808534049223,
                -0.02713247742005019,
                -0.02870835928021427,
                0.03584051893744829,
                0.019046968206139738,
                0.04208338081510448,
                -0.009130313461815554,
                -0.03815207937133099,
                0.019129420733480073,
                0.13114372370623212,
                0.07122146142129124,
                0.07942082445139437,
                0.06452827836648867,
                -0.03900371706502117,
                0.0544824868784776,
                0.015771098752094124,
                0.023154559960752025,
                -0.0055125506132547184,
                0.0049375896839014225,
                -0.04293386950832597,
                -0.05103248736064498,
                -0.07688414774381196,
                -0.05658854470871839,
                -0.0011369401254987465,
                0.003968859000090569,
                0.046134093698918834,
                0.03512172778029189,
                0.07705087290805467,
                0.03717027751947017,
                -0.06319875819576741,
                0.028589508875521218,
                -0.05461055812444011,
                0.012903365289618605,
                -0.04049723218552777,
                -0.021214447684958428,
                0.023627257055451035,
                0.04100836457081317,
                0.0857307907119786,
                0.14615369823913066,
                -0.03573161830306559,
                0.01256593918299757,
                0.0013073349558168086,
                -0.1031810366215962,
                0.05306789282638063,
                0.06175495114718996,
                -0.06850297658963693,
                -0.05330020326678985,
                -0.08041465084864809,
                -0.011860452810576072,
                0.003827075181378636,
                -0.00192276845889868,
                -0.052337911496879753,
                0.07527595051279067,
                0.005441154053836948,
                -0.031611405709546556,
                0.07887639936889917,
                0.05076175288085476,
                -0.02756033756279008,
                0.010984734325571205,
                0.08437038152045666,
                0.11988717506029484,
                -0.0860403314894692,
                0.03195428564185538,
                0.007548861053911905,
                0.051488711940944065,
                0.10912659979275426,
                0.009195878977940074,
                0.013243644211455642,
                0.014256122668326397,
                0.024964170887779146,
                0.018457511477075295,
                -0.05103908899770995,
                0.09800241775407763,
                3.162166489050613e-05,
                0.020720639129117337,
                0.04113125104283513,
                0.03023867166253736,
                -0.02408882092332533,
                0.09658387539657433,
                0.016337198633872986,
                0.019170969573519003,
                -0.007398419881389659,
                0.018891511522032337,
                0.12239640572537569,
                0.08894778619862663,
                0.15474012130181392,
                0.06450155329159583,
                0.12792633719076735,
                0.026202513847900927,
                0.11457537904215706,
                0.020813712961973593,
                -0.041382249611353485,
                0.016209646543335926,
                0.05186385176789849,
                0.0841057251340665,
                -0.0054455814575353634,
                -0.007187176345074155,
                0.05649278771188199,
                0.02224361278164207,
                0.06899545161028749,
                0.0786142121499391,
                -0.00417010875232152,
                0.004215485334433291,
                -0.02017463985949522,
                -0.06999732098657968,
                0.08140643564548826,
                -0.001864370349245182,
                -0.02165951136322522,
                -0.028071518031446162,
                -0.029073250598266074,
                -0.03292893788766197,
                0.06689359588426641,
                -0.04499276320275737,
                0.07977196309264747,
                0.06837183929195846,
                0.025371475936602782,
                0.03564026695874333,
                0.008893682940521229,
                0.05155092309132992,
                0.02290767544191209,
                0.03863202945456723,
                -0.059950245092783204,
                0.04586001835241699,
                0.0365458607722532,
                0.028159808360757783,
                0.019223102253239442,
                -0.010996772593386694,
                0.0019966934886011148,
                0.005614800265351545,
                -0.025993172037514476,
                0.12408976744909964,
                -0.04008059689793342,
                -0.0773170380024492,
                0.006710365148604582,
                0.08570728711459188,
                -0.06347456343477126,
                -0.018255821929727977,
                -0.03181332857603343,
                0.02979913449765746,
                -0.015054720333734072,
                -0.0272571201479313,
                0.03929168318883836,
                -0.019869643956530028,
                0.048360455640917406,
                0.04375572058069278,
                -0.07067873710974325,
                0.038366889445699826,
                -0.07124606129077964,
                -0.020996573047277686,
                -0.05189688495783096,
                -0.0033135864870456368,
                0.06702176233940722,
                -0.023207384723614635,
                0.04732047236486902,
                0.022208305392204815,
                0.05113304763238463,
                -0.08175638812265132,
                0.0005330470157232565,
                -0.05424522744065539,
                0.04900886311217802,
                -0.028880537064717746,
                0.04339320013312047,
                -0.00308544043105678,
                0.021622509415927832,
                -0.0409051471637597,
                -0.04115713414374274,
                0.009065360536921693,
                -0.03276333028600598,
                0.03435966055538463,
                -0.01695496493126173,
                -0.0727636984622161,
                -0.09207974279296403,
                -0.06658791988523677,
                -0.04945994560439649,
                0.01927767878364905,
                0.009582104333276331,
                0.01788701664285825,
                0.08627347704383612,
                0.044855828979307094,
                -0.03398465329364552,
                0.038640424713643685,
                0.039985492455983075,
                0.01653873054072969,
                0.0964503517977611,
                0.05009921881585672,
                0.05242725704865722,
                -0.05538315660987871,
                0.06923636196548498,
                0.020698980589181654,
                0.021778165806029988,
                0.0376994014473938,
                -0.009765016484430811,
                -0.049312784420234484,
                -0.02291796585867535,
                0.005740760452862428,
                -0.03208970078854835,
                -0.11263836784920231,
                -0.009745645038623272,
                -0.03665200604240419,
                -0.05234610767108065,
                0.041220209344807676,
                0.11293139421747127,
                0.03425970870993566,
                -0.06286596796548706,
                -0.0014540982251121637,
                -0.004744718767534962,
                -0.07265540966630323,
                -0.009197921405415935,
                -0.038817050014917726,
                -0.029485782464114617,
                0.06914000429410967,
                0.057768961813548646,
                0.0012823093671279744,
                0.06177041041370832,
                -0.06405632007937229,
                0.07820732908064687,
                0.031683204421058944,
                0.022043805738172214,
                -0.0826266448466932,
                -0.04255617503468383,
                -0.030031884845544077,
                -0.013531138700228863,
                -0.07638313218929284,
                -0.05760153927971073,
                0.03139734050556164,
                -0.018956879106117614,
                -0.05196035506455538,
                0.050029147695918444,
                -0.0807455323695908,
                -0.02132221992235107,
                -0.03574465957678284,
                0.03763885181172747,
                0.05345504684953105,
                0.01132181648463201,
                0.011647375283507002,
                -0.005779974304033453,
                -0.07344360867262306,
                0.08862451414688449,
                0.05572904046961277,
                -0.02309443793131979,
                -0.003357770105751407,
                0.06846424398176466,
                0.023848542992274457,
                -0.04518566524517438,
                -0.01537522829236078,
                -0.07491625296233508,
                0.07356367097445135,
                0.0606341359924112,
                -0.04145191172443277,
                -0.014316389448059727,
                -0.02187156469045939,
                -0.03664305295738842,
                0.06566053572429383,
                -0.0626397795059273,
                0.1146606847735836,
                -0.01239821230595188,
                0.09254349676413781,
                -0.006159821958056994,
                -0.01303340317066112,
                -0.02461430588293921,
                -0.022770980634782122,
                0.04017970555276764,
                0.03456360474272549,
                -0.045412353255758424,
                0.00859000668913748,
                0.007104029274423015,
                0.006505463338389825,
                -0.07323888014935057,
                0.032093919405108626,
                0.007494702067353106,
                -0.020907023373861022,
                -0.013363803156310918
            ],
            [
                -0.0348195431451208,
                -0.036232601943341214,
                -0.04864063875163266,
                0.027479433117161646,
                -0.0009053421899393529,
                0.046770036544938665,
                0.05615033904459153,
                0.009142917566557409,
                -0.07491688294904036,
                0.027099466760580723,
                0.017080711261068145,
                -0.054197104601157294,
                -0.00910016916212157,
                -0.035808604726211724,
                -0.01796313386497533,
                -0.10682024420350662,
                -0.0530367334783139,
                -0.06383224363649727,
                0.0265811925977298,
                -0.09761396380880846,
                0.06531104862323023,
                -0.04063647654984723,
                -0.011807096836687066,
                0.04360266827279023,
                0.021252977350798036,
                0.00604479477403887,
                -0.005359820610087077,
                0.012385533510866813,
                -0.015549892637272838,
                0.0016006692240391075,
                0.11086985955368168,
                -0.049332955615871504,
                -0.02377551257721733,
                -0.059233442793541445,
                0.04301453982678584,
                -0.018120016038860463,
                -0.026702090882832052,
                0.000286309313037588,
                -0.06118855448908493,
                -0.07184379020302052,
                -0.042573389712625365,
                -0.011477205902744375,
                0.0012686856702704143,
                0.014498196844530981,
                -0.039640957965337134,
                -0.0348591933525455,
                -0.009880376453756326,
                -0.09729106207176494,
                0.04131824194473118,
                0.04111503877726202,
                0.0653058747310793,
                -0.04608943015935808,
                0.07072433467675583,
                -0.023540286243934595,
                -0.026520216937211155,
                0.06227242978174559,
                -0.0737488228698394,
                0.01904950221355922,
                -0.02249060125450814,
                -0.01329209895796829,
                -0.012706042828896896,
                -0.040746960549355324,
                -0.012557063521467017,
                -0.021705447570606665,
                -0.029048055721049605,
                -0.020123906525940947,
                -0.037840844413710155,
                0.014641111151105096,
                0.03382998174582723,
                -0.04988768776939617,
                -0.0012956779631538263,
                0.044151984497855665,
                0.018330254739239688,
                -0.002128821005049464,
                0.00640486360732811,
                0.0017852625866257635,
                0.018958276478786416,
                0.04150890480378483,
                0.11219111668724699,
                -0.04964474533459917,
                0.011869975613349543,
                0.07364370659212754,
                0.03844824922734178,
                0.0873227153259037,
                0.10548118301214655,
                -0.019446190550861355,
                -0.010266849316560986,
                0.042467495717016725,
                0.07261159990638277,
                0.004049107426279271,
                0.028860458981805184,
                0.009654411237506499,
                -0.04877997622315856,
                -0.0750685366121967,
                -0.0445544244207947,
                -0.047040758520308916,
                0.01935431834917259,
                0.04664388691991334,
                -0.0058456927284773275,
                0.03967171042097832,
                -0.02217331975384695,
                0.03173249641072927,
                -0.0372831769583803,
                0.03659532299918467,
                0.07017856706868907,
                0.07775817837127648,
                -0.04018820007598806,
                -0.01452088304742584,
                -0.10419577971268766,
                0.09328114707836112,
                -0.07853766740542087,
                -0.061471708654752606,
                -0.06814723805658245,
                -0.013299963348593541,
                0.05379148714898334,
                0.010668237274548588,
                -0.032220485062189115,
                0.08225671092130561,
                0.012614541906795004,
                0.030498188255825197,
                -0.09184657727712787,
                0.00010388184227684048,
                -0.034532088060939305,
                0.0018819991421797062,
                -0.0674188532800884,
                -0.00211937748708897,
                -0.09989552376747883,
                -0.11914776564007197,
                0.05851257654744093,
                0.041971164498014156,
                0.045681908662880834,
                0.030967801429111545,
                0.02314293867334136,
                -0.03168187740336031,
                0.07330167360649731,
                0.07541078082757739,
                0.010399194331396208,
                -0.03360770490830774,
                0.037433619393932735,
                0.006309842943886678,
                0.003554696095395252,
                0.04272159907742094,
                -0.04993635633404595,
                -0.0037643870886373628,
                -0.018843361550270474,
                -0.007303322989659421,
                0.058965524412225225,
                0.08113014905865626,
                0.030059101439145648,
                0.040334677276254685,
                -0.004231031308757085,
                0.0017888263979977629,
                0.09091882052080395,
                -0.002125063344754699,
                -0.0041598662013727205,
                0.08053143428154007,
                -0.013957161687403732,
                -0.09234184588687654,
                0.00531037038521634,
                -0.027878855804523373,
                -0.08673689758433094,
                -0.04357716326759602,
                0.005010476729534735,
                -0.03842557159202977,
                -0.014590536247299085,
                0.06963630502840251,
                0.029611093019677546,
                -0.09311032352418781,
                0.07188165871961631,
                -0.06919995558139035,
                -0.009021648810289808,
                0.028413199753269752,
                0.028337677820936664,
                -0.06125990220182863,
                -0.07070920752833279,
                -0.027250155823915708,
                -0.027074644504429403,
                0.020146758935934532,
                -0.030985918475061405,
                0.037980136424799985,
                0.026018833893254534,
                0.058687657882845544,
                0.07348389754212364,
                -0.007011172642341551,
                -0.04793355974093807,
                0.08132919878290014,
                0.028496709811989814,
                0.0023631836160293205,
                -0.07569899870145383,
                0.08856511698647407,
                -0.07628858904954847,
                0.07312068219303726,
                -0.0931587498592676,
                -0.13223250785780438,
                0.030451652966559484,
                -0.09595907377259509,
                0.006620402218922361,
                -0.046246438540507646,
                0.03239953992661976,
                -0.009501764132797625,
                -0.042286474636931026,
                0.020336380024663186,
                0.03633854166887869,
                0.004318733562960453,
                -0.0036859501966343875,
                0.006931177618594263,
                0.04775343414615118,
                0.09414117905390565,
                0.1084732534433463,
                -0.10824111254981499,
                0.13065284363468818,
                0.0032612576063967068,
                -0.03785251088350116,
                0.046619753531994705,
                0.08047960902788527,
                -0.0578109292366222,
                -0.0024469539147745833,
                0.08799113571257301,
                0.04929522815235621,
                -0.054002856081231766,
                -0.024619177147745662,
                -0.012120299488860127,
                -0.07069461291566426,
                -0.08116989494803992,
                0.004124731179810657,
                0.022946979032835213,
                0.048995313620214705,
                -0.0217894940681099,
                0.03775205991858578,
                0.030863172239534893,
                0.1243695030912857,
                0.01645699945111371,
                -0.0018450591969795336,
                -0.04593323594523545,
                0.08822791956979145,
                -0.03757783349504134,
                -0.0020450668805339248,
                -0.04821993387527064,
                0.0030878140381777296,
                0.03202651929153776,
                0.02261387512657224,
                0.025046507512315797,
                0.003351621505142233,
                0.09139007328958693,
                -0.0301099215282756,
                -0.03630761388522203,
                0.060294113488408636,
                -0.005889031014821787,
                0.007875170171748507,
                0.04928672331550727,
                0.0476224914766774,
                -0.03268169964862217,
                -0.01830791692839376,
                0.11284536641701455,
                -0.08408333927551485,
                -0.027405814599343648,
                0.0422562172907773,
                0.04800515618574047,
                0.014426897577306221,
                -0.018388931089228996,
                -0.024352354490242333,
                -0.11372520753835486,
                -0.06125186289023867,
                0.017884355703163605,
                0.010287001974216043,
                -0.07036143087569785,
                0.07543639622210047,
                -0.058701164510656614,
                0.044851850601478026,
                -0.006712219819125916,
                -0.008412742172235137,
                0.0372162314062939,
                0.0209969870467002,
                -0.02856197631442649,
                -0.016515324691113636,
                0.016253083825147806,
                0.0001359659975724539,
                0.008135691409703627,
                -0.03793085839254972,
                0.07014448649286402,
                0.0019867951015556094,
                -0.06958899888671125,
