[
    [
        [
            [
                0.033152528720206055,
                -0.024614225491861173,
                -0.010521020068995843,
                -0.1046915432774872,
                0.02225351099406372,
                0.07797183786362753,
                -0.04607090579493204,
                0.16144615607878243,
                0.1236277325374471,
                0.0725985432980303,
                0.015707869529489875,
                -0.0025667767478250413,
                -0.013934979649149486,
                0.17479133930503718,
                -0.01725561553122034,
                -0.013618839549438823,
                0.006863693631516778,
                -0.03495924533309082,
                0.007411988147027902,
                0.05031290246210385,
                -0.03527145868732917,
                0.03694181825675856,
                0.04360450520006542,
                0.06275592248167748,
                -0.0758523865497149,
                0.008486274822494394,
                -0.03840782711765886,
                -0.010125422661274953,
                -0.10902731003544491,
                0.006511200522868243,
                0.008881143232979895,
                0.018712807405197856,
                -0.05594797191682667,
                0.058903606589986675,
                -0.04639621132217054,
                -0.0025125155848352127,
                0.06451430684920646,
                -0.027484101645757215,
                -0.07605324770716056,
                0.02062812098709909,
                0.05966153639939753,
                0.07011843583262353,
                -0.009096886195924253,
                0.020298364950434834,
                -0.07032113511396866,
                0.030467700163127286,
                -0.029992894496855813,
                -0.09465134933570042,
                -0.07052425553015468,
                0.007481131764307875,
                -0.046136487513015106,
                -0.047155387878574664,
                -0.03556038970275635,
                -0.04357674179859935,
                0.015023157263476906,
                -0.013058323621564165,
                -0.015197062122522203,
                0.03198535843563784,
                0.02837651663744666,
                -0.012678384071653647,
                -0.10307495917459443,
                -0.005492771110768224,
                -0.0017907585329351027,
                -0.030129998061385267,
                0.06963555194191354,
                -0.009023908157086534,
                -0.006655134955632285,
                0.04423094200382509,
                0.10300460688910663,
                -0.06034951387042403,
                0.05886343813564459,
                0.022244103734546296,
                -0.018479883297740522,
                -0.04750478062945054,
                0.011980663992797652,
                -0.008714769931902153,
                -0.04797589278516086,
                -0.0834592230044589,
                -0.027896574488927076,
                -0.08790777676449618,
                -0.1260815531438315,
                0.09105633725543835,
                -0.011390353750908147,
                -0.01362395528011367,
                0.017723673480557152,
                0.09463080876121545,
                -0.011822384086095348,
                0.012314478039484086,
                0.039374745474369754,
                0.002691389343261946,
                -0.024934871148851758,
                -0.057024046391546915,
                0.025392866413005196,
                -0.10836322231491126,
                0.025975443075208163,
                -0.04934562064271245,
                0.018712990839141165,
                -0.021126966951030474,
                0.023505406881057397,
                0.09052383435552294,
                -0.017250391318946016,
                0.05279002807675108,
                -0.027896870746628076,
                0.04983924152048319,
                0.0016474446787100184,
                0.0007723652370885308,
                -0.041873666296059396,
                -0.07359637761268967,
                -0.009661373795744648,
                -0.013625640473075075,
                -0.02230172878118787,
                0.06278899362945961,
                -0.07851700476328387,
                -0.11864292465979251,
                -0.011303520663983734,
                -0.05348565076370522,
                0.054761339339166167,
                -0.022595003521833034,
                0.0669790671456827,
                0.05285769424177286,
                0.05148873603623689,
                -0.03608358733217231,
                -0.06527061261285798,
                0.06535399937408569,
                0.024948564183913793,
                0.06004383817738256,
                -0.07225494189038388,
                0.08785384875342658,
                -0.012204932698758268,
                -0.040187770540927856,
                -0.011759565971710217,
                -0.02321986386133762,
                -0.048095429490621205,
                0.04688120883491033,
                -0.0031173799430294856,
                -0.05780971352715757,
                0.033014971282273785,
                0.0482316798470311,
                -0.10960526736505254,
                0.006402622709499672,
                0.07096889784882589,
                -0.014861988346463647,
                -0.02302685824734939,
                -0.023914415251819712,
                -0.08794092497999259,
                -0.09130571789836307,
                0.01969473773748706,
                0.02058168961485107,
                0.024063650179050787,
                0.025300965717319723,
                0.030260466232409997,
                0.03221120655390014,
                0.16073750475169019,
                -0.00983836885933063,
                -0.02190141699296025,
                -0.04943656215564638,
                0.17063805132704285,
                0.044820921305737726,
                0.09743490967608769,
                0.06834908669593227,
                -0.047034100504775495,
                -0.007021593640452484,
                -0.05481370424476176,
                0.043304927225319895,
                -0.030757009755650468,
                0.03705929531906513,
                0.0017219532482937647,
                -0.04437517067217802,
                -0.011359289034342626,
                0.02496925237341589,
                0.036165369158841325,
                0.02018813061621035,
                0.0359537509541624,
                0.09221345648471822,
                0.0318452451759752,
                -0.08101156569155722,
                0.019086705134808965,
                0.034894552285568405,
                -0.026366528570007916,
                -0.01576420355288641,
                0.09765065361920723,
                0.05469637439745527,
                -0.004814977449738449,
                0.08999528792486121,
                0.07010188845500848,
                -0.042443917231359284,
                0.023778180988729542,
                0.00920061117582632,
                -0.0335983259635486,
                -0.0754768820680683,
                -0.002487409947850666,
                -0.09035942389879899,
                -0.04677747437792636,
                0.01531634015151701,
                -0.008195043343012432,
                0.025813083251752127,
                -0.005601446159105312,
                0.005123835246897955,
                -0.03897212629045666,
                -0.05137051058550543,
                -0.005825712820388459,
                -0.046611580697363285,
                0.019634860967267048,
                0.04647161697197005,
                -0.08333807280451733,
                0.014850864456620235,
                0.04825125394758726,
                -0.03772120329580662,
                -0.0029563107315977864,
                0.014772358733742693,
                0.049994558187433286,
                -0.0010026960830746112,
                -0.10429367274137585,
                0.015979430959359903,
                -0.02469705650620848,
                0.049117155227107745,
                -0.004975706395905139,
                0.06212018206670672,
                -0.01877697523180031,
                0.02037049460773138,
                -0.07571309610976341,
                0.0021370956027184926,
                0.023835225382252797,
                -0.05370536273937721,
                -0.05961955190730835,
                -0.013643760420137123,
                -0.002750393400301985,
                -0.16479001781801322,
                -0.04489899670468444,
                0.0436827077598582,
                0.05103581742022863,
                -0.04319878101081567,
                0.04568380817951741,
                0.019531174558092376,
                -0.01289819133305324,
                0.02953094673894618,
                -0.0661465758491029,
                0.10095881329368236,
                0.015402134877494778,
                0.0008853063955695274,
                0.009590181420463006,
                0.06010594650450477,
                0.06004233727793744,
                -0.043858483666863624,
                0.02393123507513061,
                -0.06943448796530689,
                0.04618228040771742,
                0.057823533169119305,
                0.05482044301650424,
                0.062401940634509954,
                0.02427658743452834,
                -0.036760800189277826,
                0.058885035295873085,
                -0.011465325250716717,
                -0.021642684028138105,
                -0.027040259199118934,
                0.01669666442256147,
                0.00418197742505506,
                0.0017868254462082228,
                0.12138128316961681,
                -0.00705965152495303,
                0.07023067305198481,
                0.016900776968551877,
                -0.023722019688156175,
                0.00729263903273065,
                -0.01601864293178247,
                -0.01721053666488757,
                -0.04189657278831302,
                -0.038989625381092595,
                -0.0416386388943642,
                0.039719351357574054,
                -0.027381108106042006,
                0.061377983196047536,
                0.07487262806743486,
                0.009302172903712167,
                0.07347413606697682,
                0.00540170516987849,
                -0.03306802986151317,
                -0.01247840686346505,
                -0.01648281793830342,
                -0.045737316596124976,
                0.02267444832176267,
                0.05997885973487124,
                -0.03799252186469573,
                0.009304468430337103,
                -0.008164766630847047,
                -0.02265209412878612,
                -0.011789307628915452,
                0.014159651293896314,
                -0.03839103843148347,
                0.02980653286465127,
                0.07194626066321312,
                0.1495444802193273,
                0.04007979673083286,
                -0.004871151462690866,
                -0.03424885545991848,
                0.019012384425619696,
                -0.050706334637679915,
                -0.05507407672653902,
                0.023934324339171517,
                -0.03190795331408034,
                0.029856904287118336,
                0.07441141374331825,
                0.055937143360198845,
                -0.09238706949606972,
                0.022817913884810043,
                -0.034589593490743344,
                -0.07563162929436944,
                0.03488288737582821,
                0.010175217355871999,
                0.006608463493551868,
                0.06078732127205824,
                -0.014667403311189419,
                0.058450276829184036,
                -0.007281692740297733,
                -0.06098488334594312,
                -0.008946910591444342,
                0.013814551755910055,
                0.0018177171669427675,
                -0.06809814166316248,
                0.06835281104182275,
                0.02112605241930984,
                -0.008530361470199628,
                -0.03234525840456093,
                0.01252198375178125,
                0.04792173487393786,
                -0.05345946255509607,
                -0.050404778762705,
                0.05768018657625373,
                0.011923379131850943,
                0.020087253774397382,
                0.010815970103181197,
                -0.03909331560032499,
                -0.011408220604106085,
                -0.08766181233960671,
                0.041808386025856216,
                -0.0455707134083873,
                -0.08507707674704708,
                -0.013419560733581628,
                0.06689648469200782,
                0.02492308471167952,
                -0.016721043432991627,
                -0.11076156561799555,
                0.054293474657495476,
                -0.049919962122480746,
                0.030139701909862218,
                0.019880531514372163,
                -0.01937152248737326,
                0.04795273237300396,
                -0.04942243814823597,
                0.03198917134055075,
                0.08794191041049831,
                0.10891696675733963,
                -0.0328171176563201,
                0.023901729494778146,
                0.03652458318208422,
                0.018275144839571322,
                -0.0193881180177656,
                0.10061859753671709,
                -0.012097848478846897,
                0.005888111178201216,
                -0.0021390827154170846,
                0.04330856057535389,
                -0.06563548177182876,
                -0.09650536520098935,
                0.0008879602656075104,
                0.07112756398949464,
                -0.027660154904264236,
                -0.05140688395572256,
                -0.005249672680358606,
                -0.08098848178626088,
                -0.03779163977808988,
                0.04309240613625194,
                -0.01825774979634292,
                0.014151786219037742,
                -0.08164137904758348,
                0.003349794432152903,
                -0.0004311542949184352,
                0.07096752018648075,
                -0.025091292246021593,
                -0.056185731251616085,
                -0.054956432189926435,
                -0.0606900109548103,
                -0.012195271510852018,
                -0.02483169129676434,
                0.01038061302849529,
                0.0027434744102433255,
                -0.027773931661137445,
                0.047598316758982046,
                0.03430005960585262,
                0.017499694397524006,
                0.05125360354654492,
                -0.057757259386901696,
                -0.028886766236849073,
                0.03423696488158602,
                -0.07511958245221698,
                0.16197915804054175,
                0.059971972884615775,
                0.026152524904622797,
                0.0696840532407929,
                -0.0640480505745288,
                -0.02717522982580642,
                0.017726694566350513,
                -0.08182442996673651,
                0.03619486593900596,
                -0.06266278514454887,
                -0.10296493218374234,
                0.06147175526808059,
                -0.11155888264404254,
                0.026798593726768287,
                -0.07960810177568202,
                0.03987162960285066,
                0.03635623122660081,
                -0.022634968055516378,
                0.022550191752059356,
                -0.0053379094225803345,
                -0.017419019319148535,
                -0.050560557942658985,
                -0.043104010662122307,
                0.052345025622795555,
                -0.056987599050725035,
                -0.011359151577694303,
                0.03980748775340833,
                0.06547439910172244,
                -0.029666217219899104,
                -0.008579216643217216,
                -0.07660957687751359,
                -0.026128117674343684,
                -0.02081243846685628,
                -0.003026419909750434,
                0.0372800498156434,
                0.005104386838800672,
                -0.02710654815267117,
                -0.04597026150382884,
                -0.09122369071620484,
                -0.0394882215970082,
                0.026346657062306968,
                0.012609815847646089,
                0.014420806928605714,
                -0.061882224237339564,
                -0.09774162902686334,
                -0.09566359576463898,
                -0.013806637007107112,
                0.04625609290994263,
                0.06840380514436392,
                -0.06897140270809293,
                0.05823232667679499,
                0.0341513408185972,
                0.006506662563700916,
                0.05899259089113739,
                0.023936634217108912,
                -0.021842097681149208,
                0.03239432135248829,
                -0.008544140048584843,
                -0.07309870599893031,
                -0.0644909483819168,
                -0.0571253903583959,
                -0.05884443085491345,
                -0.054514589731515094,
                0.016762498196490134,
                -0.059659380344753016,
                0.13858534121297172,
                -0.049833802166160235,
                -0.07904888866385813,
                0.051401726898423615,
                0.004064677114341897,
                0.018289387841845153,
                0.060012349216589524,
                0.011421594991115799,
                0.05565643258375957,
                -0.022470920937790614,
                0.04567070903654218,
                0.029044851651681233,
                0.09133399913736247,
                -0.0938975628813431,
                0.031228250526376924,
                -0.07706646347517691,
                -0.0138236844621078,
                0.06633082372979018,
                0.04727014674225413,
                -0.03295594959565208,
                -0.030717169165183456,
                0.11368041975969569,
                0.010361112301676616,
                0.11058261955566798,
                0.01355626929758816,
                -0.036835524234416946,
                0.0094753923874108,
                0.05011019182607953,
                -0.02484735150693411,
                0.0036556475538341605,
                -0.03436659588145821,
                -0.061338232303367275,
                -0.04142185837267115,
                0.015243148828521449,
                0.060393339354157374,
                -0.09286078665348696,
                0.06254551751486355,
                0.020910879900101053,
                -0.019084161874969516,
                0.046063365936201014,
                0.07030907744683805,
                -0.046486625818745665,
                0.009686179766826184,
                -0.005757537092448811,
                0.005163270610477799,
                0.0014852407947407726,
                -0.037987544664190284,
                0.047052230252976945,
                0.00322501276562651,
                0.030211671032250947,
                -0.05162998136306048,
                0.0020236868665871135,
                0.12054380928969706,
                -0.04939062850407133,
                -0.0444264720784183,
                -0.04822380855703607,
                -0.10039055268610741,
                0.04674993233468822,
                -0.018135047612515286,
                -0.10304055326750126,
                0.027768926763850166,
                -0.09296598484921119,
                -0.03510181386259776,
                -0.002654151660645293,
                -0.007039819259516463,
                -0.03696948085683767,
                0.0354258936543774,
                0.07061150825599147,
                0.011911683246574715,
                -0.11430200878940387,
                0.03303402170949504,
                -0.0421610233639177,
                0.06154182085857449,
                -0.031323206685857856,
                -0.07562345979199478,
                -0.07416459409164983,
                -0.0031626699641088113,
                -0.09974540118870114,
                0.03112498196128321,
                -0.02750844709555832,
                0.11079054072882033,
                0.0066687214018448585,
                0.03648938057874996,
                0.061777361365311804,
                -0.005062754457126455,
                -0.03840083233581035,
                0.022746319556438983,
                0.029525449457787765,
                0.0662888085729141,
                0.03706687092353888,
                -0.06379409629067191,
                0.12168409827920994,
                -0.03734847160311306,
                -0.04267372849319568,
                -0.0021380344521245184,
                -0.004076129100176182,
                0.05086635540301465,
                -0.025035293799897433,
                0.07384008555847192,
                0.043677978229271074,
                0.03491710919121495,
                0.01373495700598029,
                0.01906498364424362,
                -0.06814416668751758,
                0.12324597146234995,
                -0.021782611714295023,
                0.12215453057066143,
                0.007859837786238855,
                -0.0509926290800601,
                -0.0260077935158068,
                -0.08673202967169677,
                0.13685184913212145,
                0.0860328553243816,
                -0.046200182136058546,
                -0.04822260330760921,
                0.024914329210496217,
                0.06774402606387203,
                0.047545784524594494,
                0.04327671819734671,
                -0.002764989387734473,
                0.05914716428498281,
                -0.024762359556155047,
                0.05782668962858823,
                -0.0002167188022698674,
                0.02104147504417232,
                0.023437760932813963,
                0.005006440438746044,
                -0.027620657923778956,
                -0.05196159200330432,
                0.019005824977224032,
                -0.07614536672089092,
                -0.001074463227698035,
                0.09170199858503715,
                0.04330744767154627,
                0.007863899004228464,
                -0.005310244097903014,
                -0.06414149448956336,
                0.020973271393388043,
                0.0505164722556417,
                0.07431303901786401,
                -0.04331639293298377,
                0.022134119679715326,
                -0.009588587844997326,
                -0.011121188106656339,
                0.13071584235660194,
                -0.06475466310052333,
                0.01429776223064823,
                0.020701086400546593,
                0.03877088431641974,
                0.05706931231914639,
                -0.042929090778248434,
                -0.029978677698192447,
                0.03820487747472129,
                -0.11456110113227662,
                0.024216056407743988,
                -0.057832020258688006,
                0.020886330195125195,
                0.014885212214341581,
                0.02540678937314268,
                0.020063028636176147,
                -0.004154919143975774,
                0.019814037023857575,
                0.10155986812556801,
                0.08454323888992385,
                0.18304098866051574,
                0.014524989084809611,
                0.02610020833777768,
                0.05479774225117788,
                0.06253089669298528,
                0.035990945898111054,
                0.04483453051764787,
                -0.026143830385402297,
                0.03410789473339939,
                0.011662861422324367,
                -0.04304418492702833,
                -0.014837547286233627,
                -0.06844952421018728,
                0.013196634952570861,
                -0.020895967028041522,
                -0.028002114625750103,
                0.050963472023283586,
                0.04645741741676006,
                -0.011755968881024172,
                0.022368392479216615,
                0.08558953876224121,
                -0.008499214248431317,
                0.12282522827210145,
                -0.05189508944226454,
                -0.040861638843564925,
                -0.008780443152433773,
                0.07949435653804475,
                0.022396576601865736,
                -0.025230236439467587,
                -0.012295481038483066,
                -0.0006231181960147027,
                0.012676680474942165,
                0.10372851661894592,
                0.03812489631211071,
                0.01718285817348462,
                0.1236831486076193,
                0.07285035965845098,
                -0.009488755481242981,
                -0.04730148959302397,
                -0.01012427700887459,
                -0.0032606586639405623,
                -0.06915999775329483,
                -0.06717445858785207,
                0.06563453196243861,
                -0.09426533676506592,
                0.035809779613381144,
                -0.016286770546976706,
                -0.02805116506256129,
                0.025147981658175875,
                -0.04132255390899357,
                0.05776234477040014,
                0.06466226692166932,
                -0.03281522665086653,
                0.015754498900262336,
                0.05722955104159031,
                0.02352063892637103,
                0.003903915284443208,
                0.05916370892513955,
                0.027260973468845626,
                -0.0233896777988784,
                0.054079884448654365,
                0.03215764441704948,
                0.08617879485959068,
                0.03798375383058448,
                -0.030272018356142426,
                0.01932730017116822,
                0.0790065257635568,
                0.06398586111210204,
                0.019541282816431076,
                0.052278784639621004,
                0.09075692834958521,
                0.016203141154738192,
                -0.046421476884130584,
                0.020663887403707143,
                0.050801792981977685,
                0.04226733758002242,
                -0.027308529024652403,
                0.032244823475254675,
                0.0016201747419790653,
                -0.007799438330700058,
                0.0782985700600215,
                0.094690535285762,
                -0.013310706076577321,
                -0.061982505799889044,
                -0.007937623752085704,
                0.006483241522214509,
                0.0023831912000316048,
                0.08391136659015459,
                0.03333459330574762,
                0.0025914800091850856,
                0.03056833295896796,
                -0.05074601874118151,
                -0.08398409297939442,
                -0.03293071129061322,
                0.0786090063817518,
                -0.05926012619760632,
                -0.007942006996819757,
                -0.009427004003647056,
                0.03404526631331429,
                -0.014235099844271171,
                -0.07849988824191924,
                -0.04644865662997442,
                -0.016227414850647562,
                -0.025113135091910318,
                0.05439414301902766,
                0.039572624457482164,
                0.05544371164859033,
                0.030617451731745092,
                0.04560432604551155,
                -0.0409542007049724,
                -0.013975697859514405,
                0.012813349515942166,
                -0.016783916845284925,
                0.04398589178863154,
                0.051672416143498864,
                0.04806376866302885,
                0.024268297587993315,
                0.03278865387687964,
                -0.005763496914329004,
                0.016340433641117515,
                0.016811211083213522,
                0.0644412147899415,
                0.035063544941868516,
                0.05863390451346054,
                -0.029153316989281797,
                0.04599497771836767,
                -0.017922575936545778,
                0.0028241404836073245,
                -0.004638809341654001,
                -0.0268022559788407,
                -0.04996278649585576,
                0.1029927786702181,
                -0.014207244041355198,
                0.05768154245863711,
                0.061657625485466994,
                0.05085346697170416,
                0.03073025329949309,
                -0.01579188253300158,
                0.004555776934103,
                0.00963525849649394,
                0.07479687793854459,
                -0.01657466897972178,
                0.018599885039763488,
                -0.03257584624602516,
                -0.09075162734266297,
                -0.04176269585812838,
                -0.019685680074176627,
                0.011420964122501234,
                0.012578969223334015,
                0.09814902068828643,
                0.11220260016874699,
                0.05996694901340926,
                -0.03609546302275587,
                -0.06455881815079931,
                0.06369963874528392,
                -0.028481969841053,
                -0.0032458858944374508,
                -0.01337604328461437,
                -0.0380017682291197
            ],
            [
                -0.06233675051660155,
                -0.04063756720488275,
                0.060387928278052276,
                0.02137193224127195,
                -0.016990250260542954,
                0.07534263989437068,
                -0.02697586869817138,
                -0.035174860343773644,
                -0.005809874661374528,
                -0.018200678846424734,
                0.047297330762211216,
                0.04176270497457841,
                0.04112780532306011,
                0.005130778447434062,
                -0.0016776458005506437,
                -0.14522549917118785,
                -0.0638389966221058,
                -0.05587088706453654,
                0.00379960705254234,
                0.02984666010351882,
                0.02287757088145332,
                -0.003113258175082315,
                -0.017079840482540104,
                -0.018952341972498617,
                0.07594290646589695,
                -0.0017942323131840906,
                0.026739727378140635,
                0.01112304556921704,
                -0.028515709736173827,
                -0.07716717060906751,
                -0.07495666696055524,
                0.06684882974881587,
                -0.031058146701229944,
                -0.003382435832368818,
                0.08105129970934338,
                -0.0846612060491149,
                -0.021300330203448944,
                -0.0835654682730321,
                -0.07959066186077812,
                -0.006520090410145601,
                0.06294909800449283,
                0.11392041125053198,
                0.013450108957808966,
                -0.06400486800133115,
                -0.019576830407755,
                0.06657937501282439,
                0.06420572559582415,
                0.047179172782384954,
                0.09811730173767538,
                -0.03862423471386881,
                -0.011382695482342322,
                -0.05471409972212382,
                0.016559500355015563,
                0.024183181758501763,
                0.016644510500170618,
                0.07744954311777007,
                -0.0277275806613278,
                0.07606157754514002,
                0.006305739456369112,
                0.007013680964617857,
                -0.028364657345207912,
                0.06812986419739991,
                -0.04405299391463309,
                0.001040072791160401,
                -0.037757444358298524,
                -0.15413573276098938,
                0.04347102039832579,
                -0.05530862751900097,
                -0.06373228157357558,
                0.0026813168245575893,
                0.010502564096882426,
                -0.024491165141627167,
                0.01698867151257411,
                -0.02546205494575704,
                -0.03866645756572205,
                -0.07746687170240456,
                -0.06864499388858639,
                -0.010809134154826412,
                -0.0034810185335597235,
                0.026598930157886544,
                0.01590540264094631,
                -0.13093285822641942,
                0.08464244407354983,
                0.011777938839545398,
                -0.02927455448685347,
                0.07017135714555202,
                0.04549364056719527,
                0.023881196150034367,
                0.05431729918391809,
                0.003332446818646162,
                0.018323371185358487,
                -0.009595038998971956,
                0.04524875260888424,
                -0.03851708276661668,
                -0.02595186998946144,
                -0.039081474553895205,
                0.0014440024181747715,
                0.07821968190805403,
                -0.060590738545357466,
                0.04360979677193513,
                -0.056681033247506334,
                -0.03479534152636198,
                0.03222732371231555,
                -0.004717840243811674,
                0.012543844749766973,
                0.0431037215882816,
                -0.02913836213078338,
                0.0400662613617531,
                -0.008073307587233161,
                0.012895050203550702,
                -0.01604035881782316,
                -0.003661710578668656,
                0.021229457472700816,
                0.01639947370552488,
                0.015936135057018994,
                0.020638465972274603,
                0.017724495869971546,
                -0.0010081043627234733,
                -0.06005784159183449,
                0.06999985759554622,
                -0.011375873940924945,
                0.043750513887977696,
                -0.030872667619490035,
                0.01289764352040672,
                -0.0301714851555411,
                -0.02070480305801993,
                -0.038768102698698584,
                0.11330526720733539,
                0.09931714395785603,
                0.02703066819280886,
                0.03987160968258099,
                -0.007363871434371619,
                0.062413479421366026,
                -0.02636251550996573,
                -0.029379581821848653,
                -0.060567445850917716,
                -0.018410672886281003,
                -0.015814550455902125,
                -0.07508535884614218,
                -0.0281443509654756,
                0.07642388834564008,
                -0.04870456708021521,
                0.06834705046632476,
                -0.014777001831685413,
                -0.04580910233757271,
                -0.028263874006400222,
                0.05558617332746645,
                0.13860812697219732,
                -0.018475260648921524,
                0.013495923149298428,
                0.007545294788472842,
                -0.004562314006021249,
                0.04884728503747287,
                0.06502331350322176,
                0.03785105855555651,
                0.041080461050954524,
                0.06301974041475888,
                -0.007862056504895553,
                0.04618452564835952,
                0.004073842504581078,
                -0.06992750711314011,
                0.008520104166503993,
                0.04151212826582995,
                -0.01686504193270477,
                -0.06975720052141678,
                0.033729916226321176,
                0.017399619294933482,
                0.028488546086877276,
                -0.013917397900665133,
                -0.02949945969058422,
                -0.05083410794493192,
                -0.02817010139598637,
                -0.019169363632072167,
                0.08113707275726936,
                0.0046489695590987605,
                -0.14887252648111957,
                0.025370526928926624,
                0.041917033885043295,
                0.008688707751891936,
                0.08712179999075627,
                0.03834730228982967,
                0.10577809121811899,
                0.004436405586803476,
                0.0774510324551391,
                0.040110456012298075,
                0.15919059699905508,
                0.08881514158384367,
                -0.014873964228334055,
                0.038837021730062204,
                0.05825271289427184,
                -0.07171816019690173,
                -0.05134111574781307,
                0.10303117191401684,
                0.10900830478384707,
                -0.021123188420577525,
                0.033178463988287644,
                -0.08226924826068456,
                -0.06383327676113722,
                -0.0322861626906872,
                0.0317297673295973,
                -0.021806917532157723,
                -0.02139885661743177,
                0.014557295433401035,
                -0.03139609379264256,
                0.014172635017338746,
                -0.017383377891482178,
                -0.06727850227075946,
                0.06161906074080146,
                -0.0013552146955189903,
                0.11065658693753434,
                0.11050613513553649,
                0.10317967609167193,
                0.12508209440603738,
                0.1570964687716842,
                -0.0011806693974922482,
                0.0019042408669740429,
                -0.057429590954568316,
                0.0318246890117314,
                0.05259417129397052,
                -0.038397177619627375,
                -0.024598497122101395,
                0.05659167732199378,
                0.009518655759014014,
                0.0177114415488017,
                -0.015607063824557987,
                0.009628188250746093,
                -0.014095542055378678,
                -0.025557563280569587,
                -0.0701346193639334,
                -0.03020148796718664,
                -0.07021736035245708,
                0.0131638357862876,
                -0.05663590982016628,
                -0.07898464831773028,
                0.021846648920820864,
                0.06391119576651412,
                0.0008521406357405516,
                -0.02139738374347351,
                0.02340027454525916,
                0.0777986124084845,
                0.03882371630367373,
                0.05403239018216871,
                0.05584446991095695,
                -0.04368094250743898,
                0.010323239505390136,
                -0.022407549320849908,
                0.01984505698332194,
                0.023543979876673112,
                0.01295603100994427,
                0.008061011589422505,
                0.044654580281696984,
                -0.04478086729074268,
                -0.08351870560315693,
                -0.022063114134398196,
                0.055694049635681475,
                0.016318252448646743,
                -0.03496427085499831,
                0.061183126825950805,
                -0.04183465704372713,
                0.11582798192461777,
                0.07966779483958816,
                -0.01594132568952616,
                0.017475340434315992,
                0.01437516570332926,
                0.04719950272032843,
                0.06166832605635073,
                0.0017635304520712974,
                -0.0048436195448219605,
                -0.047406164046794916,
                0.026821467300153636,
                0.03813357221200936,
                0.12333247950784322,
                -0.0772450745710331,
                0.03296109612883812,
                0.04507492894933634,
                -0.023684506786023657,
                -0.005647527800890949,
                0.011588584108396473,
                0.035070371920977735,
                -0.0489522444395671,
                -0.04270581332196261,
                -0.03165915589867246,
                -0.020463184243792384,
                0.041719016971909946,
                -0.0038882521697398724,
                0.02373583782506425,
                0.02639564552871705,
                -0.05655469330581174,
                0.01875893913554123,
                -0.022619659973361267,
                0.07359852880128359,
                0.07927173493270775,
                -0.024712649895762294,
                0.0003090786128917731,
                -0.024917618469405253,
                -0.024894999147335277,
                0.015921133233899775,
                -0.060495490669594906,
                -0.060847912708551395,
                -0.037003509653371736,
                0.05450262865753048,
                -0.030193958618519857,
                -0.02516337923267895,
                -0.023868238007707807,
                -0.014776915129679798,
                -0.028568435471721568,
                0.01709054710323799,
                0.019707036048867005,
                0.028623088235914803,
                0.061696937083621256,
                -0.04454874923162456,
                -0.04326445217881202,
                0.09847363791204573,
                -0.0274686132015146,
                -0.08436348942829132,
                0.09351755508272805,
                0.03882677357271578,
                0.06786102116674632,
                -0.002867103868540709,
                0.05610148386658844,
                0.07027027073887358,
                0.0077151706082375544,
                -0.09111684452730091,
                -0.0742045769925856,
                -0.046281511232948234,
                -0.059114495944734106,
                -0.006427326300816995,
                0.004492067115482445,
                -0.027806439751271055,
                -0.037880041416025634,
                0.05975794374420555,
                -0.06759483305120617,
                0.02079358626168823,
                0.04205774949230202,
                -0.026800059680254205,
                -0.06159905402158245,
                0.023102383029824196,
                -0.03290412143913349,
                0.027487331807793485,
                0.043320465166223,
                -0.027615973096614017,
                0.07278176576582171,
                0.0056109234453050015,
                -0.005699193078906592,
                0.01580563618645417,
                0.08921858039836154,
                6.110754855075745e-05,
                -0.024861929102474162,
                0.047733487275406314,
                0.0383584998740721,
                -0.10829537563268227,
                -0.01578290462309103,
                0.02760246200976534,
                0.035995479856101305,
                0.011696012515157094,
                -0.01666246422127187,
                -0.007788592605193213,
                0.07574745033605146,
                0.02075327152444199,
                -0.015838608816609485,
                -0.02614607763480123,
                -0.00226804833468508,
                0.10376981846596652,
                0.019759234811124692,
                0.02052817792461767,
                -0.1352173470665837,
                0.03593583657813404,
                0.07939295666538305,
                0.02479373491574393,
                -0.07153545082283805,
                0.011630464399524717,
                0.015024169831939408,
                0.053708672509798404,
                -0.05724225544536312,
                0.023857776680390352,
                -0.023318383490653433,
                0.07559814937890633,
                0.034341133080914334,
                -0.026297499736393382,
                0.01632426776310837,
                -0.04706829816692651,
                -0.02440332555090762,
                -0.0042429069192477025,
                0.061680250724202905,
                -0.002187260348478572,
                0.006305916095602014,
                -0.029096587350876345,
                0.030329872501037775,
                -0.03184213022791157,
                0.041155166078645625,
                0.03132265721873874,
                -0.05918109060183458,
                -0.0475155665626058,
                -0.035437517937303764,
                0.03536017876772847,
                0.04780446579822782,
                0.07673279506991754,
                0.10285623353772037,
                0.0217077564685106,
                -0.010467064258444556,
                0.06057520676616718,
                -0.024233267366569916,
                0.09332982732822229,
                0.08824190477343552,
                0.10984031625489521,
                -0.02932441888855547,
                0.03494573454757447,
                0.027240209849168025,
                -0.1456820233621032,
                -0.05893939333205835,
                -0.08382519142104862,
                -0.05454120539622063,
                -0.01179270869163207,
                -0.03531810342425269,
                -0.11630203447966528,
                0.05745666142737685,
                0.05003509851323633,
                -0.016530982223200395,
                0.009240801003649357,
                0.06100019730357323,
                0.03234636092500785,
                -0.09709373312760908,
                -0.0009653010381972331,
                -0.01025087042991542,
                -0.07755863040862433,
                -0.019084436111168505,
                0.06813857556395551,
                0.026145714038743023,
                0.0348396345974149,
                0.09131129521237949,
                0.036760223143298104,
                0.06606878450192802,
                -0.04605261663050065,
                0.05730106706853912,
                0.027256717669832883,
                -0.03397805067922545,
                -0.04204258307118142,
                -0.05297585088222354,
                0.05642002515114796,
                -0.045356244672602124,
                -0.050263856198537,
                -0.055260688423705656,
                0.07446376377801793,
                0.020883064081427025,
                0.050594376612426196,
                0.057966707166786285,
                -0.04962359052974491,
                -0.03157971663085551,
                -0.021098285503298515,
                -0.02026645107278248,
                -0.048835885604026255,
                -0.01800058970950054,
                0.1212165435929186,
                -0.030564365533507686,
                0.039646459817015214,
                0.0012278882525156038,
                -0.01566100664797921,
                0.06600046404654321,
                0.04473633534163291,
                0.013655005340072461,
                0.009701381473094153,
                -0.0781275728061363,
                -0.058468303057538466,
                0.14594347564436533,
                0.019819099877984615,
                -0.13630442103414225,
                -0.0031423697948002012,
                -0.053748287265908974,
                -0.015973718356280305,
                0.057057548426867284,
                0.011209725538083228,
                0.05734647771815723,
                -0.0721317996916903,
                0.04348221563698444,
                0.04919029881734003,
                0.04580251432292556,
                -0.17041462280047268,
                -0.049619574770146606,
                0.01404140526568432,
                0.05715528821098403,
                -0.00359497553289349,
                0.01300431572657336,
                0.05054679632951796,
                -0.030023606074269283,
                0.025605904813077226,
                -0.012612036197408995,
                0.04947429694795281,
                -0.10531890891619132,
                -0.09061089056861747,
                -0.0681020136408122,
                0.12493470642941332,
                -0.04958019621117372,
                0.031037194392813664,
                0.028103754986947845,
                0.06071820229430204,
                -0.04709212198496967,
                0.0736801468974847,
                0.05012286269552902,
                0.04138123301472173,
                0.07978596985159424,
                0.032244659447851653,
                0.022260429214056084,
                -0.05250852221002046,
                0.057220768414087554,
                -0.07700698956524224,
                0.07446417907855889,
                0.009065631252113604,
                0.012238811896388474,
                0.09562216637978857,
                0.034080828986140954,
                -0.011814205025724812,
                -0.06099305067930133,
                0.14362182571805068,
                0.05193831823759717,
                0.05148341333347812,
                0.01935367487134857,
                -0.07010110026875728,
                -0.053429843534358264,
                -0.007930890873129547,
                0.0009715773540828896,
                -0.0655297003248653,
                -0.015977128943369542,
                0.04018779811748676,
                0.006959484666691321,
                0.013966223147380337,
                0.035461774017608,
                0.03367011751829891,
                0.007528786094928835,
                0.036815140752667355,
                0.08855846024249442,
                -0.0504986801740564,
                0.00422668127520075,
                0.07442717465006023,
                -0.014036477805023435,
                -0.006288474005448193,
                -0.034423228356684224,
                0.05821361302937415,
                -0.08092429285427591,
                0.0005342346902485611,
                0.052868317043179264,
                0.04225921395320501,
                0.09322228580766516,
                0.022252438676550752,
                -0.0029332679447999126,
                -0.05120192436896473,
                0.04826185017925688,
                0.021601826980841357,
                -0.026651779790815636,
                0.052658490195580825,
                -0.015654279361566145,
                -0.02855743336878149,
                -0.05920866164387712,
                -0.0049782513826094705,
                0.024705774221035898,
                0.00673270587340475,
                -0.027017453517460415,
                -0.11177485091504182,
                -0.010758346512428074,
                -0.03706587902117471,
                -0.017477646560644555,
                0.05364929547970261,
                0.009708449730043506,
                -0.031731069011698455,
                -0.04027139312733624,
                0.054532063878129436,
                -0.0011101188423551828,
                0.12671234326866845,
                0.11392159305424444,
                0.014758097790311226,
                -0.0560809092109861,
                0.04347524037253438,
                0.03202502371993141,
                0.030838904072237366,
                -0.11056699595132993,
                -0.04261736798100552,
                0.02006520643294221,
                -0.03772903255990427,
                0.024094777098172013,
                0.0025037399353525103,
                0.005906299777337834,
                0.0169306789353727,
                -0.01455347813436022,
                -0.0031602173090591445,
                -0.006346093646402764,
                -0.04388683705079838,
                0.07469900940317721,
                0.03160074747738687,
                -0.03215279568307218,
                0.017792020834975556,
                -0.04816566445188615,
                0.032085861338808,
                0.007360288226509382,
                -0.05524095210850595,
                0.017977801600302865,
                0.08936087065486334,
                0.08941327387230945,
                0.03734635803397095,
                -0.015549517703496907,
                0.024814630362328737,
                0.09013360748311887,
                0.013265695723566907,
                0.042093137989789996,
                -0.05716322431317855,
                0.011374616559959649,
                -0.00039430683308429055,
                0.030748266772299557,
                -0.0034352412998855855,
                -0.0631959118481794,
                0.015463644766275124,
                0.05777094940725208,
                -0.043857102410109934,
                0.08988902536950005,
                -0.02910230296449233,
                -0.030660227840831205,
                0.05488836687708686,
                -0.02593262031356273,
                -0.038640614687643494,
                -0.031448299623677595,
                -0.04221238972747508,
                -0.009138181288898319,
                0.08223076222043252,
                -0.02849807887345238,
                -0.04454690509306519,
                0.06470143124648664,
                0.04075610749706926,
                0.012635514711804529,
                0.0562926869040397,
                0.045118367223505845,
                0.015125338731731705,
                -0.013842511771122022,
                0.07534102251552664,
                0.03646272674652934,
                -0.08641962481656425,
                -0.043366849379148927,
                0.005920490662525128,
                -0.017999112641769913,
                -0.04418519306020292,
                0.06837379015423112,
                0.002963833468883021,
                -0.03904329223935645,
                0.0509013185038804,
                -0.01691138655124755,
                -0.07210166402879761,
                -0.05128949644518704,
                0.05255099060010802,
                -0.0568045785165504,
                -0.127503665167465,
                0.0731839714944484,
                -0.04171212779572953,
                0.040302769197411555,
                -0.010995107639391403,
                -0.05786193674333612,
                -0.0131862523410663,
                0.061683503191197905,
                -0.038516900441575797,
                -0.06185805650607433,
                0.02262248349401231,
                -0.029245305712009683,
                0.04040950882889702,
                0.050839217028746296,
                -0.0904403484175139,
                0.04940944126815185,
                -0.019401596999275614,
                0.025813688133611477,
                0.03530451800290044,
                -0.002758398769410852,
                -0.06864306170738149,
                -0.0417435210987547,
                0.01968115153888183,
                -0.022194574056930202,
                -0.00010841501609027833,
                -0.008317209684941457,
                -0.05885706257616478,
                -0.005752887716091839,
                -0.006335396892452616,
                -0.010989479426649976,
                -0.014221226744957065,
                0.04422642524135983,
                -0.027120178192417552,
                -0.06141485039368895,
                -0.002690110428148125,
                0.019901335765153773,
                -0.06896612181406075,
                -0.08730179186045939,
                0.034903836000501336,
                0.06204409936477303,
                -0.09222190310007708,
                -0.03976252157628762,
                -1.1438077720602179e-06,
                0.028170258677627635,
                -0.014710765639946579,
                0.10775975682305133,
                0.09529146072412192,
                0.04540805232398487,
                -0.01722004839849207,
                -0.049443673806107695,
                0.032915573078867943,
                0.05003970530184277,
                0.06576768433437385,
                0.012037995375066016,
                -0.011161457255410573,
                -0.10018454270294866,
                0.03600660169786369,
                -0.02713795450490734,
                -0.03394426756108316,
                0.09685724466694369,
                0.0869974163246334,
                0.06251592256385667,
                0.13925401158084563,
                0.004538732872230929,
                0.01933239313733399,
                0.04168463897326424,
                0.01877282203939421,
                0.028499808701686533,
                0.0625167835568961,
                0.04837615649855867,
                0.006717639805715371,
                0.09172480828688662,
                0.08950146849226501,
                -0.0728288736732556,
                -0.021339920895854046,
                0.010906339020405454,
                -0.010400574353881637,
                -0.03600495311888512,
                -0.07097577187454018,
                0.021086383390125713,
                0.047630033972439215,
                0.0645890382494171,
                -0.015085696572762932,
                0.02012370057194282,
                0.025230962478744644,
                0.012303855158048613,
                -0.027310311352482082,
                0.06484719715578438,
                0.04773374420144766,
                0.005307088534800503,
                -0.02988381545394455,
                0.09216632269921206,
                -0.02909635841306185,
                -0.08652342070887009,
                0.020506930653608223,
                -0.05244505745233923,
                -0.003925784108731086,
                0.0044166411314247676,
                0.009347412395299697,
                -0.01885736369156,
                -0.028800925333983853,
                -0.10635876944101556,
                -0.03550323969321058,
                -0.015462101157016316,
                -0.013632210732538038,
                0.019870824192137,
                -0.0022985587406626077,
                -0.0028944359216863612,
                0.09185450507949965,
                0.061054617015489455,
                -0.04598806290112503,
                0.011711541491596637,
                0.009773884766491641,
                -0.09103967552153273,
                0.025323941124421653,
                -0.08215520718585699,
                0.027301510277376477,
                0.05597588667913687,
                0.042592219880776154,
                0.08882853300145924,
                0.01981752021256499,
                -0.006838510835717621,
                -0.04255311118859614,
                -0.010374866633016702,
                -0.004219605191691892,
                -0.029190571520511983,
                -0.03490523516026522,
                0.06357738674193569,
                0.005796851681409453,
                0.044669077508857125,
                -0.0193862377197764,
                0.015349653219108503,
                -0.04694336595351244,
                0.045806242142936895,
                0.0023536400321793297,
                -0.04061644103779013,
                -0.030247102905628303,
                0.08149085860419349
            ],
            [
                0.004869366069085245,
                0.052791966402762534,
                -0.0234188737013118,
                -0.004566936584129647,
                0.04046959553398977,
                0.017172260383409285,
                -0.07235448955259866,
                -0.0010468139425189266,
                -0.000360615963515844,
                0.03501623861317872,
                0.07101495869238629,
                0.03309277068575422,
                -0.03663997113667676,
                0.020767744003171256,
                0.05349365693973567,
                0.08045715258566255,
                -0.07270198855890538,
                0.024755342705555457,
                -0.018910436244696842,
                -0.009619901509442261,
                0.014632639386566849,
                0.004055247540002571,
                0.04423549350637528,
                0.034519107058488985,
                0.028748709540860774,
                0.017931961362153043,
                -0.07013461339484282,
                -0.022752483814587627,
                -0.10997395363971808,
                -0.09865281426608524,
                0.02294669285145707,
                0.013969053788924999,
                -0.018360612056810985,
                0.009342687268849612,
                0.0036181233845965035,
                -0.06855463349659682,
                -0.029937542975901066,
                -0.06330731053376337,
                0.02336040400567223,
                0.018784962538635,
                0.03473685573514852,
                0.10831368764108276,
                -0.021179862698849763,
                -0.11188905083473168,
                0.11061416220178437,
                0.02440978891179644,
                -0.02602970979161369,
                0.012889606734801762,
                0.018878020634457236,
                0.03580072290083534,
                -0.025793806608567064,
                -0.03199454992492395,
                0.04378038615248375,
                0.04662210550104058,
                0.054321237422753715,
                0.021598728685608023,
                -0.05031267469097315,
                -0.03561137124521532,
                -0.03662100507112048,
                -0.049510710848550986,
                -0.044712974455485374,
                0.03472058695219618,
                0.012724247802115498,
                0.059337523188071256,
                0.028374253687781823,
                -0.002407989852463625,
                -0.023404037750203104,
                0.002502034361277208,
                0.006050517992916398,
                0.06130948361980012,
                0.02294277014993949,
                -0.13318183169380396,
                -0.04799374735817524,
                0.04574815255847063,
                -0.022410958774143813,
                -0.01280392148540744,
                0.022767494238770284,
                -0.02947203039811815,
                0.05682210382582859,
                0.023466488988680343,
                -0.03530048248685612,
                0.0138712135453386,
                -0.06940481082261181,
                0.05051846631662774,
                0.030250982929421622,
                0.013847102289573435,
                -0.03635070797268472,
                -0.05107125486975266,
                0.045608966473833404,
                -0.030807802687107446,
                0.05099809262184943,
                -0.08437573498510353,
                0.007251416500032644,
                0.0025279620160263247,
                -0.03759341831674384,
                -0.014920321276940948,
                0.003299535280724711,
                0.006351455724319047,
                -0.0336325568039131,
                0.03766055807959996,
                0.011888484097635398,
                0.030890017542654344,
                0.0302636334935578,
                0.012434354210146483,
                0.06290741212527036,
                -0.03287940564838763,
                0.042525716875242606,
                -0.07379797060859457,
                -0.00636358046403453,
                -0.005934419689391369,
                -0.03370125550615102,
                0.06650357695572565,
                0.026167813509562658,
                -0.07399452390665283,
                -0.0782879085157472,
                0.05832856435033573,
                0.06365540661499595,
                0.003051630416830426,
                0.01703944699956292,
                0.10465790614242108,
                0.03539034047365747,
                -0.01336017812071225,
                -0.12287030044811947,
                0.0428087700047533,
                0.07650145072925292,
                0.10484648590832583,
                0.024838114400565055,
                0.031133030004830354,
                0.030933838444477574,
                0.12263217917501461,
                0.033700064188747075,
                -0.04279756889399325,
                0.005010362962333005,
                -0.08931743688625791,
                -0.050662212863870154,
                -0.028527578894786354,
                -0.007600193590104429,
                -0.042311771141380704,
                -0.11547723104937853,
                -0.06721429481568154,
                -0.022124919572732306,
                0.027959266196092954,
                -0.014405158211222936,
                0.0022680746658649566,
                -0.024210746405996426,
                -0.026786587118401123,
                0.15607267033631483,
                0.013914203212950145,
                -0.007323395798980943,
                0.039838155246406465,
                0.12009835415244711,
                0.05072976284078676,
                0.021991451583469712,
                0.004480334720853398,
                0.05328716740597468,
                -0.0350471562644026,
                -0.0069603114102656195,
                0.06205953738973265,
                -0.051811197042765385,
                0.01900568490144279,
                0.0537443032429929,
                -0.00522915733079217,
                -0.05768836738225379,
                -0.059847275530574826,
                0.06509277270694588,
                -0.024788852413421842,
                0.07717432581219953,
                0.1450318951668703,
                0.047274496213557414,
                -0.04704481763970503,
                -0.03111458295324298,
                0.053401777152062645,
                0.046001793827569616,
                0.050943813752805094,
                -0.08258470449907888,
                0.016807659328971984,
                -0.005769266987951918,
                -0.007294459325761802,
                0.033036508733074926,
                0.02978141974388801,
                -0.01233422120001675,
                0.05841057873106105,
                0.010001306758247001,
                -0.021554141454833767,
                0.023369020640561577,
                -0.014118540334666715,
                -0.07286047621047409,
                -0.03473973660671844,
                -0.0017089815796104456,
                -0.047679344743810186,
                0.01735483731044497,
                -0.00860109767906027,
                0.05590919507655784,
                -0.06129478532566083,
                0.014794531770766096,
                -0.06088907590278515,
                0.08202974006698571,
                0.032178073480817415,
                -0.05508419812945096,
                -0.051803284184248656,
                -0.03479733807708223,
                0.004115979924935878,
                -0.07214855790524138,
                0.029263733180968903,
                0.07814608008877126,
                0.08418255554992075,
                -0.038572613890863625,
                0.08069951625938161,
                0.13130068676612638,
                0.05111940698269432,
                0.012471243458450153,
                0.05467795919296321,
                0.004029036281549797,
                0.03152388699652928,
                0.01815075920350173,
                -0.013804405287698196,
                -0.07716864498852323,
                0.036368039605247024,
                -0.022415262523054653,
                -0.0620637384860654,
                -0.0029695180154554845,
                0.018977744678591812,
                -0.07677567610425423,
                0.012789359523316654,
                0.0036072363052424097,
                0.028989288494329288,
                -0.0155065255153971,
                -0.058808742003897865,
                -0.04386748008370785,
                -0.026680563087662527,
                0.008315134760769746,
                -0.046964943172327224,
                -0.09687923502352602,
                0.04915060565965052,
                0.04298221730481406,
                0.00011682390016171134,
                0.08407593018592968,
                -0.00941478033756016,
                0.014276303393700314,
                0.05923885814274986,
                -0.002645773727018365,
                -0.007565256241911511,
                -0.008338052549567895,
                0.028298946850448828,
                -0.0452643783597287,
                0.018679987919835175,
                0.020985329095081863,
                0.026130774962550892,
                -0.02730880848628358,
                -0.04549774811525211,
                0.08011422849267388,
                0.030355672148046763,
                -0.027432462004915507,
                0.0024254971622988614,
                -0.010606687009389647,
                0.013942460996866213,
                0.010817405007881923,
                0.012686145643009366,
                -0.020201258336160932,
                0.07174152607803963,
                0.0320286557136511,
                -0.07652395659715437,
                -0.012567661243593264,
                -0.08598739464981005,
                -0.017248442002599843,
                -0.047037756195996434,
                -0.03342391312583476,
                -0.03618248247631207,
                0.031131261337831718,
                -0.040162491718888894,
                0.033067520216340976,
                -0.03435549406132251,
                0.0264315658959527,
                0.018792382556914185,
                0.03409648874664652,
                0.06847154334047414,
                0.008496599169129116,
                0.009418854289180469,
                0.058348757978025925,
                0.017339580020794165,
                -0.07682694763305443,
                0.05362117893200961,
                0.057989079662583536,
                0.004940471033831751,
                -0.04526705180277613,
                -0.033091395306186856,
                -0.08257207183684774,
                -0.031252296078192035,
                0.05255650074781736,
                0.01956792759046603,
                -0.09193808667612373,
                -0.05369676862122359,
                0.04633175105960307,
                -0.019354971298193524,
                0.05336951997654508,
                -0.04781984884093397,
                0.01221444732621835,
                0.02506888580185893,
                -0.0374663736539498,
                0.06441344570699276,
                -0.03321008995029804,
                -0.031818635978761424,
                0.017530984099189923,
                0.05960704743954238,
                -0.026922268774192484,
                0.06125141058773958,
                -0.007757870748110997,
                -0.023048066771808883,
                0.01521804070476287,
                -0.03010368122626844,
                0.0008185255355750571,
                -0.08183373997168872,
                0.015467702893882657,
                -0.002971946280299884,
                0.052597228604512596,
                -0.07660618809551677,
                0.08765991973399442,
                -0.06137488526604507,
                0.007725155350332936,
                -0.07066578811451707,
                -0.014355466714905759,
                -0.022515034501753056,
                0.08413697681977095,
                -0.05114725280852339,
                0.05243138531255974,
                -0.021340240386254938,
                -0.05914321823584137,
                0.013888509799548233,
                0.0036250993650507107,
                0.06821196400096491,
                -0.010487854005872845,
                0.067649677178079,
                0.05405991374929359,
                -0.009256027881346164,
                -0.026436719770502496,
                -0.013578736383675299,
                -0.02444780445026269,
                0.02362111038763457,
                0.008560289762583632,
                0.02806135559438607,
                0.061249737210397406,
                0.09766496181912919,
                -0.05016339208446388,
                0.0029905536488546206,
                0.04765499145759015,
                0.03653739824983851,
                0.06229241739396732,
                0.07041735369112014,
                0.05685284264783565,
                0.06997614735881717,
                0.0077163230338883875,
                0.08341088651890005,
                -0.09895659537485146,
                0.04138106911839139,
                0.052458744770768236,
                -0.024063036352245628,
                0.01950189735843256,
                -0.108000562525102,
                -0.026824734647875603,
                -0.009519658034570921,
                -0.0558292301633988,
                0.003687187891636178,
                -0.012291630198365858,
                0.03564321247953839,
                0.00047305381022350545,
                -0.02080698285869462,
                0.022402222039888668,
                -0.08131036089928359,
                0.030763746801809492,
                -0.00822602844083438,
                -0.10775033082289691,
                -0.002188040307533695,
                -0.05010470929382278,
                0.03934305345612707,
                -0.07580755498631195,
                -0.03855950135263688,
                0.026065401263053782,
                -0.04638166843774262,
                -0.025038322477387815,
                -0.08052553036219344,
                -0.05897644757984723,
                0.09284784794117819,
                -0.01799561782708695,
                -0.04901232809313696,
                -0.03915910333430824,
                0.007203253242987092,
                0.035453705867990626,
                0.03214294891872361,
                0.03279718140522467,
                -0.09402633415187918,
                -0.011367118181674428,
                0.04261960336814412,
                -0.01571251377745477,
                -0.023124664726615233,
                0.07473431889818608,
                -0.028267091975194693,
                0.0011481949710121283,
                -0.029465333057966114,
                0.035938229233601814,
                0.02393671399658261,
                -0.06740280319489998,
                -0.015319357233866753,
                0.06506254168009148,
                0.07149614279683952,
                0.044968051038097964,
                -0.060876315711616044,
                -0.0261219535717714,
                0.09193730827925625,
                0.012692632160941646,
                -0.0301997576531722,
                -0.042623921938640466,
                -0.04589322440490872,
                -0.039889293198744284,
                0.05584096089262173,
                -0.10202326439274154,
                -0.009357157637628887,
                -0.026301617347904756,
                0.050074181992201344,
                -0.13701689596320038,
                -0.05663788018998186,
                0.07042937159369003,
                -0.020268608966909872,
                -0.01715554145390036,
                0.01430503625037759,
                0.02936632261227341,
                -0.018006866538682925,
                -0.09599839313634068,
                0.04888100413121262,
                -0.1285039208745138,
                0.038650653551497875,
                -0.07700328151183136,
                0.0318527268099547,
                -0.01923489186775766,
                0.0611267843638966,
                -0.15203600937406653,
                0.004955026630928353,
                -0.028713203443623145,
                -0.06317736468492524,
                -0.042764241508897086,
                0.03201998468078903,
                0.02285778627550675,
                -0.04752803749879959,
                -0.001326279315535654,
                0.009161500877421267,
                -0.08207722752413847,
                0.024750016230918544,
                0.002944253028541177,
                -0.028964037404223472,
                0.021517555897527643,
                0.03870996846540024,
                0.020655061869300943,
                0.006489817170266449,
                0.07788414098015395,
                0.04742928041485751,
                -0.05642523813140222,
                0.012540600759298798,
                -0.023351989346867382,
                -0.007577497822391058,
                -0.013264246995094047,
                -0.021004862743857593,
                0.057238687184907946,
                0.035850653636768266,
                -0.03328773497749357,
                0.011002282207328618,
                0.02640317202539338,
                0.032755611873934616,
                0.0401320748273313,
                -0.01633636672677897,
                0.033182854510453816,
                -0.06110168491020727,
                0.10209653100276145,
                0.022577750951549805,
                -0.057172770289985846,
                -0.06906723623143703,
                -0.0048865860549481156,
                0.005182348178812134,
                0.04187984852811234,
                0.07920438037976092,
                0.013696587733500238,
                -0.08692642429748519,
                0.044881993518917855,
                -0.07052573903089983,
                -0.030566766439295106,
                0.011730676388445804,
                -0.07980469829762778,
                0.006620225224101338,
                -0.02557687255098996,
                -0.056160086897023724,
                -0.019535275243140224,
                -0.04648191020672729,
                -0.029059764762670314,
                -0.07358175930165434,
                0.029465573471441856,
                -0.006359233737604136,
                0.04629777081655738,
                0.12327004136868151,
                0.011435338279441088,
                -0.005460136086038141,
                -0.019639042879664878,
                0.06294858075205641,
                -0.004711494378599313,
                0.02732364823008693,
                0.00222710559160967,
                -0.008538639182712327,
                -0.0006896114148392538,
                -0.09824922258507243,
                -0.08913922825563278,
                -0.011011586909953443,
                0.08244899999211829,
                -0.0395783150560121,
                0.12456046354871707,
                -0.034536049358620494,
                -0.045963158269401116,
                -0.03226427230862966,
                -0.035965651477537386,
                0.028801041321232165,
                0.010103598706816194,
                0.03314095725056678,
                -0.01431298283697804,
                -0.03849512327644909,
                0.024289239742887294,
                0.13878945236495563,
                0.07761422722645196,
                0.08515888550108894,
                0.07079310792588463,
                -0.03182079170222453,
                0.06112601638848375,
                0.020589471839472934,
                0.025843122002970866,
                -0.00471283941611466,
                0.005015274990490175,
                -0.04291970601305617,
                -0.051032822451656086,
                -0.07688891661943717,
                -0.05627125788529814,
                0.001212077448015884,
                0.009180233641682167,
                0.053851657322759074,
                0.046595640899876674,
                0.08828833475876374,
                0.04604574679841562,
                -0.058068709986535356,
                0.031874077930860334,
                -0.052177651093771836,
                0.015415678146902288,
                -0.03697952741086214,
                -0.01718073705364382,
                0.02760034793832486,
                0.045426045397316456,
                0.09132780794605609,
                0.15246820419345222,
                -0.028736805403599956,
                0.02104382068970056,
                0.009501433589257325,
                -0.09627976690664365,
                0.0578645455204095,
                0.06436886055471765,
                -0.06771323318655839,
                -0.05317878804136072,
                -0.08040281665542326,
                -0.011860452810576072,
                0.0038261010071074905,
                -0.0016439304648165488,
                -0.050144331604954684,
                0.07961956368192644,
                0.012148547559322867,
                -0.020984955387806398,
                0.09143812793087852,
                0.06434083203951291,
                -0.01468394735873209,
                0.021032699731099187,
                0.09364029758713256,
                0.12921072743700945,
                -0.07545141335844227,
                0.03982527653426276,
                0.011726101666528793,
                0.05331342118487976,
                0.11219651105075452,
                0.015486565769166329,
                0.0221765095229036,
                0.024354452903783977,
                0.033357672136594865,
                0.024757285472134086,
                -0.04712408793173243,
                0.09983133522525237,
                0.0005103697717951161,
                0.02082626557805892,
                0.04112982221738589,
                0.03023867166253736,
                -0.024088951991153358,
                0.09676752125956825,
                0.017856899108107362,
                0.022318768794178642,
                -0.003562886099618832,
                0.024830774913789273,
                0.13023879476878172,
                0.09812954825356779,
                0.16307278292370064,
                0.0710953028882496,
                0.13444189489094793,
                0.03377525053031961,
                0.12266038772396806,
                0.02592648147244628,
                -0.03891332226174831,
                0.015855645700087486,
                0.052349100609343224,
                0.08896831035064008,
                0.0025805772719749752,
                0.0011432515211772364,
                0.06308747870482558,
                0.026463304616874215,
                0.07119908266661479,
                0.07947315732857065,
                -0.003833050017141684,
                0.004282020939761383,
                -0.020174687531522472,
                -0.06999732098657968,
                0.08140643414776724,
                -0.001700083935482831,
                -0.02075002354352105,
                -0.02579319386124334,
                -0.027409877640734773,
                -0.030984850448368965,
                0.06939034165708925,
                -0.04344069249333037,
                0.080296822758982,
                0.06900134453580431,
                0.027296489658078953,
                0.03867542251237158,
                0.01227023884777407,
                0.05181822768990058,
                0.02035581877408797,
                0.033937937882194416,
                -0.06237349384308444,
                0.04750879269835219,
                0.041014364589512596,
                0.03290950936188419,
                0.022271475283005573,
                -0.009008910673936964,
                0.0031562844606257278,
                0.005961155384143351,
                -0.025902536801662393,
                0.12408962743691472,
                -0.040080684907829886,
                -0.0773170380024492,
                0.006710365148604582,
                0.08575331057053275,
                -0.06309086216988703,
                -0.01703987169706967,
                -0.030665028071063555,
                0.030894927725500444,
                -0.014370608650925883,
                -0.028637805627752744,
                0.03593254117235043,
                -0.02263042805392446,
                0.04751701545531461,
                0.04380496323994693,
                -0.07061052919113545,
                0.03556057746149833,
                -0.0765326723389036,
                -0.0278538993233875,
                -0.05776487379955951,
                -0.00545542282362337,
                0.067447636312998,
                -0.022537367879777195,
                0.04779406713933588,
                0.022741056086459873,
                0.05164637181101098,
                -0.081553073473511,
                0.0005654948026206114,
                -0.05425541944127241,
                0.04900886311217802,
                -0.028880537064717746,
                0.04339320013312047,
                -0.0030694253717221025,
                0.02174291852955234,
                -0.04043574160435297,
                -0.04053323135911697,
                0.010038067876699704,
                -0.030979483651173062,
                0.03514645241474449,
                -0.016189693104863016,
                -0.0710108747314767,
                -0.08883527216146582,
                -0.06161262738703941,
                -0.044508946520495654,
                0.02186257026215741,
                0.008594555120518564,
                0.01447541847577666,
                0.08319486985677772,
                0.04358285593566254,
                -0.034073712032506476,
                0.038763728741774944,
                0.040265756501095304,
                0.016867954445935817,
                0.0967317493709636,
                0.050284326957677115,
                0.05245945629072022,
                -0.05538315660987871,
                0.06923636196548498,
                0.020698980589181654,
                0.021778165806029988,
                0.03770441815813238,
                -0.009744514190759924,
                -0.04927485389277423,
                -0.022925381790415502,
                0.005735220301025603,
                -0.03193330462966333,
                -0.11265229308516607,
                -0.00935273297101919,
                -0.034796116332757115,
                -0.048813296657119386,
                0.045755458744970036,
                0.11730705686945282,
                0.037491056594001766,
                -0.0608341753704389,
                0.00024652831789872995,
                -0.002811424575418538,
                -0.07026583383150788,
                -0.0071487750227320415,
                -0.037468143090374995,
                -0.028670039875767973,
                0.06955916425759302,
                0.057985032344084315,
                0.0013855748368684616,
                0.06178259083830409,
                -0.06405632007937229,
                0.07820732908064687,
                0.031683204421058944,
                0.022043805738172214,
                -0.0826266448466932,
                -0.042555557949164304,
                -0.030030650585331803,
                -0.013529307978620548,
                -0.07639808210038358,
                -0.057652484951972935,
                0.03130374579879499,
                -0.018948889011504228,
                -0.051896436975783444,
                0.050167439364237336,
                -0.0804727845859639,
                -0.020911548786455035,
                -0.03548062172958814,
                0.03761625580594801,
                0.053386463056329776,
                0.011625905514080496,
                0.012231962043985089,
                -0.005050976657911171,
                -0.07285400368695195,
                0.08883007622400518,
                0.055764971778607876,
                -0.023080876299929876,
                -0.003353408193399445,
                0.06846424398176466,
                0.023848542992274457,
                -0.04518566524517438,
                -0.01537522829236078,
                -0.07491625296233508,
                0.07356367097445135,
                0.0606341359924112,
                -0.04145193033918114,
                -0.014316767549763285,
                -0.021872768203567226,
                -0.0366459024852974,
                0.06565752338852636,
                -0.06263993740480625,
                0.11465504236985893,
                -0.012417968877348261,
                0.0924944874181835,
                -0.006235709438040769,
                -0.01318431031339483,
                -0.024829828722410744,
                -0.023039673089960952,
                0.0399572428971911,
                0.03447187751159588,
                -0.04540592650167571,
                0.008594285511819401,
                0.007105765143016894,
                0.00650493733217826,
                -0.07323888014935057,
                0.032093919405108626,
                0.007494702067353106,
                -0.020907023373861022,
                -0.013363803156310918
            ],
            [
                -0.0348195431451208,
                -0.036232601943341214,
                -0.04864063875163266,
                0.027479433117161646,
                -0.0009053421899393529,
                0.046770036544938665,
                0.05615033904459153,
                0.009142917566557409,
                -0.07491688294904036,
                0.027099466760580723,
                0.017080711261068145,
                -0.054197104601157294,
                -0.009101063877797176,
                -0.035810596119127354,
                -0.017963169779883284,
                -0.10682024569996112,
                -0.0530367334783139,
                -0.06383224363649727,
                0.0265811925977298,
                -0.09761396380880846,
                0.06531104862323023,
                -0.04063647654984723,
                -0.011807096836687066,
                0.04360266827279023,
                0.021252977350798036,
                0.00604479477403887,
                -0.005359820610087077,
                0.012385533510866813,
                -0.015549892637272838,
                0.0016006692240391075,
                0.11086985955368168,
                -0.049332955615871504,
                -0.02377570925599663,
                -0.05923402053745563,
                0.043014496549443455,
                -0.018120870308310732,
                -0.026701031254696993,
                0.0002871169184254114,
                -0.061198219495896114,
                -0.07184874945323681,
                -0.042578936058423444,
                -0.011519212010310899,
                0.0012322172283264735,
                0.014457774744501255,
                -0.03967652421574869,
                -0.03490200362374501,
                -0.009912450700296156,
                -0.09731181412826871,
                0.041300849313334734,
                0.04110066345203366,
                0.06529815532489425,
                -0.04609027175844246,
                0.07072433467675583,
                -0.023540286243934595,
                -0.026520216937211155,
                0.06227242978174559,
                -0.0737488228698394,
                0.01904950221355922,
                -0.022490726677679033,
                -0.013290038647112186,
                -0.012710397694674714,
                -0.04075019256083683,
                -0.012581420892491828,
                -0.021758817268972122,
                -0.02909845534296387,
                -0.020184675918852583,
                -0.03799263485714011,
                0.0143980585599969,
                0.03335699241158144,
                -0.0505217881614612,
                -0.0020042750134698717,
                0.043473466979548875,
                0.017633121441038485,
                -0.002767861776499849,
                0.005808150402643566,
                0.001212367016252655,
                0.018491918918362483,
                0.041204358080314,
                0.11201609576139887,
                -0.0497109007439586,
                0.011853563506193682,
                0.07364395952038943,
                0.03844824922734178,
                0.0873227153259037,
                0.10548118301214655,
                -0.019446190550861355,
                -0.010267510408081361,
                0.042472499470191404,
                0.07259997998727115,
                0.004065624935488154,
                0.028825113844050527,
                0.009650542544970431,
                -0.04867261542007673,
                -0.07489201176944993,
                -0.04432297919524978,
                -0.04676634033453853,
                0.01952861264192572,
                0.04651443699594994,
                -0.006101714765323653,
                0.03926164754490137,
                -0.02282653383623765,
                0.030641239523673664,
                -0.03869251960391969,
                0.035223390737809036,
                0.06899153555707827,
                0.0767803340965866,
                -0.04080918248014439,
                -0.014835001519312663,
                -0.104310706051489,
                0.0932605368749025,
                -0.07853981336550848,
                -0.061471708654752606,
                -0.06814723805658245,
                -0.013299963348593541,
                0.05379192912857101,
                0.010674431732927711,
                -0.032185261232800785,
                0.08241656193882882,
                0.012872878050722446,
                0.030881570021322743,
                -0.09107471256368738,
                0.0015189560522427972,
                -0.03278641889101987,
                0.0037728685983116,
                -0.06590693075489153,
                -0.0006422276244529014,
                -0.09814581528167102,
                -0.11764190313022439,
                0.0587971756963196,
                0.04025097910118268,
                0.04287375033443566,
                0.027546372726036928,
                0.019971912648016375,
                -0.034447862201630916,
                0.07144407187811257,
                0.07419206660895855,
                0.009908930425252564,
                -0.033719447112782276,
                0.037418896003420056,
                0.006309842943886678,
                0.003554696095395252,
                0.04272159907742094,
                -0.04993851272560304,
                -0.0037031175331972716,
                -0.01855362160247781,
                -0.006757627832780752,
                0.059850944663314073,
                0.08236355815621847,
                0.032049685155194456,
                0.04336131086182559,
                -0.000627381706006543,
                0.005006473239027511,
                0.09351698419543962,
                0.001710007395837364,
                0.0013534344861094582,
                0.08753907741256366,
                -0.007355921410941911,
                -0.08889947379930908,
                0.005106484958813302,
                -0.030448031670185473,
                -0.09020423027639454,
                -0.04633678212580357,
                0.002924997331803973,
                -0.04010640199006981,
                -0.015642532627045024,
                0.06934366328489451,
                0.029559515408195115,
                -0.09311102978425087,
                0.07188165871961631,
                -0.06919933318375157,
                -0.009024614472266327,
                0.02853235767738185,
                0.028819999553168166,
                -0.060437259113689336,
                -0.06943338749830864,
                -0.025824816988620557,
                -0.02511249315674117,
                0.022986444621434246,
                -0.028275261860131837,
                0.03982882430108132,
                0.028518930633499643,
                0.06348665145105363,
                0.08045519730503764,
                0.0018067412987410967,
                -0.038906977535107426,
                0.08749767679680927,
                0.030956655338602524,
                0.0018097284317734746,
                -0.07744873900456696,
                0.08722384181483894,
                -0.07719902552046443,
                0.07159071476188053,
                -0.09458067166457217,
                -0.13280588552997946,
                0.030348875187792366,
                -0.0959638813804767,
                0.006620402218922361,
                -0.046231359472996114,
                0.03235616174412196,
                -0.009445574029661633,
                -0.04171876222853673,
                0.0211330970237743,
                0.03705711335879078,
                0.005028328398007672,
                -0.003242350033105688,
                0.007400099595670525,
                0.04756616885193179,
                0.09466268699703616,
                0.11001488200609608,
                -0.10425361892481087,
                0.13718763221348906,
                0.011462563217367274,
                -0.029671752962088113,
                0.052475845273984384,
                0.08288107189097456,
                -0.05800704913135456,
                -0.0033958215594800355,
                0.08792361012586,
                0.04910741992781903,
                -0.05554635620393707,
                -0.026463256217097074,
                -0.012940339940368594,
                -0.07083548697227222,
                -0.08117538415981475,
                0.004133780413714696,
                0.022930515417312596,
                0.048794842657095785,
                -0.02190274208396841,
                0.038233512266022555,
                0.03126378649341304,
                0.12448358055922792,
                0.01644333887348897,
                -0.0022590514295270786,
                -0.04687370296736661,
                0.0872775340285633,
                -0.03770301769116965,
                -0.001073683422764269,
                -0.04511292434753878,
                0.008058894790216512,
                0.03844620056458166,
                0.02869651696295535,
                0.028650310342488727,
                0.004780021004787398,
                0.09148680290449038,
                -0.02932101859834121,
                -0.03502037366754416,
                0.0608220886819101,
                -0.007034121556102961,
                0.006185897031728291,
                0.048499817256631085,
                0.047499712699011994,
                -0.03268368559144474,
                -0.01830916682062554,
                0.11282005263080136,
                -0.08433764977608901,
                -0.02761885938400587,
                0.04234119378638823,
                0.047978838193180114,
                0.014375892781106408,
                -0.01924623725092257,
                -0.026333015031989624,
                -0.11672979495271366,
                -0.06439737062177539,
                0.014791327733005764,
                0.008931041415429867,
                -0.06944742325545687,
                0.07738279007927788,
                -0.05558253839285831,
                0.047661942426381415,
                -0.004972689421736483,
                -0.00657558377099446,
                0.038952505973942335,
                0.02301676132880852,
                -0.026685131283376008,
                -0.015306109706460791,
                0.0163116254338029,
                -0.000847522322302998,
                0.007537404484930182,
                -0.03800050055132357,
                0.07014422055315217,
                0.0019837921137260046,
                -0.06963571980764487,
                0.0012164440283361899,
