[
    [
        [
            [
                0.033152528720206055,
                -0.024614225491861173,
                -0.010521020068995843,
                -0.1046915432774872,
                0.02225351099406372,
                0.07797183786362753,
                -0.04607090579493204,
                0.16144615607878243,
                0.1236277325374471,
                0.0725985432980303,
                0.015707869529489875,
                -0.0025667767478250413,
                -0.013933486481513463,
                0.17479460882727468,
                -0.01725561553122034,
                -0.013618839549438823,
                0.006863693631516778,
                -0.03495924533309082,
                0.007411988147027902,
                0.05031290246210385,
                -0.03527145868732917,
                0.03694181825675856,
                0.04360450520006542,
                0.06275592248167748,
                -0.0758523865497149,
                0.008486274822494394,
                -0.03840782711765886,
                -0.010125422661274953,
                -0.10902731003544491,
                0.006511200522868243,
                0.008881143232979895,
                0.018712807405197856,
                -0.05594797191682667,
                0.058903606589986675,
                -0.04639621132217054,
                -0.0025121908795478595,
                0.06451605347998292,
                -0.027481310018426724,
                -0.07605176255911764,
                0.020628068725907535,
                0.05966408865885095,
                0.07012381334660689,
                -0.009093144563537268,
                0.020300851436157893,
                -0.0703197034220672,
                0.030470862954951727,
                -0.029989579922201748,
                -0.09464813560208066,
                -0.07052162176776151,
                0.007481402268338809,
                -0.046136487513015106,
                -0.047155387878574664,
                -0.03556038970275635,
                -0.04357674179859935,
                0.015023157263476906,
                -0.013058323621564165,
                -0.015197062122522203,
                0.03198535843563784,
                0.02837651663744666,
                -0.012678384071653647,
                -0.10307494767733469,
                -0.005492731145348397,
                -0.0017905653745113458,
                -0.03012806552355925,
                0.06964666822940098,
                -0.009001147802522697,
                -0.006625468899197481,
                0.04426317624051343,
                0.10304302531813439,
                -0.06031087994011335,
                0.05890957088523325,
                0.022303915326828506,
                -0.018401790044633014,
                -0.047401623663985516,
                0.01208428699371246,
                -0.008636786412143842,
                -0.04793804722189054,
                -0.08344136038479542,
                -0.027887272857791877,
                -0.08790655732607512,
                -0.12608148847945896,
                0.09105633725543835,
                -0.011390353750908147,
                -0.01362395528011367,
                0.017723673480557152,
                0.09463080876121545,
                -0.011822384086095348,
                0.012314478039484086,
                0.039374746980548034,
                0.002689260173747527,
                -0.024937114862268975,
                -0.05702597497231296,
                0.025396180743287877,
                -0.1083659144651848,
                0.025996980581559435,
                -0.04927357741099229,
                0.018834426677961924,
                -0.020971853061244355,
                0.02364371355985832,
                0.09066473316115653,
                -0.016992295357441196,
                0.05316745656787205,
                -0.0275214375192788,
                0.05011726678250882,
                0.0018316011391166466,
                0.000867474071655754,
                -0.04183409591702565,
                -0.07360834271233142,
                -0.009664571248121121,
                -0.013622534087465063,
                -0.02230172878118787,
                0.06278899362945961,
                -0.07851700476328387,
                -0.11864292465979251,
                -0.011303520663983734,
                -0.05348473291827709,
                0.05476670618880386,
                -0.022590585601893632,
                0.06697183129178211,
                0.052850411727742186,
                0.05148302446225717,
                -0.03608559652374213,
                -0.06525237851271257,
                0.06539151968453447,
                0.024943260937873146,
                0.05995216399165379,
                -0.07239939828751477,
                0.08782294440872113,
                -0.012171021231720725,
                -0.0399979188544037,
                -0.011547188503036864,
                -0.022920329511845902,
                -0.047792111095639286,
                0.047070336546701244,
                -0.0030403023636501074,
                -0.0578316371032701,
                0.032970611717570986,
                0.04822263270158611,
                -0.10960528043348575,
                0.006402622709499672,
                0.07096889784882589,
                -0.014861988346463647,
                -0.023026288930344665,
                -0.023910568327694188,
                -0.08792787259565463,
                -0.09130633682393681,
                0.01966392299552573,
                0.020515247440046694,
                0.02395335837817495,
                0.025063862645413028,
                0.02994767280516967,
                0.03174688152242747,
                0.16001228688264962,
                -0.01087608176269076,
                -0.023000874374765196,
                -0.05032312673452865,
                0.16986580299420112,
                0.04416055368886921,
                0.09708916709626232,
                0.06826042651131785,
                -0.0470426097627817,
                -0.007073738169685833,
                -0.054961189247939204,
                0.04312870260174941,
                -0.030882115736474654,
                0.036982595068970406,
                0.0017085567256645902,
                -0.044375845694539645,
                -0.011359289034342626,
                0.02496925237341589,
                0.03616581363497292,
                0.02019750757057104,
                0.035972079698693676,
                0.09221033609859769,
                0.03180238246416399,
                -0.08118790488903525,
                0.01871381510953533,
                0.034381550513325934,
                -0.027037692187102877,
                -0.016622153389906896,
                0.09656034005311094,
                0.05369584690948083,
                -0.005228881890467649,
                0.09019047715570039,
                0.07065326045829949,
                -0.04184302020303437,
                0.024230725073470447,
                0.009539437134163943,
                -0.03353565938494869,
                -0.07576772058210135,
                -0.0030558779010086356,
                -0.09096350556255267,
                -0.047186361638761096,
                0.015102178695236456,
                -0.008240605325938849,
                0.025799794065851343,
                -0.005601511930202795,
                0.005122785761785933,
                -0.038971669733415745,
                -0.05135092214261371,
                -0.005788125475535665,
                -0.04665107366413821,
                0.019477031502316413,
                0.04608783479140779,
                -0.08392746952339869,
                0.014204949845540688,
                0.047535900345219165,
                -0.03868649039867153,
                -0.0038809554245157374,
                0.014411167183426027,
                0.05064528286824852,
                0.00013607995399813109,
                -0.10324743468673128,
                0.016970228536324766,
                -0.02414350265582312,
                0.04948888400929177,
                -0.004896300532688192,
                0.06163595009245159,
                -0.0197002775552626,
                0.01935639103788706,
                -0.07643631568270362,
                0.0018095617438813724,
                0.023749348830635026,
                -0.05371374740706179,
                -0.05961981918985344,
                -0.013643894919626448,
                -0.0027451018450776457,
                -0.16476695548384104,
                -0.04486782397735594,
                0.04357889317412473,
                0.050750521951737744,
                -0.043781676241327804,
                0.04494902018840028,
                0.01867185591183022,
                -0.013875010095632101,
                0.028303292288363643,
                -0.06687806848672609,
                0.10116221306724486,
                0.016337732813737602,
                0.0017297592168192104,
                0.010078151054374856,
                0.06047479848381921,
                0.06013690280149695,
                -0.043921372844414816,
                0.023735223263513724,
                -0.07008871015446465,
                0.04515596298956842,
                0.056665479681352486,
                0.053970256230789555,
                0.06203807259942377,
                0.024204058816745005,
                -0.036773241784755044,
                0.058884991914936444,
                -0.011463360609491016,
                -0.021635363794160034,
                -0.027012141472013678,
                0.016674148026476043,
                0.003981896889270738,
                0.0013124802794315436,
                0.12070397996234701,
                -0.007942125323151987,
                0.06917603831163634,
                0.015811507645465107,
                -0.024479588658872897,
                0.007171674727407623,
                -0.015695019840089013,
                -0.016597606312398875,
                -0.04133259624658667,
                -0.03890745478414252,
                -0.041799678622092884,
                0.03951297701126119,
                -0.027569942920147264,
                0.06124129616630353,
                0.07438099104743301,
                0.008440110553042019,
                0.07243867199836508,
                0.0046403479899998525,
                -0.03338373439811598,
                -0.012535133457931738,
                -0.01648449054878625,
                -0.045737318237164586,
                0.022677257885433653,
                0.05998837907841725,
                -0.03797483146402542,
                0.009240467783834472,
                -0.008333361287187412,
                -0.02309896222632114,
                -0.012366094669374914,
                0.013421910578153314,
                -0.039295605917209556,
                0.029039704637085186,
                0.0717494721183956,
                0.14937168054986574,
                0.039909762539660755,
                -0.004824372314584586,
                -0.033976417307622686,
                0.01927769721347921,
                -0.05053967007232417,
                -0.055054724338119684,
                0.023957353949866,
                -0.031813797234918346,
                0.029810901235976676,
                0.07407489179419394,
                0.055442937150847645,
                -0.09280215126921888,
                0.022604709523361993,
                -0.034644957107670626,
                -0.07563666412337458,
                0.03488267732275831,
                0.010175338756792362,
                0.0066174290096036705,
                0.06081487669286488,
                -0.014705657791149242,
                0.058338283484292194,
                -0.007504602030974432,
                -0.061221828133139596,
                -0.009274463243182655,
                0.013349148905382158,
                0.001571740640773022,
                -0.06817429077291995,
                0.06798675252462344,
                0.02060191926170173,
                -0.008589769989209383,
                -0.031782000712034714,
                0.013386826013396207,
                0.04861016983199263,
                -0.05306082754892511,
                -0.04987235546803088,
                0.058369649757324366,
                0.012433353423385035,
                0.02021610203414865,
                0.010743751012274337,
                -0.03929096885278317,
                -0.011556764076196123,
                -0.08771355520979564,
                0.04180312789643468,
                -0.0455707134083873,
                -0.08507243003109569,
                -0.013406024592568273,
                0.06694842828964825,
                0.024972108085831866,
                -0.016731134063977967,
                -0.11074857661037849,
                0.054486827088438834,
                -0.04972834078930275,
                0.030250891251623124,
                0.02012729922900189,
                -0.019393214509418777,
                0.04748645047927153,
                -0.049829611403311755,
                0.03209344214721746,
                0.08860781633992995,
                0.10980814901980959,
                -0.032089080534932646,
                0.024329098695328757,
                0.03720944347594168,
                0.01911781902230355,
                -0.018826668331060076,
                0.10096935485802297,
                -0.011970080870996096,
                0.005876381671915959,
                -0.0022199742691714763,
                0.04326787409482623,
                -0.06563623416724593,
                -0.09650536520098935,
                0.0008901415039049273,
                0.0711380107235429,
                -0.027590135013242575,
                -0.05127211231230274,
                -0.005082978410764493,
                -0.08076762211219388,
                -0.03734410014959206,
                0.0434955727709766,
                -0.017891597561899744,
                0.014434009801190681,
                -0.0818442225669657,
                0.002911013416511451,
                -0.0006575746510215807,
                0.07120579102293478,
                -0.024623614833099505,
                -0.055460570003473694,
                -0.054236435917549765,
                -0.06004553836454964,
                -0.011356544902186134,
                -0.024127998508245572,
                0.010970590484759632,
                0.0030689161751324577,
                -0.027576427327552316,
                0.04768114575619998,
                0.034292373037103724,
                0.017488264137447966,
                0.05125360354654492,
                -0.057757259386901696,
                -0.028885013261163897,
                0.03423941954368466,
                -0.07506028077320495,
                0.162123896656356,
                0.06024106106770313,
                0.026661822566612134,
                0.07033154356377698,
                -0.06343217570402128,
                -0.02687675927442183,
                0.01774534689454622,
                -0.08230949712709389,
                0.03558352792137888,
                -0.06314062881268191,
                -0.10305879612693691,
                0.061699707920671386,
                -0.11086517894133664,
                0.027607041365250457,
                -0.07890723324317177,
                0.04075731194318613,
                0.03706340577684298,
                -0.02215550452133119,
                0.02285000524108392,
                -0.005126238876264196,
                -0.017337860322037116,
                -0.050523357768849815,
                -0.04310608554368795,
                0.052345025622795555,
                -0.05698756988788577,
                -0.011354993750173412,
                0.03981087444051473,
                0.0655163042384379,
                -0.02954822827042087,
                -0.008305447069916833,
                -0.07596248800849457,
                -0.025283534908266483,
                -0.020135792863185224,
                -0.002823491009178879,
                0.03722096992395397,
                0.004747722050997604,
                -0.027765240698972512,
                -0.046788602224963845,
                -0.09166389879276549,
                -0.03921665628818862,
                0.027147638979179975,
                0.01346740193031639,
                0.01497004099979521,
                -0.06126720655526649,
                -0.0971905607499049,
                -0.09525540989731764,
                -0.01355267346813987,
                0.04634143421913565,
                0.06841114428769703,
                -0.06896486963928807,
                0.0582292801718111,
                0.03415102652130166,
                0.006506829208496755,
                0.05899319183811991,
                0.023943783638338947,
                -0.021806221179814393,
                0.03249154568713896,
                -0.008289953450878882,
                -0.0724992683979369,
                -0.0637485529486874,
                -0.05661166034870489,
                -0.05872102112197904,
                -0.05458353919419627,
                0.016680056750796195,
                -0.06003100419331347,
                0.13809084655751602,
                -0.05000493032859863,
                -0.07880171618101425,
                0.05186453489508405,
                0.00440048988855061,
                0.018543281805574213,
                0.06023851262155295,
                0.011554932913229473,
                0.05578621585229865,
                -0.022342469297209032,
                0.04559160170332642,
                0.02895708909218936,
                0.09129308191336587,
                -0.0939086633591909,
                0.031227906136787133,
                -0.07706646347517691,
                -0.013822912408053393,
                0.06633917858933117,
                0.04729437872318696,
                -0.032908469856626224,
                -0.03058062870284358,
                0.1138849703446442,
                0.010630299163749779,
                0.11068254540960144,
                0.013405725679553716,
                -0.03690047162221757,
                0.009420474471979657,
                0.0498204491096453,
                -0.025050114603655502,
                0.003786507385664052,
                -0.03405722541314472,
                -0.06126912589330301,
                -0.041421236838492435,
                0.015244124351553317,
                0.060343147798904206,
                -0.09305268093800169,
                0.06247192148448813,
                0.02087847238615601,
                -0.019241779807769747,
                0.045905962190964426,
                0.07026311723249554,
                -0.04649971943719476,
                0.009686179129319366,
                -0.005756218886696123,
                0.005163312612054602,
                0.0014931394280142173,
                -0.03795662426573437,
                0.04708691445588359,
                0.0031773378747891523,
                0.029955088706330343,
                -0.051982767426597735,
                0.001737966486661003,
                0.12036307814170397,
                -0.04938662606974685,
                -0.04436376150167656,
                -0.04836517016337664,
                -0.10032362302715896,
                0.04720462539727505,
                -0.018086524712547715,
                -0.10317005652220161,
                0.027657100055605906,
                -0.09322545681663669,
                -0.03534571963932689,
                -0.002829095508556378,
                -0.007121451425515782,
                -0.037108243595883245,
                0.03522681650845394,
                0.07047748134797349,
                0.011876096085627261,
                -0.11431004363595812,
                0.03303452870138634,
                -0.0421610233639177,
                0.06154160606218599,
                -0.03132179537405887,
                -0.07557989470101407,
                -0.07413323332424168,
                -0.0032818546914513886,
                -0.10024690980032527,
                0.03033247953762468,
                -0.0281566496349875,
                0.11048798191393366,
                0.006715162085306155,
                0.036544966007462126,
                0.06174933088338974,
                -0.00476011872008629,
                -0.03808235417613827,
                0.02262034924999456,
                0.0293475664178749,
                0.06602369753882156,
                0.03659417866139168,
                -0.06415872139160751,
                0.12156972213268392,
                -0.03754198895904941,
                -0.042905171670101945,
                -0.0023434232686169263,
                -0.004152493399048936,
                0.050856078996262925,
                -0.025039115344760898,
                0.0738402992775033,
                0.043677978229271074,
                0.034917156102752055,
                0.013739467929200135,
                0.019112213777981907,
                -0.06810398379547795,
                0.12313178374423524,
                -0.022223220878055613,
                0.12130147050468884,
                0.007174730408745354,
                -0.051294869145315926,
                -0.02580737266282415,
                -0.08647888091365862,
                0.13704050577282834,
                0.086373554632022,
                -0.04597751514908896,
                -0.04836478163391052,
                0.024711723128324252,
                0.06727920069536132,
                0.04697976183158237,
                0.042753157781019735,
                -0.0030638590428826687,
                0.05884516880024209,
                -0.02506784198332255,
                0.05760895230317857,
                -0.0002526943920045449,
                0.021048649777091998,
                0.023437486268605746,
                0.005006364789631356,
                -0.027620657923778956,
                -0.05196176861458091,
                0.019016149273876178,
                -0.07610461857448064,
                -0.0010062772877063887,
                0.09164032573291922,
                0.04298164356763262,
                0.0073330767828482125,
                -0.005719382876825708,
                -0.0641734159729353,
                0.021264307393327773,
                0.05062246692121412,
                0.07436376334801535,
                -0.043346701758942834,
                0.021916449569630434,
                -0.010087957267495937,
                -0.011828586073681379,
                0.1300256892339277,
                -0.06546730599125912,
                0.013584474194297627,
                0.020204978269916435,
                0.038341884888281684,
                0.05675073164225025,
                -0.04307039548301092,
                -0.029977679121925217,
                0.03821352861477804,
                -0.11456314354725974,
                0.02421610400516425,
                -0.057832020258688006,
                0.020886330195125195,
                0.014890423660584072,
                0.025429475145661084,
                0.020115127547447355,
                -0.004153366174724048,
                0.01970682286612549,
                0.10144243460190755,
                0.08462221789191184,
                0.18332612786185876,
                0.014596571695432565,
                0.02554022333161086,
                0.05390827515375153,
                0.06152223134308921,
                0.03488281808421385,
                0.04362123912625791,
                -0.02748042709461873,
                0.03303997236562824,
                0.010735589554813777,
                -0.04377315386282216,
                -0.015298972689119963,
                -0.06878641282236982,
                0.012970474959676131,
                -0.020959233970396524,
                -0.02799468724933445,
                0.05096735338811235,
                0.04645638548067889,
                -0.01175588100886369,
                0.022368392479216615,
                0.08558953876224121,
                -0.008499696137045161,
                0.12284065520881379,
                -0.05182782242840116,
                -0.04070831930357932,
                -0.00851577977725442,
                0.079932583393864,
                0.02289299374104173,
                -0.02479806849480021,
                -0.012277264037131629,
                -0.001381739903452277,
                0.011175080183673733,
                0.10195042787999205,
                0.0363020224903713,
                0.015433714924461016,
                0.12224009295905128,
                0.07201075068117652,
                -0.010043401485577995,
                -0.04766266592995884,
                -0.010340731878282246,
                -0.0033796568304443877,
                -0.06922844468237623,
                -0.06721423483372273,
                0.06562638104001002,
                -0.0942654399350287,
                0.03580830634921248,
                -0.016286770546976706,
                -0.02805116506256129,
                0.025147981658175875,
                -0.04132272909834109,
                0.05777814866918542,
                0.06474238454345811,
                -0.03259357818287712,
                0.016127415761136462,
                0.05778974680038654,
                0.024140983434703982,
                0.004384867710966184,
                0.05938473321034111,
                0.026939979286080388,
                -0.024213767009366963,
                0.05306630211713815,
                0.03109925723115026,
                0.08523926563656488,
                0.03725419784399457,
                -0.030452244779075092,
                0.019305935156267877,
                0.07899085969444013,
                0.06404099470051891,
                0.019602642076816706,
                0.05230985155021318,
                0.0907809216695086,
                0.01620174301200011,
                -0.04642336913679815,
                0.020663887403707143,
                0.050801792981977685,
                0.04226733758002242,
                -0.027308529024652403,
                0.032244823475254675,
                0.0016234463709310734,
                -0.007730490346757763,
                0.07846673791867723,
                0.0949901441252996,
                -0.012846121917002382,
                -0.06136925248164294,
                -0.007279877416070262,
                0.0070822458612025616,
                0.0027844195426129908,
                0.08420034087738833,
                0.03359733752042011,
                0.0028161022436283133,
                0.03071814430700792,
                -0.050445778791303214,
                -0.08357240451513878,
                -0.03254899834559626,
                0.0788166519659617,
                -0.05911343833983888,
                -0.007827316696176055,
                -0.009375961546392692,
                0.03406189625371197,
                -0.014226956420376092,
                -0.07849988824191924,
                -0.04644865662997442,
                -0.016227414850647562,
                -0.025113135091910318,
                0.05439414301902766,
                0.039572624457482164,
                0.05544575957806091,
                0.0306362367952326,
                0.045636181595579695,
                -0.04089168373378172,
                -0.013900232095467988,
                0.012926761260841739,
                -0.016637082328803524,
                0.04413432498974686,
                0.051735003559588495,
                0.048117360336768174,
                0.024359511921014074,
                0.03290382481275777,
                -0.005686427428704941,
                0.016400669017259714,
                0.016928867561508763,
                0.06456524532417586,
                0.03514644842434552,
                0.05869823376548537,
                -0.029100804762659558,
                0.04601393370465069,
                -0.017921456000271365,
                0.0028241404836073245,
                -0.004638809341654001,
                -0.0268022559788407,
                -0.04996278649585576,
                0.1029927786702181,
                -0.014207244041355198,
                0.05768154245863711,
                0.061657625485466994,
                0.05085349183236526,
                0.03073026303860421,
                -0.015792097379537552,
                0.004557110904418437,
                0.009636476539430127,
                0.0747963895534792,
                -0.016575460968137248,
                0.018597350072068083,
                -0.03257554746869205,
                -0.09074426397767722,
                -0.04174515704372294,
                -0.019671365154168723,
                0.01142392931014348,
                0.012584231143823277,
                0.09815117087733834,
                0.11220612271573319,
                0.059988641219992644,
                -0.03607687910814735,
                -0.06454876542492528,
                0.06369963874528392,
                -0.028481969841053,
                -0.0032458858944374508,
                -0.01337604328461437,
                -0.0380017682291197
            ],
            [
                -0.06233675051660155,
                -0.04063756720488275,
                0.060387928278052276,
                0.02137193224127195,
                -0.016990250260542954,
                0.07534263989437068,
                -0.02697586869817138,
                -0.035174860343773644,
                -0.005809874661374528,
                -0.018200678846424734,
                0.047297330762211216,
                0.04176270497457841,
                0.0411275795495043,
                0.005127271830504032,
                -0.0016809978592392586,
                -0.14522563884029988,
                -0.0638389966221058,
                -0.05587088706453654,
                0.00379960705254234,
                0.02984666010351882,
                0.02287757088145332,
                -0.003113258175082315,
                -0.017079840482540104,
                -0.018952341972498617,
                0.07594290646589695,
                -0.0017942323131840906,
                0.026739727378140635,
                0.01112304556921704,
                -0.028515709736173827,
                -0.07716717060906751,
                -0.07495666696055524,
                0.06684882974881587,
                -0.031058146701229944,
                -0.003382493519328896,
                0.08104896220282916,
                -0.08466585025617984,
                -0.021301186722713836,
                -0.08356560209367217,
                -0.07959258252385458,
                -0.006524479277691353,
                0.06294525204104902,
                0.11391385744218628,
                0.0134265859824054,
                -0.06403742715256608,
                -0.01961267616928021,
                0.06657755640965238,
                0.0642103671002133,
                0.047186451972585766,
                0.09812278889293763,
                -0.03862071844333645,
                -0.011382500144655134,
                -0.05471496013248082,
                0.016559500355015563,
                0.024183181758501763,
                0.016644510500170618,
                0.07744954311777007,
                -0.0277275806613278,
                0.07606157754514002,
                0.006305739456369112,
                0.007013680964617857,
                -0.02836464787817595,
                0.0681296454508155,
                -0.044057218220534496,
                0.0010291057404932377,
                -0.037766079823807266,
                -0.15414417597888308,
                0.04345830162421277,
                -0.05533641499450961,
                -0.0637931466504558,
                0.002600884361476935,
                0.01042752936159477,
                -0.024542812143337974,
                0.01701149786846431,
                -0.025368427869055108,
                -0.03853375004966231,
                -0.07733058954977576,
                -0.06855743189302904,
                -0.010746418261667029,
                -0.0034395710830137987,
                0.02661157397909316,
                0.015908221583545344,
                -0.13093279293832977,
                0.08464244407354983,
                0.011777938839545398,
                -0.02927455448685347,
                0.07017135714555202,
                0.04549364056719527,
                0.023881896895355966,
                0.05431785774948729,
                0.0033238389450348715,
                0.01830099184092742,
                -0.009650953917241384,
                0.045163538564841246,
                -0.03866040816507147,
                -0.026134921762269437,
                -0.03920116069826445,
                0.0014030534076173724,
                0.0781848576967587,
                -0.06057021187870563,
                0.04369055921016189,
                -0.05644196703444129,
                -0.03438259383323098,
                0.03272425824874421,
                -0.004276949277954281,
                0.012877713095280798,
                0.04330580953038691,
                -0.029061791020039453,
                0.040067673636517705,
                -0.008074669878370674,
                0.012898701927716954,
                -0.01604035881782316,
                -0.003661710578668656,
                0.021229457472700816,
                0.01639947370552488,
                0.015936135057018994,
                0.020643165260410885,
                0.017747701987722415,
                -0.0009697596929491451,
                -0.06005564598616848,
                0.06994090562990063,
                -0.011453734760685834,
                0.04364810437030581,
                -0.031056266005675803,
                0.012697161872752456,
                -0.03045542422520406,
                -0.021113606872015873,
                -0.03915264865648506,
                0.11313903964110922,
                0.09920042008315197,
                0.027209825774544612,
                0.040186234283108094,
                -0.006818789448429135,
                0.06299741555036346,
                -0.025960577845418324,
                -0.029096684577385144,
                -0.06050091828255641,
                -0.01841069537778328,
                -0.01580610498210042,
                -0.07507552590177088,
                -0.0281443509654756,
                0.07642388834564008,
                -0.04870456708021521,
                0.06834849633306982,
                -0.014757036191190792,
                -0.045747264737082925,
                -0.02812760048015808,
                0.05566750167934041,
                0.13857997154624885,
                -0.01865250690996968,
                0.01314732219843035,
                0.0070214583633879755,
                -0.005413091706113216,
                0.04772575493150802,
                0.06346995802089385,
                0.03633311683930365,
                0.04005464390822783,
                0.062280387110735566,
                -0.008207617833044582,
                0.0464570666188361,
                0.004651410426127863,
                -0.06919720334836023,
                0.009269902653431103,
                0.04217966121845716,
                -0.01636291588696722,
                -0.06948914821117318,
                0.03376517999509127,
                0.017398504104321307,
                0.028487835833895248,
                -0.013917397900665133,
                -0.02949945969058422,
                -0.05083211735641764,
                -0.02811101084302882,
                -0.019004150726556278,
                0.08142268140292806,
                0.004927963231509111,
                -0.14879521505140372,
                0.02521054520035811,
                0.04142665483782458,
                0.00792704754648555,
                0.08589457366733701,
                0.03675269636574991,
                0.10372872379342771,
                0.0018631697487851689,
                0.07469729206236769,
                0.03772358675815119,
                0.15764645262570254,
                0.08826213607412747,
                -0.014816598825431538,
                0.03951771658103378,
                0.059236041873856886,
                -0.0707981002373239,
                -0.050621654470727195,
                0.10325458335507438,
                0.10895969438825873,
                -0.021133082928224755,
                0.033175468005224557,
                -0.08226924826068456,
                -0.06382956359074163,
                -0.032281320783530146,
                0.03181964692089155,
                -0.0215248242187822,
                -0.02094282666039299,
                0.014959370303673142,
                -0.031147242518501272,
                0.013970145949476181,
                -0.017930593747232743,
                -0.06815134281644193,
                0.06086462673930655,
                -0.0022119370245784996,
                0.10896984449834153,
                0.10781239357698279,
                0.09974615407527297,
                0.12190256587394119,
                0.15513884954363907,
                -0.0023503161739531577,
                0.0014245514892296935,
                -0.057253932464891355,
                0.032452486698165604,
                0.0532494358935216,
                -0.03813727281514188,
                -0.02483343221062607,
                0.056401636901615544,
                0.009471924055182674,
                0.017709349268315203,
                -0.015607063824557987,
                0.009642056266467795,
                -0.014070482653893648,
                -0.025393212741667684,
                -0.0696530207288341,
                -0.029630697786818767,
                -0.0697092189352812,
                0.013484702973864168,
                -0.056972434184444726,
                -0.07962729450868575,
                0.02139030192978231,
                0.06380600039499526,
                0.000267418434688497,
                -0.02294051510171499,
                0.021300357453484506,
                0.07515323492804958,
                0.03688738836299267,
                0.052695673030073574,
                0.05468042327352925,
                -0.04452452313186219,
                0.010118341444119014,
                -0.02236423383217416,
                0.01979346557366401,
                0.022909441593731875,
                0.012141406634665342,
                0.0076503597741120625,
                0.044590363682290454,
                -0.04479276052490087,
                -0.08351870560315693,
                -0.022037650225426548,
                0.05577426543483066,
                0.01658588408949039,
                -0.03437974135524063,
                0.06176925653015214,
                -0.04163292683059444,
                0.1156428281443495,
                0.0788545212067003,
                -0.01685178026212786,
                0.01695463041191256,
                0.01370975948818323,
                0.046117789681898114,
                0.060206006562591494,
                9.806407843275549e-05,
                -0.005832218603996237,
                -0.04745584491353466,
                0.02650439426192221,
                0.037052794310523315,
                0.12250627244222682,
                -0.07743148602938937,
                0.032685141002752514,
                0.04456714256575533,
                -0.024765990235859056,
                -0.006586097219348851,
                0.011171233196029166,
                0.03499156718732388,
                -0.048950093900085256,
                -0.04270579203034708,
                -0.03163273019837277,
                -0.020368666969348193,
                0.04198757385236515,
                -0.003399249889009763,
                0.02398467565019328,
                0.02615699166937984,
                -0.05725597263535141,
                0.017677529101677324,
                -0.02349599010554768,
                0.07290192812006281,
                0.07814476021918206,
                -0.025925731923498244,
                -0.000612601323006733,
                -0.025467501125890173,
                -0.024487724099388434,
                0.0167212131564957,
                -0.060183438757708416,
                -0.06131537332131565,
                -0.03746794683245376,
                0.054408712584573866,
                -0.03052807061867981,
                -0.025787305935166267,
                -0.024561195731657614,
                -0.015256239755004912,
                -0.028818378027988728,
                0.017025133754324753,
                0.019706408597372688,
                0.0286258135627027,
                0.061716460124580895,
                -0.04446003767189314,
                -0.04301748422354513,
                0.09882059750470144,
                -0.027544293371428677,
                -0.08490409150038869,
                0.09260817346710334,
                0.03830992103533514,
                0.06768248144045605,
                -0.0031011586044613973,
                0.055293644768718245,
                0.06964569616141371,
                0.007244490680688229,
                -0.09100979042142301,
                -0.07354611350987161,
                -0.045043044556431565,
                -0.0581180762124309,
                -0.00594195391707378,
                0.004389427779269119,
                -0.028341460844126393,
                -0.038391035500580865,
                0.0593387498401311,
                -0.0679891093271833,
                0.02051458435575213,
                0.04190211263228066,
                -0.02685169929494238,
                -0.06160011302503865,
                0.023102383029824196,
                -0.032898205175616084,
                0.027553647214463593,
                0.04347471942938608,
                -0.02739563715525311,
                0.07263673312905924,
                0.005090773113001733,
                -0.005944481004813345,
                0.01608687955856163,
                0.08993218120361823,
                -4.886312903078184e-06,
                -0.025430494141710388,
                0.04692257556794928,
                0.03767138316047245,
                -0.1088194360776154,
                -0.015904162132791222,
                0.028482715603677555,
                0.03718478817251841,
                0.011961032463585574,
                -0.017494345111851498,
                -0.008877625422808077,
                0.07492547077305645,
                0.020458437917934197,
                -0.01611001925922363,
                -0.02625963661973235,
                -0.0023383158021801557,
                0.10372710896277099,
                0.0197587056315847,
                0.02052817792461767,
                -0.13521575008361522,
                0.035967082488150115,
                0.07942402292723931,
                0.02501177405127155,
                -0.07145497539834442,
                0.011546416596966591,
                0.015215358506239162,
                0.05427734816386883,
                -0.05666738092596836,
                0.023631420310781515,
                -0.02420214746396512,
                0.07420102224668283,
                0.032909780931393295,
                -0.02738052721196125,
                0.015851925790935157,
                -0.04638616439063189,
                -0.023369464482205893,
                -0.004161502244738282,
                0.060824847398899554,
                -0.0029478300352157464,
                0.005947348011247363,
                -0.0291991046701506,
                0.030274266737388564,
                -0.031865799604983584,
                0.04115139537397324,
                0.03130906623999748,
                -0.05918109060183458,
                -0.0475155665626058,
                -0.03542784664441484,
                0.03538032334986894,
                0.04780562744573648,
                0.07696887068670133,
                0.10328068301338261,
                0.022000525513251303,
                -0.009948917714244807,
                0.06114897223700369,
                -0.024056682729617054,
                0.09282816304930107,
                0.08720467735760984,
                0.10853137175528135,
                -0.030650320309195518,
                0.03445144437655004,
                0.027699649043433697,
                -0.14481495069603267,
                -0.058143497910108866,
                -0.08331784466803764,
                -0.054554379201598655,
                -0.011620318731857962,
                -0.034863645699528115,
                -0.11588757616647516,
                0.05770960534809646,
                0.05008603307469315,
                -0.016478585056437615,
                0.009229624811849295,
                0.06100019730357323,
                0.032346550158663404,
                -0.09707412790903251,
                -0.0009477250231096773,
                -0.010243195626215831,
                -0.07741177047464269,
                -0.018827029313670546,
                0.06859175185512371,
                0.02650743530993566,
                0.034850102943697295,
                0.09070921455632401,
                0.03570439525415494,
                0.06531397371698132,
                -0.046725245218537485,
                0.05681143397657633,
                0.027948773184010598,
                -0.032585630909952236,
                -0.0410799963099058,
                -0.05212860032916446,
                0.056890201464070325,
                -0.04508868326238909,
                -0.049623421535113586,
                -0.05441836473932933,
                0.07508044931088166,
                0.020973567780748787,
                0.050464174679625634,
                0.057941696733305126,
                -0.0496605900424377,
                -0.0315804271864873,
                -0.021097204168123943,
                -0.02025401414047448,
                -0.048787958365505806,
                -0.01794176096242758,
                0.12119845549826548,
                -0.030578031667470883,
                0.039812561349426734,
                0.0013189326150573413,
                -0.016068242511036383,
                0.06472810488768761,
                0.04321042156839142,
                0.012537069981533146,
                0.009251571174339961,
                -0.07777780964341374,
                -0.05696231954853681,
                0.14746140343874664,
                0.0204822936126114,
                -0.13574333854972678,
                -0.002698090010083401,
                -0.05354008914303971,
                -0.015629626986012595,
                0.057519471885710195,
                0.01141677339386454,
                0.05705171621700347,
                -0.07250951267204715,
                0.04323896095340851,
                0.049126889428109416,
                0.04580199437442572,
                -0.17041462280047268,
                -0.04961325316157293,
                0.01411678661924478,
                0.05728425472625361,
                -0.0036670197884258113,
                0.012662416925733552,
                0.04990167766072734,
                -0.030782131772533514,
                0.02443201890664814,
                -0.01430031753436449,
                0.0478220785821787,
                -0.10644782103171543,
                -0.0907961175267595,
                -0.06728054589730366,
                0.1267041078156593,
                -0.04845247167268093,
                0.03131576545133724,
                0.028254165556253943,
                0.0606321435125319,
                -0.047430778560014535,
                0.07336739191093652,
                0.049977933502993205,
                0.04113389212977614,
                0.07926171239915515,
                0.03170760528959541,
                0.022010524984542028,
                -0.052556849089373255,
                0.057217291224173,
                -0.07700958843962735,
                0.07446492493081841,
                0.009131946061811216,
                0.012466717751201497,
                0.09565929234066722,
                0.03349955088823441,
                -0.013202858876337108,
                -0.06277004117505744,
                0.14179883237804802,
                0.05006904078255486,
                0.04978413315548742,
                0.01833073703918293,
                -0.07078053650020064,
                -0.053255149741078096,
                -0.007206990561026661,
                0.0014231947036778283,
                -0.06532653643274046,
                -0.016076570705489693,
                0.039511385974622566,
                0.006256534219457499,
                0.013460486603409825,
                0.035251474003782965,
                0.03327231354674985,
                0.006969977047136679,
                0.03630218238118926,
                0.08837800091006992,
                -0.05052007477153983,
                0.004226592026769428,
                0.07442717465006023,
                -0.014035550198978425,
                -0.0062411304168432805,
                -0.0341330083605204,
                0.05844239995409528,
                -0.08124367633526944,
                -0.0006679775868510322,
                0.05110963168559782,
                0.040370011894858115,
                0.09132950468786374,
                0.020866971421765856,
                -0.004056668641378578,
                -0.05203358030875457,
                0.04809218973382627,
                0.021604666162191727,
                -0.02640768755782422,
                0.052967931125660415,
                -0.015837149226396216,
                -0.029545848392521695,
                -0.06024249638534004,
                -0.005428044420121339,
                0.024338483100432927,
                0.0062933330478014745,
                -0.027514106543561984,
                -0.1121531615434814,
                -0.010866887196579498,
                -0.037086370050639195,
                -0.017476913093426003,
                0.05364929547970261,
                0.009709056038174516,
                -0.031684932380619237,
                -0.03999519525505917,
                0.05479129143719294,
                -0.0011467277225237528,
                0.12618005955300385,
                0.11273421044024726,
                0.013407339990055734,
                -0.057261370215702066,
                0.042942217627676985,
                0.03148076192279301,
                0.030472037429088196,
                -0.11084320825802332,
                -0.04250813225914314,
                0.020290399702238938,
                -0.037374759570552765,
                0.023924208836117875,
                0.001673463062184757,
                0.004763667649219296,
                0.016250677782524054,
                -0.014986257917534874,
                -0.003717037801244016,
                -0.006832266611648247,
                -0.04416619984847572,
                0.07465140422465393,
                0.0315873345955344,
                -0.032152617522701606,
                0.017792020834975556,
                -0.04816531071825745,
                0.032131436972785705,
                0.007525453036665086,
                -0.054990801379270905,
                0.01813786150860453,
                0.08926782929805152,
                0.08894616734937713,
                0.03679282105424229,
                -0.01597631685276327,
                0.024637174339593112,
                0.08974220961622072,
                0.012452086267675378,
                0.04118046889266925,
                -0.057995217203721854,
                0.011073634696642203,
                -0.00032018699585209835,
                0.03037020296910623,
                -0.004331699029352797,
                -0.06436916320446887,
                0.014556988042613465,
                0.05705605099680125,
                -0.04444967523878327,
                0.08955806280894109,
                -0.029271283776119143,
                -0.030669582459422237,
                0.05488044849522063,
                -0.02593260367340977,
                -0.038640614687643494,
                -0.031448299623677595,
                -0.04218956674489754,
                -0.009095358893108764,
                0.0823644643582983,
                -0.02827899136850309,
                -0.04433520975288875,
                0.06483868761564446,
                0.040803914189248315,
                0.012602302000851365,
                0.05581741836267865,
                0.04377795555387427,
                0.01316692959192785,
                -0.01570766448717923,
                0.0738054326939365,
                0.03613817941583486,
                -0.08659128992906687,
                -0.04395017175188873,
                0.004885012554341928,
                -0.0190534968941017,
                -0.04507608160047508,
                0.06761415167064913,
                0.0024717667478758917,
                -0.039220537395849506,
                0.05082432089751566,
                -0.016924389355654174,
                -0.07210415515217859,
                -0.05128946572490465,
                0.05255099060010802,
                -0.0568045785165504,
                -0.12749639489399195,
                0.07320839237428625,
                -0.04155428020688244,
                0.04067060370150025,
                -0.01039661978978457,
                -0.05720495440492764,
                -0.012540536092301989,
                0.062115953743323994,
                -0.038919753365705,
                -0.06309047573972743,
                0.021002225059488597,
                -0.0309190344207099,
                0.038989398075050086,
                0.05055122208114357,
                -0.0904249696410034,
                0.0490770415651985,
                -0.019936097013378288,
                0.024990566594997838,
                0.034584590286202366,
                -0.0033971368137482244,
                -0.06904338620167168,
                -0.04192891330972839,
                0.019645594990338876,
                -0.022201666966942705,
                -0.00011064317114379804,
                -0.008317209684941457,
                -0.05885706257616478,
                -0.005752887716091839,
                -0.006334280839682898,
                -0.010933834840311173,
                -0.014048228080591087,
                0.04462145638989217,
                -0.026509807512666676,
                -0.06067202036673119,
                -0.002015896481078248,
                0.02030686231732256,
                -0.0690152530250958,
                -0.08768733066832211,
                0.03451809256015679,
                0.06164944484287924,
                -0.09256052567914526,
                -0.03972224859654594,
                8.232971161952927e-05,
                0.027793787782082614,
                -0.015370987787369315,
                0.1069420272079762,
                0.09464394383460771,
                0.044932874196623715,
                -0.01754033406686261,
                -0.04958021246402265,
                0.03289978985680198,
                0.05004440827715758,
                0.06576768433437385,
                0.012037995375066016,
                -0.011161457255410573,
                -0.10018454270294866,
                0.03600660169786369,
                -0.02712846569548943,
                -0.03385844494661527,
                0.09702962900071904,
                0.08728535345392972,
                0.06293495513708504,
                0.13961801559471307,
                0.00452583893134353,
                0.019069518320307892,
                0.04134569768471883,
                0.018615847269767356,
                0.028400446905736006,
                0.06255388809392126,
                0.04878887436953086,
                0.0068444321636497284,
                0.0912744472039554,
                0.0888279035669706,
                -0.07343531622587265,
                -0.021871398639572444,
                0.01055444996131122,
                -0.010554267915249745,
                -0.036053538786862356,
                -0.07099200655465769,
                0.021086383390125713,
                0.047630033972439215,
                0.0645890382494171,
                -0.015085696572762932,
                0.02012370057194282,
                0.025230962478744644,
                0.012302213726531258,
                -0.027317655458138093,
                0.0648908898910628,
                0.04778071888513517,
                0.0053549552107975415,
                -0.029846679390202087,
                0.09203416593614364,
                -0.02937111424096906,
                -0.0867938130979001,
                0.020290120468655106,
                -0.05257554331463728,
                -0.0039591983262539186,
                0.0046772408509437365,
                0.009582209639894142,
                -0.018801256495297985,
                -0.028895126190008225,
                -0.10648654881188153,
                -0.035629590106036106,
                -0.0155400175526425,
                -0.013660930746532834,
                0.019865037490521327,
                -0.0022985587406626077,
                -0.0028944359216863612,
                0.09185450507949965,
                0.061054617015489455,
                -0.04598806290112503,
                0.011711541491596637,
                0.009773884766491641,
                -0.09103967552153273,
                0.025324065069884313,
                -0.08215110030678752,
                0.027307757976808858,
                0.05598902383665959,
                0.042609027973910654,
                0.08883576128689324,
                0.019830757088807164,
                -0.006814973738224166,
                -0.042492742917590975,
                -0.010307632420295063,
                -0.0041768018787061165,
                -0.02910454796140222,
                -0.0348111127290239,
                0.06364777780776702,
                0.005831075294590503,
                0.044672967115960596,
                -0.01940787466413978,
                0.015329122852185474,
                -0.04695115090683178,
                0.045806242142936895,
                0.0023536400321793297,
                -0.04061644103779013,
                -0.030247102905628303,
                0.08149085860419349
            ],
            [
                0.004869366069085245,
                0.052791966402762534,
                -0.0234188737013118,
                -0.004566936584129647,
                0.04046959553398977,
                0.017172260383409285,
                -0.07235448955259866,
                -0.0010468139425189266,
                -0.000360615963515844,
                0.03501623861317872,
                0.07101495869238629,
                0.03309277068575422,
                -0.036641528037873086,
                0.020761852759060607,
                0.05349089476238618,
                0.08045703749493965,
                -0.07270198855890538,
                0.024755342705555457,
                -0.018910436244696842,
                -0.009619901509442261,
                0.014632639386566849,
                0.004055247540002571,
                0.04423549350637528,
                0.034519107058488985,
                0.028748709540860774,
                0.017931961362153043,
                -0.07013461339484282,
                -0.022752483814587627,
                -0.10997395363971808,
                -0.09865281426608524,
                0.02294669285145707,
                0.013969053788924999,
                -0.018360612056810985,
                0.009342600437272504,
                0.003611575490687345,
                -0.0685679006160637,
                -0.02994791236692478,
                -0.06331236434574145,
                0.023355857431610772,
                0.018777338968930617,
                0.03472845131548335,
                0.10830376825838212,
                -0.021192216449264698,
                -0.1119062284574936,
                0.11058917724877938,
                0.02440334884946825,
                -0.026032468484424708,
                0.012888757974705218,
                0.018876346420639345,
                0.03579588983143695,
                -0.02579526287119732,
                -0.03199592757426237,
                0.04378038615248375,
                0.04662210550104058,
                0.054321237422753715,
                0.021598728685608023,
                -0.05031267469097315,
                -0.03561137124521532,
                -0.03662100507112048,
                -0.049510710848550986,
                -0.04471298145433327,
                0.034720221137430694,
                0.012716453030734315,
                0.05931788152595585,
                0.02833843083609865,
                -0.0024594735397805694,
                -0.023473441248022794,
                0.002415394316690233,
                0.005949662192583551,
                0.06119537221306995,
                0.022819208631653074,
                -0.13330051912037205,
                -0.04808795503417427,
                0.04570623481262123,
                -0.022425228643999963,
                -0.012812328489952552,
                0.022774576323596685,
                -0.02946322134959625,
                0.05683420463102513,
                0.02346794109444068,
                -0.035301453227525016,
                0.013871245605540592,
                -0.06940481082261181,
                0.05051846631662774,
                0.030250982929421622,
                0.013847102289573435,
                -0.03635070797268472,
                -0.05107111636697683,
                0.045609193935660826,
                -0.03081178111162894,
                0.050982853179849325,
                -0.08441478456715756,
                0.007151797866272021,
                0.0023268859814035542,
                -0.03791679973548474,
                -0.015303032680032923,
                0.0028521889466648223,
                0.005788094313054403,
                -0.034233260445212604,
                0.03714404478593129,
                0.011441288307944154,
                0.03047139890098696,
                0.029938707235391816,
                0.012204109026236488,
                0.06276545663502178,
                -0.03295205318387338,
                0.0424857551949977,
                -0.07383426381874734,
                -0.006387757496987308,
                -0.005932554054656515,
                -0.03370125550615102,
                0.06650357695572565,
                0.026167813509562658,
                -0.07399452390665283,
                -0.0782879085157472,
                0.05832711473501234,
                0.0636440716044602,
                0.0030081700952717563,
                0.016967214972404342,
                0.10453806507442198,
                0.03520513295296342,
                -0.013669903985296898,
                -0.12330113117297142,
                0.04230012272720704,
                0.07599812875254772,
                0.10434250230948312,
                0.02417106215497393,
                0.03031485801943241,
                0.030200776314892843,
                0.12214758081657504,
                0.033452677881928385,
                -0.0426592534114558,
                0.005369955008546155,
                -0.08909902587156009,
                -0.05055761492418726,
                -0.02850415813105141,
                -0.007649451698888754,
                -0.042335663448252056,
                -0.11547727730787415,
                -0.06721429481568154,
                -0.022124919572732306,
                0.027959266196092954,
                -0.014404351617351496,
                0.0022624462930474574,
                -0.02423342165750102,
                -0.026822564354986127,
                0.15597637809880038,
                0.013684606434525138,
                -0.007631905700211851,
                0.039544603183109595,
                0.11969445662941368,
                0.05043121677262145,
                0.021897950434808352,
                0.004371064254682311,
                0.05318339267958274,
                -0.03542243969478621,
                -0.007548052080297572,
                0.061754959017904475,
                -0.051832922498302104,
                0.019260231625144602,
                0.05409150716373381,
                -0.004777945973361944,
                -0.057411988829772526,
                -0.05969098473259372,
                0.06505334009103096,
                -0.024858881968185424,
                0.07717163251576332,
                0.14503203033222437,
                0.047274496213557414,
                -0.04704481763970503,
                -0.031124453354861407,
                0.05337006965980035,
                0.045956877849258476,
                0.0508834778895539,
                -0.0827371737853163,
                0.016637716009582113,
                -0.0060017851501826406,
                -0.0077710489173973074,
                0.03238508756815025,
                0.028942304651300405,
                -0.013123272849242256,
                0.05746559467249067,
                0.008597844255263746,
                -0.023056544716636748,
                0.022334844399627695,
                -0.01442873611466605,
                -0.07266213746978507,
                -0.034308166210461066,
                -0.0013090525834660665,
                -0.04709832595324479,
                0.017882767962401007,
                -0.008377779420641215,
                0.055580577185670124,
                -0.06158602499094779,
                0.01473087938376941,
                -0.060896800103100536,
                0.08202979675865045,
                0.03217581416819169,
                -0.055089756824126083,
                -0.0518278215415998,
                -0.03486595995974021,
                0.004059008895788895,
                -0.07230755906201021,
                0.02915420186604961,
                0.0778058563757032,
                0.08348604220533107,
                -0.03980312969955352,
                0.07941759543554194,
                0.13001687764949496,
                0.04953879791567096,
                0.010629155853280373,
                0.05302308565742278,
                0.0032176246575725555,
                0.03156699882235672,
                0.01863004288165473,
                -0.013520854008337394,
                -0.0769853509680729,
                0.036786248207507075,
                -0.022172058021571833,
                -0.06227414557740673,
                -0.0037294950284978627,
                0.01838999601647148,
                -0.07690812064281595,
                0.012790362207136951,
                0.003607466690518277,
                0.02899580157517299,
                -0.015499974458813829,
                -0.05882936293684851,
                -0.04395260608830169,
                -0.026727258125629098,
                0.008236817641695983,
                -0.047036519694164815,
                -0.09716593290754799,
                0.0485127773802351,
                0.041945720487371406,
                -0.0009007037442682947,
                0.08319340523854947,
                -0.01044119691506208,
                0.013240960327912858,
                0.05844951657086493,
                -0.0027211855908845627,
                -0.007518846966035153,
                -0.008463027028394852,
                0.02796253661038664,
                -0.04566838588576163,
                0.01855166136216017,
                0.02078141563338613,
                0.02537653690733081,
                -0.028559808557040024,
                -0.04638916820339251,
                0.07999018838965692,
                0.0303556086535387,
                -0.02743242461254089,
                0.002437265112960292,
                -0.01060059564589243,
                0.013913751580024518,
                0.010813077361669726,
                0.012730550499989135,
                -0.02027755806559871,
                0.07170573301892803,
                0.03211261708571205,
                -0.07655557003270035,
                -0.01249737123160352,
                -0.08603032809523246,
                -0.01720319380019235,
                -0.04718340142326207,
                -0.03379153058328314,
                -0.03647569907023455,
                0.03137391873385151,
                -0.04012036387505973,
                0.032472711241546465,
                -0.035008855557339964,
                0.02573200986229854,
                0.01845621912488442,
                0.0337873377695558,
                0.06770048021851353,
                0.0072173082704274525,
                0.00855226568503747,
                0.05820222327351849,
                0.017331190206154135,
                -0.07682694124844618,
                0.05363600846420209,
                0.05800031811826443,
                0.004935676048977624,
                -0.04518063999217322,
                -0.032999258250201086,
                -0.08260183327106389,
                -0.03110136853149771,
                0.0532353567255078,
                0.02052543812840836,
                -0.09090570046978469,
                -0.05316041337037269,
                0.0467258270245702,
                -0.019476120282771105,
                0.052974381011624654,
                -0.04793374416516146,
                0.012291186660189794,
                0.02503033233536313,
                -0.03786805384641018,
                0.0643549751121285,
                -0.03310483345128687,
                -0.03132158965033421,
                0.01808447499937086,
                0.05973735132674074,
                -0.027351692869101878,
                0.06078432062125637,
                -0.00786124200777495,
                -0.023058680179259584,
                0.015218857934620732,
                -0.030096032108568708,
                0.0008246892180843136,
                -0.08178581274939661,
                0.015586587368462235,
                -0.0028592485764603005,
                0.05270136212445623,
                -0.07611495319951896,
                0.08900271531792077,
                -0.059800860474120025,
                0.009048993467025515,
                -0.07035465568559261,
                -0.014543946296944681,
                -0.022983509635061343,
                0.08402972285479772,
                -0.050875962438890115,
                0.05263651042545268,
                -0.020923570651084477,
                -0.05847689756055163,
                0.014811306849836479,
                0.0047888633207316955,
                0.069648008956773,
                -0.009155292713978127,
                0.06833590870448536,
                0.054156512631865744,
                -0.009424453659197007,
                -0.02650572235978351,
                -0.01358725062196401,
                -0.02444780445026269,
                0.023625912336491056,
                0.008580250867571354,
                0.028129171891352923,
                0.06136714216829423,
                0.09786170617936357,
                -0.04977057797366168,
                0.003982968944533081,
                0.04928118393571559,
                0.038077543484118605,
                0.06315522804647689,
                0.0702178632194741,
                0.05584436379339945,
                0.06919670994511523,
                0.007656931114023047,
                0.08370721476343049,
                -0.09861550093287702,
                0.04206499653164856,
                0.0530680800305968,
                -0.023263914944217326,
                0.02055174239349713,
                -0.10672147387233011,
                -0.025619254853862895,
                -0.008784413893774535,
                -0.055554096184483356,
                0.0036546739268353834,
                -0.012317116416284623,
                0.03564326210779359,
                0.00047305381022350545,
                -0.020803498435155998,
                0.022415715842033418,
                -0.08127121546034494,
                0.030919106633219444,
                -0.007824142700084896,
                -0.10702522256414487,
                -0.0009815395264062944,
                -0.048819342521802415,
                0.040035865745385125,
                -0.07573785882346074,
                -0.039401379357855974,
                0.024598200600578015,
                -0.047373223531402775,
                -0.02547116367550724,
                -0.08062762578895202,
                -0.05890125529136707,
                0.09335156144138532,
                -0.01796431435501152,
                -0.04879472852621233,
                -0.0385741301671781,
                0.00807655719624964,
                0.036370977471787386,
                0.03281008816560491,
                0.033088353276779225,
                -0.09403312627031679,
                -0.011375864474096524,
                0.04261960336814412,
                -0.01571251377745477,
                -0.02312770386369281,
                0.07473707414079786,
                -0.02823632935389832,
                0.0013656351244825057,
                -0.02883737708129171,
                0.0367696993948393,
                0.025099310076683087,
                -0.06667261338836536,
                -0.01539272119684844,
                0.06436598040685589,
                0.07047402878112285,
                0.043675752338159,
                -0.06165571739336972,
                -0.026547734929842682,
                0.09180980462854302,
                0.012987030737569032,
                -0.029653141585490768,
                -0.042736225659490326,
                -0.04595258062124493,
                -0.03972074019180356,
                0.0561882448858268,
                -0.10145961967228795,
                -0.008833448738837374,
                -0.026120186540813235,
                0.05006620529281207,
                -0.13702689270623805,
                -0.05663788018998186,
                0.07042942593931062,
                -0.020278526340215045,
                -0.017160028612152767,
                0.014322998611730978,
                0.029531244809100864,
                -0.01739125207718914,
                -0.09513182671702346,
                0.049835586298535975,
                -0.12796651121487407,
                0.0383695818020554,
                -0.07783836359107549,
                0.030824179372334743,
                -0.020083718815052196,
                0.06089467911130201,
                -0.15190060257389554,
                0.005166274568344597,
                -0.028417619764904086,
                -0.06258016422058345,
                -0.04254197541646379,
                0.03197069054431958,
                0.02270163293566106,
                -0.04768167013771816,
                -0.0011708948792232214,
                0.009417301796746514,
                -0.08207985205254542,
                0.02469988248561524,
                0.0029181213063172546,
                -0.028963997776565234,
                0.021517866443930982,
                0.038700972452404586,
                0.02062745287512735,
                0.00641506488428464,
                0.07786139897310142,
                0.047829476147229245,
                -0.055676024548230146,
                0.01353028335733894,
                -0.022270504446625344,
                -0.00697777612595452,
                -0.012992580758592734,
                -0.02077759965238465,
                0.05767687845232296,
                0.036570820190507336,
                -0.03280413498709727,
                0.011023436601519988,
                0.0263677460494303,
                0.03315422853979554,
                0.04052203310566372,
                -0.01625863604709175,
                0.03296451874828155,
                -0.061555917882806864,
                0.1017449710444668,
                0.022349287120170737,
                -0.05743501303958883,
                -0.06922454805922335,
                -0.004909031442214561,
                0.005182585317630599,
                0.04187984852811234,
                0.07920025855224323,
                0.013652551904077503,
                -0.08713617347465495,
                0.044595689252352404,
                -0.07062804394357053,
                -0.03056718680860721,
                0.01217113233042236,
                -0.07876476469874265,
                0.008056333352731523,
                -0.02392923160628919,
                -0.05458979588471309,
                -0.01789743250857076,
                -0.045019949986966616,
                -0.028318227410831998,
                -0.07417054882652326,
                0.028672660773990326,
                -0.0065834522923847345,
                0.04641091054631046,
                0.12341854293404092,
                0.011205982033270051,
                -0.0062390255117511645,
                -0.02039344105536546,
                0.06230144151494357,
                -0.00512699282491059,
                0.02715687204070856,
                0.0022083505781027466,
                -0.008541765021117545,
                -0.0006902374174322906,
                -0.0982497947487878,
                -0.08917751606587182,
                -0.01134122910315012,
                0.0819115344863544,
                -0.04015677838450367,
                0.12355667980270263,
                -0.03526917902420471,
                -0.04590439134836126,
                -0.03137451264401624,
                -0.03481667056839371,
                0.029901038688649784,
                0.011173099725935026,
                0.03376373607319852,
                -0.01461895338992324,
                -0.039682632440585765,
                0.023123914107605874,
                0.13813354440495573,
                0.07734093926325972,
                0.08512806737913917,
                0.07053785624080203,
                -0.03264397931038262,
                0.06013693484678528,
                0.01982283779886768,
                0.025457728806345177,
                -0.0048186440600771,
                0.005002269376838845,
                -0.04291913036108324,
                -0.051032822451656086,
                -0.07688864969951954,
                -0.05632879683869215,
                0.0008419019388645199,
                0.008490698523023936,
                0.05298300271730162,
                0.04493787650222943,
                0.08652521162286755,
                0.04459505858176774,
                -0.058883263119464756,
                0.031351726588510404,
                -0.05275655017807347,
                0.014892291274337558,
                -0.03788787887684128,
                -0.01854800112497496,
                0.026221274293116582,
                0.04451961384579845,
                0.0906876338282413,
                0.1520612574962599,
                -0.02898103847562339,
                0.02058108449110962,
                0.008678035215799325,
                -0.09730453013550254,
                0.05725474030661143,
                0.06411680605813465,
                -0.06775833981350085,
                -0.05319344027927176,
                -0.08040175970928917,
                -0.011860452810576072,
                0.0038260917480295517,
                -0.0016923958640101314,
                -0.05049769245610552,
                0.07897693854099543,
                0.011291357815072118,
                -0.02236203916005283,
                0.08962753435640097,
                0.06235254779957648,
                -0.016542155299607852,
                0.019472043046451417,
                0.09205427154559963,
                0.12769926022187375,
                -0.07712223212408002,
                0.0383368138937047,
                0.010690616541198624,
                0.05264627868918491,
                0.11191807365509306,
                0.015086295164833053,
                0.021675831432437426,
                0.023688506113491905,
                0.03261773392289163,
                0.02390514422922301,
                -0.04761890825631873,
                0.09967953318851441,
                0.0004913581671373088,
                0.02081732032911802,
                0.04112955114667593,
                0.03023867166253736,
                -0.024089338239680746,
                0.09673044451741268,
                0.017622604760909814,
                0.0218690016076762,
                -0.004096692806678627,
                0.02417923652507547,
                0.129552004944901,
                0.09736065111911417,
                0.16229018534841472,
                0.07013434138517384,
                0.13327277847572722,
                0.03257391469270841,
                0.12161516075750035,
                0.024987406580057023,
                -0.03943046050369007,
                0.01564490428669604,
                0.05234943394882014,
                0.08867543164856612,
                0.002070622409810934,
                0.000574167837164691,
                0.06252763348994562,
                0.026014804845934783,
                0.07097333698341828,
                0.0794068064518442,
                -0.003825997291303703,
                0.004279801844166293,
                -0.02017463985949522,
                -0.06999732098657968,
                0.08140643414776724,
                -0.001718942572476763,
                -0.020863162623056826,
                -0.02604418106334418,
                -0.027606868612317932,
                -0.031034588732083465,
                0.06952376884808341,
                -0.0430243608814328,
                0.08086208937283708,
                0.06933978197490892,
                0.027026561268649683,
                0.03821783746427906,
                0.011904571439058598,
                0.05137536184815989,
                0.02033657486037917,
                0.03435485649203187,
                -0.061884616912893604,
                0.04764163423000615,
                0.040811507706511235,
                0.032619924842938,
                0.022083633809872386,
                -0.009169866086827785,
                0.003065036199551133,
                0.005937124021590309,
                -0.025908262479601485,
                0.12408937242589199,
                -0.04008059689793342,
                -0.0773170380024492,
                0.006710365148604582,
                0.08574854505890767,
                -0.06313435426477837,
                -0.017153421544111966,
                -0.03076818649327071,
                0.030902004283588677,
                -0.01405416326766595,
                -0.027915434243407818,
                0.036780453296101676,
                -0.02209109139085541,
                0.047795011774542005,
                0.043693863971969726,
                -0.07106296644069206,
                0.03517010001139316,
                -0.07632316055423839,
                -0.026859745269987405,
                -0.05689210632092133,
                -0.004928202710672322,
                0.06771656886947931,
                -0.022439795094262666,
                0.04776182767669362,
                0.022667051093936963,
                0.051601909645297254,
                -0.08156539121001304,
                0.0005609535446728747,
                -0.054259098121103716,
                0.04900886311217802,
                -0.028880537064717746,
                0.04339320013312047,
                -0.003070372894188281,
                0.021719844833349034,
                -0.040492402448132236,
                -0.0405879469499911,
                0.009958703465547607,
                -0.031149683368632892,
                0.03505982975924176,
                -0.0162324690903279,
                -0.07121413997373417,
                -0.08925270561242842,
                -0.06224218957689031,
                -0.04532888038896969,
                0.021305937128800377,
                0.008640834058381569,
                0.015121393445469623,
                0.08370467573769387,
                0.04393240843471713,
                -0.03395895345272503,
                0.0386916680770511,
                0.040184877884845295,
                0.016800216138246546,
                0.09671823339985225,
                0.050284761301343,
                0.05246186183709657,
                -0.05538315660987871,
                0.06923636196548498,
                0.020698980589181654,
                0.021778165806029988,
                0.03770441815813238,
                -0.009743272535344422,
                -0.04927132149578852,
                -0.022927216974515347,
                0.0057237240760024235,
                -0.0320044897104809,
                -0.11277871489814918,
                -0.009546424356288491,
                -0.03508706910214041,
                -0.04917767224723658,
                0.04537779979791258,
                0.1168282583668885,
                0.0370702732643974,
                -0.06109736832372593,
                2.6643759336529502e-05,
                -0.0031010576888167315,
                -0.07060251709953093,
                -0.0075012463197423685,
                -0.037685313672020125,
                -0.028762623786119428,
                0.06951022155620395,
                0.05797807185041219,
                0.0013831394901500254,
                0.06178259083830409,
                -0.06405632007937229,
                0.07820732908064687,
                0.031683204421058944,
                0.022043805738172214,
                -0.0826266448466932,
                -0.04255617503468383,
                -0.030034610332103952,
                -0.013520335464091726,
                -0.07638512062094834,
                -0.057652112001003064,
                0.03131228108266036,
                -0.01895261497542163,
                -0.05191544781212107,
                0.050132270654579904,
                -0.08054374336556068,
                -0.021029725814980367,
                -0.035557897653192144,
                0.0375968093499607,
                0.05336284322799332,
                0.011602408090512965,
                0.012134711159311503,
                -0.005166703434533489,
                -0.07291081484878578,
                0.0888106254293457,
                0.055758464620423845,
                -0.023085762443654595,
                -0.003353408193399445,
                0.06846424398176466,
                0.023848542992274457,
                -0.04518566524517438,
                -0.01537522829236078,
                -0.07491625296233508,
                0.07356367097445135,
                0.0606341359924112,
                -0.04145191172443277,
                -0.014316416528794102,
                -0.021872296474052824,
                -0.03664617558977226,
                0.06565739314788419,
                -0.06263932151022496,
                0.11465733919645235,
                -0.012415018854515016,
                0.0925036922754885,
                -0.006222696431281096,
                -0.013164710466274192,
                -0.02480281118516859,
                -0.023019693365613204,
                0.03997029970097331,
                0.03447917180246788,
                -0.0454102404392996,
                0.008591089046079069,
                0.007104029274423015,
                0.006505463338389825,
                -0.07323888014935057,
                0.032093919405108626,
                0.007494702067353106,
                -0.020907023373861022,
                -0.013363803156310918
            ],
            [
                -0.0348195431451208,
                -0.036232601943341214,
                -0.04864063875163266,
                0.027479433117161646,
                -0.0009053421899393529,
                0.046770036544938665,
                0.05615033904459153,
                0.009142917566557409,
                -0.07491688294904036,
                0.027099466760580723,
                0.017080711261068145,
                -0.054197104601157294,
                -0.00910016916212157,
                -0.035808604726211724,
                -0.01796313386497533,
                -0.10682024420350662,
                -0.0530367334783139,
                -0.06383224363649727,
                0.0265811925977298,
                -0.09761396380880846,
                0.06531104862323023,
                -0.04063647654984723,
                -0.011807096836687066,
                0.04360266827279023,
                0.021252977350798036,
                0.00604479477403887,
                -0.005359820610087077,
                0.012385533510866813,
                -0.015549892637272838,
                0.0016006692240391075,
                0.11086985955368168,
                -0.049332955615871504,
                -0.02377570925599663,
                -0.05923402053745563,
                0.043014496549443455,
                -0.018120547397339988,
                -0.026699507615423612,
                0.0002894368916505577,
                -0.06119687357468613,
                -0.07184829815224972,
                -0.04257626536331193,
                -0.011513116752821816,
                0.0012348799698530778,
                0.014456853553923489,
                -0.039679555520920874,
                -0.03489983722266807,
                -0.009910117838254611,
                -0.09731048054789951,
                0.04130312918976817,
                0.04110331813579337,
                0.06529894665563427,
                -0.04608972349791897,
                0.07072433467675583,
                -0.023540286243934595,
                -0.026520216937211155,
                0.06227242978174559,
                -0.0737488228698394,
                0.01904950221355922,
                -0.022490726677679033,
                -0.013290038647112186,
                -0.012710380515113749,
                -0.040750157272912285,
                -0.01258104318335998,
                -0.021758496023878776,
                -0.029089708133832628,
                -0.020168044387394765,
                -0.037975335500889176,
                0.01441743573116971,
                0.033387404481326356,
                -0.05048233968968117,
                -0.0019462738193673876,
                0.04353492358777255,
                0.017702011360252297,
                -0.0026921715005745945,
                0.005882949815611432,
                0.0012804159892515902,
                0.018535738296946193,
                0.041234398945088256,
                0.11203453788937004,
                -0.049703124136943715,
                0.011855756607875816,
                0.07364398570882064,
                0.03844824922734178,
                0.0873227153259037,
                0.10548118301214655,
                -0.019446190550861355,
                -0.010267510408081361,
                0.04247288805193394,
                0.07260028289773764,
                0.004065189712653368,
                0.028824680024697298,
                0.00964526236985049,
                -0.04868472629823118,
                -0.07493304829098846,
                -0.04438267689882407,
                -0.046816516041762325,
                0.01947625486795779,
                0.04646770268054502,
                -0.006141575176843003,
                0.039214016575738815,
                -0.02283939125364329,
                0.030689781978790683,
                -0.03855362725697871,
                0.035390194249413774,
                0.06913432388144114,
                0.07690309748517583,
                -0.040720566387289374,
                -0.0148056744312475,
                -0.10430169448488798,
                0.09326183277481262,
                -0.07853981336550848,
                -0.061471708654752606,
                -0.06814723805658245,
                -0.013299963348593541,
                0.05379192912857101,
                0.010672772594896998,
                -0.03219882728767334,
                0.08237167278253678,
                0.01281382457432813,
                0.030773261989772146,
                -0.09125067654258265,
                0.0013017157143717787,
                -0.0330197016246048,
                0.0035669631978423786,
                -0.06611633244119787,
                -0.00089005100554153,
                -0.0984916024016687,
                -0.11803770303489794,
                0.05861601679173391,
                0.040295533680213366,
                0.04307666802978894,
                0.027855911773479822,
                0.02034355153489614,
                -0.03413707115205345,
                0.07164862469677208,
                0.07431263472913333,
                0.009942968637614593,
                -0.033713788723165175,
                0.03741767786828405,
                0.006309842943886678,
                0.003554696095395252,
                0.04272159907742094,
                -0.04993887079561577,
                -0.0037142211563157453,
                -0.018591040929118084,
                -0.0068655620261982376,
                0.059691280560811195,
                0.08214678558292914,
                0.03181469523051299,
                0.0431765224117886,
                -0.0008009278386567226,
                0.004909272822746531,
                0.09333971241459893,
                0.0012347816937359761,
                0.0006642790987996699,
                0.08669396567812632,
                -0.008206257143107356,
                -0.08941663581977699,
                0.004899127535932031,
                -0.03037831168270808,
                -0.0898946053523695,
                -0.0460350409845061,
                0.0031584372270732756,
                -0.0399308941731159,
                -0.015551698836556748,
                0.06936863811811858,
                0.02956340412190734,
                -0.09311091967896191,
                0.07188165871961631,
                -0.06919933318375157,
                -0.00903263686274786,
                0.028486305869236853,
                0.02871768428605507,
                -0.06063719861632633,
                -0.06966856262725434,
                -0.026003619975633028,
                -0.025246731255470528,
                0.022993399736077585,
                -0.028211562735773254,
                0.03988234165186872,
                0.028295489517665723,
                0.06287033960570376,
                0.07960271078390428,
                0.0007578869397344408,
                -0.039982725594352085,
                0.08675154048283731,
                0.03053287361454476,
                0.0017083093783563262,
                -0.0774088325790835,
                0.0872493177568698,
                -0.07712909165118725,
                0.07175272440167398,
                -0.09442318834679689,
                -0.13273453767508112,
                0.03036337785485861,
                -0.09596080516805376,
                0.006620402218922361,
                -0.04623378978966707,
                0.03235918428702541,
                -0.009479273753029399,
                -0.04185780158215462,
                0.020909232667390077,
                0.03687535432150262,
                0.005014672961373056,
                -0.0031347264068839033,
                0.007519908185638599,
                0.04781895141484911,
                0.09478305911899843,
                0.10968000859195613,
                -0.10495732416393107,
                0.13614825978192757,
                0.010210655617101955,
                -0.030946376978839226,
                0.051500794024120666,
                0.08233983316513385,
                -0.05819862428235129,
                -0.003541817987988801,
                0.08779304754494753,
                0.04901628003111266,
                -0.05539390093775171,
                -0.02621204823750731,
                -0.012807574823690118,
                -0.07081277057236357,
                -0.08117335228142084,
                0.004133780413714696,
                0.022943055718361742,
                0.048816430170633,
                -0.021935181076413943,
                0.038074352087879064,
                0.031087590125203655,
                0.1244052975490802,
                0.01653695418082376,
                -0.002146256631002496,
                -0.046765462077675145,
                0.08723973069134436,
                -0.03803706358892148,
                -0.001664833738664067,
                -0.04594956139692123,
                0.006991835614179029,
                0.03718604772844419,
                0.0274916334615791,
                0.02778771818530981,
                0.004327241294982818,
                0.09121747621717873,
                -0.02956883307724546,
                -0.035303232083875355,
                0.06063276151086916,
                -0.006957449453694588,
                0.006411162685757764,
                0.048620594494904155,
                0.04751279857116053,
                -0.03268327628170253,
                -0.01830916682062554,
                0.11283964735457952,
                -0.08431568858016886,
                -0.02763972441134031,
                0.042274085361001676,
                0.04791918636525548,
                0.014359893678089567,
                -0.019104757233699397,
                -0.026065340173525364,
                -0.11648452139610936,
                -0.06431990875868346,
                0.014759562282004417,
                0.008533386461618876,
                -0.07007498055588504,
                0.07676987331280317,
                -0.056447542539952045,
                0.046787829107915464,
                -0.0054819746834807405,
                -0.006976682624815747,
                0.03850553547712665,
                0.022468716061049387,
                -0.0271339719796278,
                -0.015616908735213157,
                0.01625777771754898,
                -0.000737939672330649,
                0.00760394504213077,
                -0.037988877472216534,
                0.07014514609839576,
                0.0019837921137260046,
                -0.06961269393541039,
                0.0012426766388761192,
